tree
version=v3
num_class=1
num_tree_per_iteration=1
label_index=0
max_feature_idx=43
objective=regression
feature_names=FormRE Province FloorNum Area Height Width UsableArea FrontLength BackSideLength Direction BalconyDirection Corner RoadInFront Juridical NumOfBed NumOfFloor NumOfToilet ConstructionYear IsOwner Furniture Terrace CarParking DinningRoom Kitchen AirCond ADSL WashingMachine Balcony Fridge Wifi Pool Basement Park SuperMarket Clinics Sea Hospital Church BusStation School Temple Airport Preschool Characteristics
feature_infos=[0:3.3407603105397121] [0:5.6845066568241238] none [0:12.122552875096359] [0:60.74797875560801] [0:30.822755012689935] [0:19.874209460485194] none none [0:2.7502502974850289] none none [0:10.272201962485878] [0:1.5409627556327752] [0:10.381747770124459] [0:6.6549504435214502] [0:2.2596737867230705] none none [0:1.8203341036428238] [0:0.73046314711896665] [0:0.73046314711896665] [0:0.73046314711896665] [0:0.73046314711896665] none none none none none none none none none none none none none none none none none none none [0:1.5409627556327752]
tree_sizes=575 589 592 588 595 588 587 596 597 588 580 591 591 593 589 594 591 598 589 594 592 605 588 593 592 590 590 586 591 587 594 587 595 588 595 590 592 594 587 590 596 583 593 593 592 596 595 593 590 593 585 591 585 602 591 590 595 588 586 595 606 602 585 594 605 585 586 592 588 589 600 594 601 592 591 592 597 585 590 587 591 594 594 586 600 594 589 593 612 591 578 589 594 586 580 593 592 584 589 601 597 592 590 612 591 596 598 597 594 590 581 589 593 595 586 601 583 598 601 607 603 599 592 602 603 591 605 605 590 598 586 598 594 600 602 594 588 595 598 599 590 589 584 599 599 598 586 591 596 591 597 601 594 587 580 588 589 586 600 597 598 585 602 601 600 597 596 593 596 590 591 593 603 593 598 592 594 586 589 583 595 599 589 606 607 593 601 592 593 593 585 588 616 588 588 610 600 585 609 606 593 577 595 607 590 596 600 605 597 595 580 595 601 595 600 600 595 589 595 588 608 599 593 598 594 601 608 596 602 595 577 593 583 593 592 593 599 595 588 609 596 592 587 607 587 591 598 617 582 583 592 607 600 581 603 604 583 598 604 594 610 594 594 608 592 619 581 594 589 622 610 589 589 592 599 605 601 586 602 593 582 594 592 591 618 601 588 620 602 593 582 599 597 591 601 594 604 620 594 598 607 596 593 593 599 594 586 591 591 585 602 602 598 594 596 581 599 587 575 598 594 583 602 583 591 601 604 601 610 585 593 594 592 585 595 601 604 587 603 599 595 600 597 592 598 575 599 602 573 595 598 617 603 581 588 585 595 594 596 592 575 574 597 610 573 595 604 593 605 588 596 589 590 604 605 602 592 604 598 596 595 591 596 599 594 590 604 604 611 594 604 588 597 591 593 608 601 586 597 597 598 581 599 596 590 597 589 613 597 614 612 624 587 594 584 579 612 597 599 599 594 576 598 614 575 582 588 600 603 616 585 594 605 594 581 588 595 597 580 620 615 608 605 594 598 596 588 592 608 607 592 607 588 595 596 590 596 589 592 591 590 590 597 589 595 587 596 587 605 591 597 594 584 609 604 610 598 584 584 621 585 615 584 591 605 581 601 605 600 593 593 587 589 584 592 588 601 598 584 596 593 588 599 599 622 590 607 593 589 592 577 610 605 586 600 598 598 602 586 602 585 583 613 598 604 590 604 592 597 591 594 582 591 589 595 600 620 589 589 604 600 595 596 596 597 592 590 619 606 627 580 593 592 569 601 586 587 595 601 593 590 597 605 614 592 590 625 591 595 598 613 584 592 592 581 592 585 583 596 593 604 589 600 604 596 579 588 590 597 589 583 584 593 595 596 600 615 594 602 590 587 592 595 595 598 598 602 590 605 593 614 609 595 583 592 586 596 587 599 585 588 606 620 613 619 590 583 597 575 594 589 580 594 594 598 595 614 616 589 590 602 592 585 595 602 594 594 600 603 594 588 596 584 587 606 594 597 594 594 608 601 595 606 584 604 591 597 605 601 595 585 586 601 590 590 603 593 590 621 581 616 601 619 602 600 598 590 576 597 582 608 599 596 591 601 594 593 589 583 586 591 618 581 584 597 592 596 598 590 589 585 574 612 590 583 578 585 593 595 602

Tree=0
num_leaves=5
num_cat=0
split_feature=3 3 16 3
split_gain=3837.01 945.992 772.455 174.888
threshold=1.0000000180025095e-35 7.4903040685228648 1.3676401967542762 5.3034034897221876
decision_type=2 2 2 2
left_child=2 3 -1 -2
right_child=1 -3 -4 -5
leaf_value=22.214139878520399 22.259124509674763 22.310038476293261 22.262580182001059 22.275033810560647
leaf_weight=3930 2382 1851 1041 6286
leaf_count=3930 2382 1851 1041 6286
internal_value=22.2607 22.2776 22.2243 22.2707
internal_weight=0 10519 4971 8668
internal_count=15490 10519 4971 8668
is_linear=0
shrinkage=1


Tree=1
num_leaves=5
num_cat=0
split_feature=12 1 1 21
split_gain=4263.41 984.52 1208.7 975.968
threshold=2.4818650624278922 4.3519467737918545 3.484264854180712 1.0000000180025095e-35
decision_type=2 2 2 2
left_child=3 2 -2 -1
right_child=1 -3 -4 -5
leaf_value=-0.034619672899970852 -0.0063553515378416362 -0.012533016243026036 0.060177227745098032 -0.0039366617751686794
leaf_weight=4969 853 833 3418 5417
leaf_count=4969 853 833 3418 5417
internal_value=0 0.0371913 0.0468894 -0.0186164
internal_weight=0 5104 4271 10386
internal_count=15490 5104 4271 10386
is_linear=0
shrinkage=0.05


Tree=2
num_leaves=5
num_cat=0
split_feature=15 12 12 12
split_gain=6003.31 2650.96 447.157 319.307
threshold=1.0000000180025095e-35 2.5474314023886886 3.8204317906260239 1.8453726503557257
decision_type=2 2 2 2
left_child=-1 3 -3 -2
right_child=1 2 -4 -5
leaf_value=-0.034720754136943401 -0.0035306329702050592 0.048931360557653979 0.087071215014408065 0.02242605558453761
leaf_weight=6950 3381 2134 1201 1824
leaf_count=6950 3381 2134 1201 1824
internal_value=0 0.0278642 0.0626663 0.00556543
internal_weight=0 8540 3335 5205
internal_count=15490 8540 3335 5205
is_linear=0
shrinkage=0.05


Tree=3
num_leaves=5
num_cat=0
split_feature=14 15 15 14
split_gain=5584.24 1370.1 876.764 430.843
threshold=1.6806484296377997 1.0000000180025095e-35 2.3499710825428539 1.9379878208504662
decision_type=2 2 2 2
left_child=1 -1 3 -2
right_child=2 -3 -4 -5
leaf_value=-0.036073225892394728 0.017852343859265523 0.003170247157239901 0.095462568931575953 0.047353189866521865
leaf_weight=6541 2451 3370 628 2500
leaf_count=6541 2451 3370 628 2500
internal_value=0 -0.0227294 0.0398081 0.0327488
internal_weight=0 9911 5579 4951
internal_count=15490 9911 5579 4951
is_linear=0
shrinkage=0.05


Tree=4
num_leaves=5
num_cat=0
split_feature=12 12 20 12
split_gain=3420.4 763.586 734.175 75.3524
threshold=2.4818650624278922 3.8204317906260239 1.0000000180025095e-35 1.8453726503557257
decision_type=2 2 2 2
left_child=2 -2 -1 -4
right_child=1 -3 3 -5
leaf_value=-0.030545946903750509 0.020329745241887669 0.062110821804484774 -0.009649708258410418 0.0021502530208147995
leaf_weight=4969 3517 1587 2793 2624
leaf_count=4969 3517 1587 2793 2624
internal_value=0 0.0333208 -0.0166659 -0.0039338
internal_weight=0 5104 10386 5417
internal_count=15490 5104 10386 5417
is_linear=0
shrinkage=0.05


Tree=5
num_leaves=5
num_cat=0
split_feature=0 0 16 4
split_gain=4732.69 1330.27 895.378 358.895
threshold=2.5214314235676833 3.0697894645161337 1.0000000180025095e-35 4.1393299253535742
decision_type=2 2 2 2
left_child=2 -2 3 -1
right_child=1 -3 -4 -5
leaf_value=0.043930317612561512 -0.000473298710677581 -0.036174850146844587 -0.003335437031047469 0.084896932579547557
leaf_weight=3440 5039 5411 962 633
leaf_count=3440 5039 5411 962 633
internal_value=0 -0.0189595 0.0400499 0.0502971
internal_weight=0 10450 5035 4073
internal_count=15485 10450 5035 4073
is_linear=0
shrinkage=0.05


Tree=6
num_leaves=5
num_cat=0
split_feature=12 12 3 3
split_gain=2876.04 713.247 615.306 351.845
threshold=2.4818650624278922 3.8204317906260239 4.7686310199499387 7.4903040685228648
decision_type=2 2 2 2
left_child=2 -2 -1 -3
right_child=1 3 -4 -5
leaf_value=-0.026030050281895326 0.018084006087129192 0.041920556101245267 -0.0014186209724150404 0.091729760477496758
leaf_weight=5719 3581 1092 4568 525
leaf_count=5719 3581 1092 4568 525
internal_value=0 0.0305299 -0.0151012 0.0580924
internal_weight=0 5198 10287 1617
internal_count=15485 5198 10287 1617
is_linear=0
shrinkage=0.05


Tree=7
num_leaves=5
num_cat=0
split_feature=12 12 20 16
split_gain=2595.63 643.705 532.419 626.825
threshold=2.4818650624278922 3.8204317906260239 1.0000000180025095e-35 1.3676401967542762
decision_type=2 2 2 2
left_child=2 -2 3 -1
right_child=1 -3 -4 -5
leaf_value=-0.035670062518954153 0.017179805986396103 0.055187757123358452 -0.003463593035094355 0.0075528405478532505
leaf_weight=3843 3581 1617 5371 1073
leaf_count=3843 3581 1617 5371 1073
internal_value=0 0.0290034 -0.0143461 -0.0262359
internal_weight=0 5198 10287 4916
internal_count=15485 5198 10287 4916
is_linear=0
shrinkage=0.05


Tree=8
num_leaves=5
num_cat=0
split_feature=12 12 22 16
split_gain=2342.55 580.944 480.508 565.709
threshold=2.4818650624278922 3.8204317906260239 1.0000000180025095e-35 1.3676401967542762
decision_type=2 2 2 2
left_child=2 -2 3 -1
right_child=1 -3 -4 -5
leaf_value=-0.033886559810614829 0.016320815566889874 0.052428368999606637 -0.0032904134591805567 0.0071751984470013533
leaf_weight=3843 3581 1617 5371 1073
leaf_count=3843 3581 1617 5371 1073
internal_value=0 0.0275532 -0.0136288 -0.0249241
internal_weight=0 5198 10287 4916
internal_count=15485 5198 10287 4916
is_linear=0
shrinkage=0.05


Tree=9
num_leaves=5
num_cat=0
split_feature=23 6 4 6
split_gain=1640.63 502.818 161.531 131.225
threshold=1.0000000180025095e-35 7.4635384958585993 6.6745705244579669 5.3586168332084192
decision_type=2 2 2 2
left_child=1 2 3 -1
right_child=-2 -3 -4 -5
leaf_value=-0.037185278067003821 0.011285009677679741 0.01559857496950034 0.026747244090026569 -0.016801035988207199
leaf_weight=3028 10569 699 121 1068
leaf_count=3028 10569 699 121 1068
internal_value=0 -0.0236779 -0.0301883 -0.0318702
internal_weight=0 4916 4217 4096
internal_count=15485 4916 4217 4096
is_linear=0
shrinkage=0.05


Tree=10
num_leaves=5
num_cat=0
split_feature=12 1 1 12
split_gain=2006.17 737.015 887.8 430.374
threshold=2.5474314023886886 4.169585969404392 3.484264854180712 3.8204317906260239
decision_type=2 2 2 2
left_child=-1 2 -2 -4
right_child=1 -3 3 -5
leaf_value=-0.01270801519071817 -0.010893093757219995 -0.018611154952242318 0.032482732787468029 0.069885782807612762
leaf_weight=10407 878 792 2205 1181
leaf_count=10407 878 792 2205 1181
internal_value=0 0.0256834 0.0339107 0.0455285
internal_weight=0 5056 4264 3386
internal_count=15463 5056 4264 3386
is_linear=0
shrinkage=0.05


Tree=11
num_leaves=5
num_cat=0
split_feature=3 3 16 3
split_gain=1405.95 534.229 313.687 267.189
threshold=5.1137119054210949 7.4903040685228648 1.6806484296377997 1.0000000180025095e-35
decision_type=2 2 2 2
left_child=2 -2 3 -1
right_child=1 -3 -4 -5
leaf_value=-0.027469202369781717 0.0066541107323412375 0.036788472565462194 0.016387725667000804 -0.0046382735844025134
leaf_weight=4314 6822 1875 629 1823
leaf_count=4314 6822 1875 629 1823
internal_value=0 0.0131508 -0.0172406 -0.0206873
internal_weight=0 8697 6766 6137
internal_count=15463 8697 6766 6137
is_linear=0
shrinkage=0.05


Tree=12
num_leaves=5
num_cat=0
split_feature=14 14 14 14
split_gain=3827.06 733.562 668.961 215.968
threshold=1.6806484296377997 1.0000000180025095e-35 2.3499710825428539 1.9379878208504662
decision_type=2 2 2 2
left_child=1 -1 3 -2
right_child=2 -3 -4 -5
leaf_value=-0.030950385771562162 0.014283569211960074 -0.0035598485128196058 0.06632055133237795 0.036700742557451392
leaf_weight=5503 2476 4398 1188 1898
leaf_count=5503 2476 4398 1188 1898
internal_value=0 -0.0187836 0.033048 0.024011
internal_weight=0 9901 5562 4374
internal_count=15463 9901 5562 4374
is_linear=0
shrinkage=0.05


Tree=13
num_leaves=5
num_cat=0
split_feature=22 9 9 4
split_gain=1170.54 226.714 194.963 109.214
threshold=1.0000000180025095e-35 2.1576576623905894 2.3499710825428539 6.6745705244579669
decision_type=2 2 2 2
left_child=3 -2 -3 -1
right_child=1 2 -4 -5
leaf_value=-0.021436368414799137 -0.0073478006383608562 0.015863207021621455 -0.0040811134827755998 0.024663592425217346
leaf_weight=4810 1713 7337 1471 132
leaf_count=4810 1713 7337 1471 132
internal_value=0 0.00929553 0.0125324 -0.020205
internal_weight=0 10521 8808 4942
internal_count=15463 10521 8808 4942
is_linear=0
shrinkage=0.05


Tree=14
num_leaves=5
num_cat=0
split_feature=14 5 15 5
split_gain=3378.57 968.788 763.852 581.294
threshold=1.6806484296377997 2.3362125098557192 1.0000000180025095e-35 2.4462226988301619
decision_type=2 2 2 2
left_child=2 -2 -1 -4
right_child=1 -3 3 -5
leaf_value=-0.027684725794574778 0.01898261976614617 0.067122047568135654 -0.006325419316263927 0.055753339036756971
leaf_weight=6502 4167 1395 2967 432
leaf_count=6502 4167 1395 2967 432
internal_value=0 0.0310564 -0.0176435 0.00156456
internal_weight=0 5562 9901 3399
internal_count=15463 5562 9901 3399
is_linear=0
shrinkage=0.05


Tree=15
num_leaves=5
num_cat=0
split_feature=14 14 14 14
split_gain=3066.57 602.261 590.051 195.567
threshold=1.6806484296377997 2.5214314235676833 1.0000000180025095e-35 1.9379878208504662
decision_type=2 2 2 2
left_child=2 3 -1 -2
right_child=1 -3 -4 -5
leaf_value=-0.027757756498452003 0.012421104450781187 0.064226746682315039 -0.0031187471323073897 0.033243364993755138
leaf_weight=5508 2523 1020 4348 2039
leaf_count=5508 2523 1020 4348 2039
internal_value=0 0.0294935 -0.0168882 0.0217277
internal_weight=0 5582 9856 4562
internal_count=15438 5582 9856 4562
is_linear=0
shrinkage=0.05


Tree=16
num_leaves=5
num_cat=0
split_feature=15 15 6 6
split_gain=2572.65 699.696 184.375 144.607
threshold=1.0000000180025095e-35 2.1576576623905894 6.6593935678183396 1.0000000180025095e-35
decision_type=2 2 2 2
left_child=2 3 -1 -2
right_child=1 -3 -4 -5
leaf_value=-0.02503872424054527 0.015269580441012457 0.053652854034991107 0.0055669719338902815 -0.005455190783338267
leaf_weight=6410 6320 1204 533 971
leaf_count=6410 6320 1204 533 971
internal_value=0 0.0183408 -0.0226892 0.0125095
internal_weight=0 8495 6943 7291
internal_count=15438 8495 6943 7291
is_linear=0
shrinkage=0.05


Tree=17
num_leaves=5
num_cat=0
split_feature=5 22 22 5
split_gain=1135.95 573.799 367.989 173.115
threshold=2.2644413017531417 1.0000000180025095e-35 1.0000000180025095e-35 2.0169895276086414
decision_type=2 2 2 2
left_child=2 -2 3 -1
right_child=1 -3 -4 -5
leaf_value=-0.010327908615991753 -0.004914132817507493 0.033846266201052515 -0.002403494001623797 -0.032510526038692283
leaf_weight=1675 1405 2980 7526 1852
leaf_count=1675 1405 2980 7526 1852
internal_value=0 0.021427 -0.008649 -0.0219758
internal_weight=0 4385 11053 3527
internal_count=15438 4385 11053 3527
is_linear=0
shrinkage=0.05


Tree=18
num_leaves=5
num_cat=0
split_feature=14 3 14 3
split_gain=2541.42 695.437 470.17 481.682
threshold=1.6806484296377997 6.6648013598549003 1.0000000180025095e-35 6.9433018247519103
decision_type=2 2 2 2
left_child=2 -2 -1 -4
right_child=1 -3 3 -5
leaf_value=-0.025070774049930408 0.016522967494704818 0.056998854448250903 -0.008918576543995178 0.044332004235437497
leaf_weight=5508 4157 1425 3871 477
leaf_count=5508 4157 1425 3871 477
internal_value=0 0.0268558 -0.015368 -0.00307669
internal_weight=0 5582 9856 4348
internal_count=15438 5582 9856 4348
is_linear=0
shrinkage=0.05


Tree=19
num_leaves=5
num_cat=0
split_feature=14 14 14 14
split_gain=2293.63 487.023 424.328 162.553
threshold=1.6806484296377997 2.5214314235676833 1.0000000180025095e-35 1.9379878208504662
decision_type=2 2 2 2
left_child=2 3 -1 -2
right_child=1 -3 -4 -5
leaf_value=-0.023817235194957136 0.010044797617031075 0.056747050424643987 -0.0029228546562622398 0.029028376774850307
leaf_weight=5508 2523 1020 4348 2039
leaf_count=5508 2523 1020 4348 2039
internal_value=0 0.0255131 -0.0145996 0.0185296
internal_weight=0 5582 9856 4562
internal_count=15438 5582 9856 4562
is_linear=0
shrinkage=0.05


Tree=20
num_leaves=5
num_cat=0
split_feature=22 1 1 1
split_gain=701.857 594.834 412.837 392.34
threshold=1.0000000180025095e-35 4.169585969404392 5.2668119448065935 3.484264854180712
decision_type=2 2 2 2
left_child=2 3 -1 -2
right_child=1 -3 -4 -5
leaf_value=-0.03345164552314437 -0.011256860327536132 -0.020255527625903186 -0.0035888800052975736 0.017505343549006958
leaf_weight=1887 1411 1596 2993 7424
leaf_count=1887 1411 1596 2993 7424
internal_value=0 0.00783706 -0.0151362 0.0129119
internal_weight=0 10431 4880 8835
internal_count=15311 10431 4880 8835
is_linear=0
shrinkage=0.05


Tree=21
num_leaves=5
num_cat=0
split_feature=5 20 20 5
split_gain=1008.23 387.747 300.309 144.008
threshold=2.2644413017531417 1.0000000180025095e-35 1.0000000180025095e-35 2.0169895276086414
decision_type=2 2 2 2
left_child=2 -2 3 -1
right_child=1 -3 -4 -5
leaf_value=-0.0089872943764475795 -0.00098105055239782173 0.031065013842945424 -0.0019305885526283457 -0.029314568324195496
leaf_weight=1655 1385 2964 7467 1840
leaf_count=1655 1385 2964 7467 1840
internal_value=0 0.0208595 -0.00759245 -0.0196889
internal_weight=0 4349 10962 3495
internal_count=15311 4349 10962 3495
is_linear=0
shrinkage=0.05


Tree=22
num_leaves=5
num_cat=0
split_feature=0 14 12 14
split_gain=2227.13 658.295 518.14 310.051
threshold=2.5214314235676833 1.3676401967542762 3.3894353769711834 1.9379878208504662
decision_type=2 2 2 2
left_child=2 -2 3 -1
right_child=1 -3 -4 -5
leaf_value=0.005824653850117799 -0.022335041124547275 0.0039535181391522839 0.050241898505472921 0.03875914342672971
leaf_weight=2251 6577 3733 1703 1047
leaf_count=2251 6577 3733 1703 1047
internal_value=0 -0.0128166 0.0278452 0.0162802
internal_weight=0 10310 5001 3298
internal_count=15311 10310 5001 3298
is_linear=0
shrinkage=0.05


Tree=23
num_leaves=5
num_cat=0
split_feature=3 3 16 3
split_gain=707.383 305.943 198.527 88.2186
threshold=7.4903040685228648 5.3034034897221876 1.6806484296377997 1.0000000180025095e-35
decision_type=2 2 2 2
left_child=1 2 3 -1
right_child=-2 -3 -4 -5
leaf_value=-0.017348116753260045 0.029395869818238912 0.004522686022528353 0.01691873052079787 -0.0052150472234293154
leaf_weight=4280 1854 6271 601 2305
leaf_count=4280 1854 6271 601 2305
internal_value=0 -0.00354765 -0.0105904 -0.0131011
internal_weight=0 13457 7186 6585
internal_count=15311 13457 7186 6585
is_linear=0
shrinkage=0.05


Tree=24
num_leaves=5
num_cat=0
split_feature=14 5 5 14
split_gain=1775.32 618.749 501.636 503.299
threshold=1.6806484296377997 2.4462226988301619 2.8923345256312616 1.0000000180025095e-35
decision_type=2 2 2 2
left_child=2 -2 3 -1
right_child=1 -3 -4 -5
leaf_value=-0.02950852634975339 0.014682903317846416 0.056541179175761236 0.014052403354945654 -0.0047972130073049239
leaf_weight=4166 4456 1101 1511 4077
leaf_count=4166 4456 1101 1511 4077
internal_value=0 0.0229762 -0.0124316 -0.0172863
internal_weight=0 5557 9754 8243
internal_count=15311 5557 9754 8243
is_linear=0
shrinkage=0.05


Tree=25
num_leaves=5
num_cat=0
split_feature=5 9 9 6
split_gain=812.76 305.252 204.225 145.281
threshold=2.2644413017531417 1.9379878208504662 1.3676401967542762 7.7560849484388568
decision_type=2 2 2 2
left_child=2 -2 3 -1
right_child=1 -3 -4 -5
leaf_value=-0.022537415808227143 -0.00095438176391172969 0.027009401574307548 -0.0034984997059629916 0.018696542698720096
leaf_weight=2568 1449 2989 8321 233
leaf_count=2568 1449 2989 8321 233
internal_value=0 0.0178793 -0.00742949 -0.0191074
internal_weight=0 4438 11122 2801
internal_count=15560 4438 11122 2801
is_linear=0
shrinkage=0.05


Tree=26
num_leaves=5
num_cat=0
split_feature=0 3 0 3
split_gain=1906.67 573.636 439.599 196.513
threshold=2.5214314235676833 7.1124661792173276 3.0697894645161337 5.6995877797373931
decision_type=2 2 2 2
left_child=1 -1 3 -2
right_child=2 -3 -4 -5
leaf_value=0.015596777624546768 -0.0076739540768386381 0.055020605988665483 -0.022079699096932887 0.014454099292605353
leaf_weight=3796 3683 1219 5483 1379
leaf_count=3796 3683 1219 5483 1379
internal_value=0 0.0251796 -0.0122706 -0.00164579
internal_weight=0 5015 10545 5062
internal_count=15560 5015 10545 5062
is_linear=0
shrinkage=0.05


Tree=27
num_leaves=5
num_cat=0
split_feature=15 3 12 3
split_gain=1390.87 925.317 276.609 202.155
threshold=1.0000000180025095e-35 6.7613098126198752 2.17111610418416 2.7691733519034405
decision_type=2 2 2 2
left_child=-1 2 -2 -4
right_child=1 -3 3 -5
leaf_value=-0.016682689686597994 -0.0036538416537521719 0.044832054956452039 0.097417730347890613 0.014711446263286335
leaf_weight=7018 3979 1834 76 2653
leaf_count=7018 3979 1834 76 2653
internal_value=0 0.0133595 0.00475471 0.0170147
internal_weight=0 8542 6708 2729
internal_count=15560 8542 6708 2729
is_linear=0
shrinkage=0.05


Tree=28
num_leaves=5
num_cat=0
split_feature=9 9 4 4
split_gain=343.453 137.601 113.448 36.3717
threshold=1.9379878208504662 2.3499710825428539 6.6745705244579669 1.0000000180025095e-35
decision_type=2 2 2 2
left_child=2 3 -1 -2
right_child=1 -3 -4 -5
leaf_value=-0.012013142414001199 0.01359140255601275 -0.0054491645015977567 0.036597292056322339 0.0060687630073696791
leaf_weight=4965 2218 2423 123 5831
leaf_count=4965 2218 2423 123 5831
internal_value=0 0.00499707 -0.010838 0.00814172
internal_weight=0 10472 5088 8049
internal_count=15560 10472 5088 8049
is_linear=0
shrinkage=0.05


Tree=29
num_leaves=5
num_cat=0
split_feature=0 0 4 4
split_gain=1594.29 355.232 258.226 216.968
threshold=2.5214314235676833 3.0697894645161337 3.8595581788924638 6.6745705244579669
decision_type=2 2 2 2
left_child=2 -2 -1 -3
right_child=1 3 -4 -5
leaf_value=0.016543965485666407 -0.0016580473922622779 -0.021800513692197293 0.042864195348190678 0.035746468237143829
leaf_weight=3778 5062 5314 1237 169
leaf_count=3778 5062 5314 1237 169
internal_value=0 -0.0112091 0.0230361 -0.0200268
internal_weight=0 10545 5015 5483
internal_count=15560 10545 5015 5483
is_linear=0
shrinkage=0.05


Tree=30
num_leaves=5
num_cat=0
split_feature=14 12 14 14
split_gain=1305.03 356.341 322.201 196.741
threshold=1.9379878208504662 3.3894353769711834 1.3676401967542762 3.3894353769711834
decision_type=2 2 2 2
left_child=1 2 -1 -2
right_child=3 -3 -4 -5
leaf_value=-0.017180976603506672 0.024237421186572426 0.015467852575210054 0.00054924549736246997 0.062125222141467207
leaf_weight=6690 2721 1519 4153 392
leaf_count=6690 2721 1519 4153 392
internal_value=0 -0.00721275 -0.0103901 0.0290084
internal_weight=0 12362 10843 3113
internal_count=15475 12362 10843 3113
is_linear=0
shrinkage=0.05


Tree=31
num_leaves=5
num_cat=0
split_feature=12 12 16 4
split_gain=798.281 182.715 154.571 97.501
threshold=3.3894353769711834 1.8453726503557257 1.6806484296377997 6.6745705244579669
decision_type=2 2 2 2
left_child=1 2 3 -1
right_child=-2 -3 -4 -5
leaf_value=-0.01273109487477022 0.026407496934665077 0.002246257719018506 0.014244566862539438 0.028283985013085596
leaf_weight=6913 2426 5372 616 148
leaf_count=6913 2426 5372 616 148
internal_value=0 -0.00482661 -0.00977587 -0.0118714
internal_weight=0 13049 7677 7061
internal_count=15475 13049 7677 7061
is_linear=0
shrinkage=0.05


Tree=32
num_leaves=5
num_cat=0
split_feature=5 22 5 5
split_gain=687.007 174.322 113.59 216.328
threshold=2.2644413017531417 1.0000000180025095e-35 2.0169895276086414 2.0589054744004582
decision_type=2 2 2 2
left_child=2 -2 -1 -4
right_child=1 -3 3 -5
leaf_value=-0.0017407763194307792 0.0019916969860934918 0.023406768754165124 -0.018523929001015769 0.0035156613448488585
leaf_weight=5760 1382 3042 3698 1593
leaf_count=5760 1382 3042 3698 1593
internal_value=0 0.016717 -0.00659921 -0.0118883
internal_weight=0 4424 11051 5291
internal_count=15475 4424 11051 5291
is_linear=0
shrinkage=0.05


Tree=33
num_leaves=5
num_cat=0
split_feature=1 1 1 1
split_gain=359.212 376.398 287.709 497.777
threshold=5.5432820482878951 3.484264854180712 4.169585969404392 5.2668119448065935
decision_type=2 2 2 2
left_child=1 -1 -3 -4
right_child=-2 2 3 -5
leaf_value=-0.016639707931643669 -0.029107188699461346 0.01115749763101055 -0.031683796819808638 0.0059502357358117187
leaf_weight=2271 988 7941 1236 3039
leaf_count=2271 988 7941 1236 3039
internal_value=0 0.0020525 0.00552745 -0.00493062
internal_weight=0 14487 12216 4275
internal_count=15475 14487 12216 4275
is_linear=0
shrinkage=0.05


Tree=34
num_leaves=5
num_cat=0
split_feature=14 14 12 14
split_gain=1095.55 301.291 283.108 172.193
threshold=1.9379878208504662 1.0000000180025095e-35 3.3894353769711834 4.4091074173173004
decision_type=2 2 2 2
left_child=1 -1 -3 -2
right_child=3 2 -4 -5
leaf_value=-0.015360709218328817 0.024086617634769596 -0.0033455919905201999 0.028175550487234066 0.082234366745442933
leaf_weight=5482 2980 6073 807 133
leaf_count=5482 2980 6073 807 133
internal_value=0 -0.00661604 0.000351728 0.0265709
internal_weight=0 12362 6880 3113
internal_count=15475 12362 6880 3113
is_linear=0
shrinkage=0.05


Tree=35
num_leaves=5
num_cat=0
split_feature=20 16 16 43
split_gain=177.603 109.397 20.5678 8.34431
threshold=1.0000000180025095e-35 1.3676401967542762 2.1576576623905894 1.3676401967542762
decision_type=2 2 2 2
left_child=1 3 -3 -1
right_child=-2 2 -4 -5
leaf_value=-0.010647464990683735 0.0038109207813910046 0.0046030968446748319 0.0322777900139853 -0.017155167676452227
leaf_weight=3268 10525 994 72 580
leaf_count=3268 10525 994 72 580
internal_value=0 -0.00770176 0.00647231 -0.0116284
internal_weight=0 4914 1066 3848
internal_count=15439 4914 1066 3848
is_linear=0
shrinkage=0.05


Tree=36
num_leaves=5
num_cat=0
split_feature=0 0 16 0
split_gain=1151.19 220.342 122.512 84.1404
threshold=2.5214314235676833 3.0697894645161337 1.0000000180025095e-35 2.1576576623905894
decision_type=2 2 2 2
left_child=2 -2 3 -1
right_child=1 -3 -4 -5
leaf_value=0.0072477367391222116 -0.0017334657632737992 -0.016232435456883836 0.0038158590257121403 0.027015047325755867
leaf_weight=641 5066 5428 943 3361
leaf_count=641 5066 5428 943 3361
internal_value=0 -0.00923303 0.0200287 0.0238489
internal_weight=0 10494 4945 4002
internal_count=15439 10494 4945 4002
is_linear=0
shrinkage=0.05


Tree=37
num_leaves=5
num_cat=0
split_feature=14 14 4 4
split_gain=898.229 271.143 207.601 168.865
threshold=1.9379878208504662 1.0000000180025095e-35 3.8595581788924638 6.6745705244579669
decision_type=2 2 2 2
left_child=1 3 -3 -1
right_child=-2 2 -4 -5
leaf_value=-0.015667746289116543 0.024379372105792513 -0.0027175156017907871 0.022504197311619383 0.036149511791513815
leaf_weight=5338 3062 5931 946 162
leaf_count=5338 3062 5931 946 162
internal_value=0 -0.00586627 0.000751983 -0.0141415
internal_weight=0 12377 6877 5500
internal_count=15439 12377 6877 5500
is_linear=0
shrinkage=0.05


Tree=38
num_leaves=5
num_cat=0
split_feature=12 1 1 1
split_gain=562.727 218.326 301.487 167.732
threshold=2.7848356694136949 4.2323110362914269 3.484264854180712 5.5432820482878951
decision_type=2 2 2 2
left_child=3 2 -2 -1
right_child=1 -3 -4 -5
leaf_value=-0.0040442612152791447 -0.0067500753028523347 -0.011317220081517835 0.028290040533720379 -0.028122385844116027
leaf_weight=10463 788 633 2778 777
leaf_count=10463 788 633 2778 777
internal_value=0 0.0157435 0.020547 -0.00570874
internal_weight=0 4199 3566 11240
internal_count=15439 4199 3566 11240
is_linear=0
shrinkage=0.05


Tree=39
num_leaves=5
num_cat=0
split_feature=22 6 16 6
split_gain=122.882 141.221 58.2907 33.2688
threshold=1.0000000180025095e-35 8.7892120920273218 1.3676401967542762 7.7560849484388568
decision_type=2 2 2 2
left_child=1 2 3 -1
right_child=-2 -3 -4 -5
leaf_value=-0.011642612498299955 0.0031673894527228883 0.035177716220329912 0.0029100640861815063 0.020180951320521889
leaf_weight=3681 10525 196 953 84
leaf_count=3681 10525 196 953 84
internal_value=0 -0.00640886 -0.00813649 -0.0109326
internal_weight=0 4914 4718 3765
internal_count=15439 4914 4718 3765
is_linear=0
shrinkage=0.05


Tree=40
num_leaves=5
num_cat=0
split_feature=5 15 15 5
split_gain=675.978 556.337 435.735 160.877
threshold=2.4462226988301619 0.96239039249737179 1.0000000180025095e-35 4.2170098630526747
decision_type=2 2 2 2
left_child=1 -1 3 -2
right_child=2 -3 -4 -5
leaf_value=-0.017014255988911729 -0.0036690097518486974 0.0045967824697469729 0.039573450943004178 0.027671810647577535
leaf_weight=5746 1594 6182 1491 551
leaf_count=5746 1594 6182 1491 551
internal_value=0 -0.00581377 0.0188126 0.00438171
internal_weight=0 11928 3636 2145
internal_count=15564 11928 3636 2145
is_linear=0
shrinkage=0.05


Tree=41
num_leaves=5
num_cat=0
split_feature=0 4 0 4
split_gain=825.949 216.228 128.614 159.247
threshold=2.5214314235676833 3.8595581788924638 3.0697894645161337 6.6745705244579669
decision_type=2 2 2 2
left_child=1 -1 -2 -4
right_child=2 -3 3 -5
leaf_value=0.010722137080758157 -0.0022718603434248807 0.0348098171534467 -0.014811490295957415 0.035215387087338033
leaf_weight=3756 5107 1239 5298 164
leaf_count=3756 5107 1239 5298 164
internal_value=0 0.016697 -0.007976 -0.0133094
internal_weight=0 4995 10569 5462
internal_count=15564 4995 10569 5462
is_linear=0
shrinkage=0.05


Tree=42
num_leaves=5
num_cat=0
split_feature=14 12 14 14
split_gain=709.919 186.413 158.778 134.608
threshold=1.9379878208504662 3.6600977475631402 1.3676401967542762 3.6600977475631402
decision_type=2 2 2 2
left_child=1 2 -1 -2
right_child=3 -3 -4 -5
leaf_value=-0.01181723381757656 0.017931393702493352 0.014951066488063014 0.00033237262584346548 0.05301674133206629
leaf_weight=7104 2796 1034 4327 303
leaf_count=7104 2796 1034 4327 303
internal_value=0 -0.00537923 -0.00721822 0.0213618
internal_weight=0 12465 11431 3099
internal_count=15564 12465 11431 3099
is_linear=0
shrinkage=0.05


Tree=43
num_leaves=5
num_cat=0
split_feature=9 16 9 9
split_gain=123.015 69.1687 43.1087 10.436
threshold=1.6806484296377997 1.6806484296377997 2.3499710825428539 2.1576576623905894
decision_type=2 2 2 2
left_child=1 -1 3 -2
right_child=2 -3 -4 -5
leaf_value=-0.0092771114156138448 0.00038167240499334398 0.012097942293121486 -0.0032225981158348739 0.0050757962896588269
leaf_weight=3913 1409 419 2407 7416
leaf_count=3913 1409 419 2407 7416
internal_value=0 -0.00720967 0.00270861 0.00432633
internal_weight=0 4332 11232 8825
internal_count=15564 4332 11232 8825
is_linear=0
shrinkage=0.05


Tree=44
num_leaves=5
num_cat=0
split_feature=0 14 14 14
split_gain=697.295 251.27 153.586 84.9607
threshold=2.5214314235676833 2.1576576623905894 1.3676401967542762 0.96239039249737179
decision_type=2 2 2 2
left_child=1 3 -2 -1
right_child=2 -3 -4 -5
leaf_value=0.030499741491478844 -0.011841961479579662 0.034290913489808138 0.00071785911861460029 0.0060723156462561094
leaf_weight=399 6768 1296 3801 3300
leaf_count=399 6768 1296 3801 3300
internal_value=0 0.0153452 -0.00732499 0.00870723
internal_weight=0 4995 10569 3699
internal_count=15564 4995 10569 3699
is_linear=0
shrinkage=0.05


Tree=45
num_leaves=5
num_cat=0
split_feature=22 4 16 4
split_gain=83.2004 74.8427 67.7094 33.4794
threshold=1.0000000180025095e-35 6.6745705244579669 1.3676401967542762 3.934315229312801
decision_type=2 2 2 2
left_child=1 2 -1 -2
right_child=3 -3 -4 -5
leaf_value=-0.009525984079362464 0.0011207345193605279 0.031281736486605094 0.0047262527183213341 0.0080503193744075312
leaf_weight=3719 8249 136 1074 2210
leaf_count=3719 8249 136 1074 2210
internal_value=0 -0.00529455 -0.00633239 0.00258496
internal_weight=0 4929 4793 10459
internal_count=15388 4929 4793 10459
is_linear=0
shrinkage=0.05


Tree=46
num_leaves=5
num_cat=0
split_feature=14 12 14 14
split_gain=586.302 162.041 125.576 118.789
threshold=1.9379878208504662 3.3894353769711834 3.3894353769711834 1.3676401967542762
decision_type=2 2 2 2
left_child=1 3 -2 -1
right_child=2 -3 -4 -5
leaf_value=-0.011083710657259022 0.01570979198500343 0.010698242384303499 0.046423499891810896 -0.00028594769666282171
leaf_weight=6693 2730 1474 379 4112
leaf_count=6693 2730 1474 379 4112
internal_value=0 -0.00485299 0.0194539 -0.00697446
internal_weight=0 12279 3109 10805
internal_count=15388 12279 3109 10805
is_linear=0
shrinkage=0.05


Tree=47
num_leaves=5
num_cat=0
split_feature=14 15 15 15
split_gain=529.137 172.465 139.818 79.2328
threshold=1.9379878208504662 2.5214314235676833 1.0000000180025095e-35 2.9485933578755184
decision_type=2 2 2 2
left_child=2 -2 -1 -4
right_child=1 -3 3 -5
leaf_value=-0.0094734230457065392 0.014499202830595755 0.053308309008276857 0.0016820109016141003 -0.079794840868562464
leaf_weight=6707 2790 319 5542 30
leaf_count=6707 2790 319 5542 30
internal_value=0 0.0184812 -0.00461034 0.00124333
internal_weight=0 3109 12279 5572
internal_count=15388 3109 12279 5572
is_linear=0
shrinkage=0.05


Tree=48
num_leaves=5
num_cat=0
split_feature=15 4 4 15
split_gain=387.395 255.407 130.927 114.613
threshold=0.96239039249737179 3.6203626778541023 5.5432820482878951 2.1576576623905894
decision_type=2 2 2 2
left_child=2 3 -1 -2
right_child=1 -3 -4 -5
leaf_value=-0.0094366931687147083 -0.00013526401235202249 0.024427784234540763 0.014138775540377539 0.019776623713292391
leaf_weight=7377 4670 1846 640 855
leaf_count=7377 4670 1846 640 855
internal_value=0 0.00832601 -0.00755466 0.00294612
internal_weight=0 7371 8017 5525
internal_count=15388 7371 8017 5525
is_linear=0
shrinkage=0.05


Tree=49
num_leaves=5
num_cat=0
split_feature=4 6 20 6
split_gain=76.068 75.158 82.7166 42.2083
threshold=6.6745705244579669 9.4927521201886318 1.0000000180025095e-35 7.4635384958585993
decision_type=2 2 2 2
left_child=1 2 3 -1
right_child=-2 -3 -4 -5
leaf_value=-0.0079794238897006754 0.029864506959535572 0.04493863036738361 0.001853312195607479 0.0060606964015006547
leaf_weight=4086 211 91 10384 616
leaf_count=4086 211 91 10384 616
internal_value=0 -0.000364784 -0.000638058 -0.00614005
internal_weight=0 15177 15086 4702
internal_count=15388 15177 15086 4702
is_linear=0
shrinkage=0.05


Tree=50
num_leaves=5
num_cat=0
split_feature=5 12 5 5
split_gain=575.4 256.429 86.387 130.95
threshold=2.4462226988301619 3.6600977475631402 2.0589054744004582 2.0169895276086414
decision_type=2 2 2 2
left_child=2 -2 3 -1
right_child=1 -3 -4 -5
leaf_value=-0.0029060747673652575 0.011244911460020799 0.046447774000330615 0.002968625876507279 -0.01497635805537265
leaf_weight=5756 2957 627 2421 3686
leaf_count=5756 2957 627 2421 3686
internal_value=0 0.0174034 -0.00545757 -0.00761811
internal_weight=0 3584 11863 9442
internal_count=15447 3584 11863 9442
is_linear=0
shrinkage=0.05


Tree=51
num_leaves=5
num_cat=0
split_feature=0 1 1 1
split_gain=526.711 129.542 196.183 164.936
threshold=2.5214314235676833 5.5432820482878951 5.2668119448065935 4.3519467737918545
decision_type=2 2 2 2
left_child=-1 2 3 -2
right_child=1 -3 -4 -5
leaf_value=0.013337460360582865 -0.0059317367606252364 -0.025500419362468218 0.0082275951589257518 -0.028496282963355341
leaf_weight=4931 6555 824 2213 924
leaf_count=4931 6555 824 2213 924
internal_value=0 -0.00646803 -0.00484992 -0.00871949
internal_weight=0 10516 9692 7479
internal_count=15447 10516 9692 7479
is_linear=0
shrinkage=0.05


Tree=52
num_leaves=5
num_cat=0
split_feature=1 1 1 1
split_gain=189.923 215.483 124.605 79.5533
threshold=5.5432820482878951 3.484264854180712 1.3676401967542762 1.9379878208504662
decision_type=2 2 2 2
left_child=1 2 -1 -4
right_child=-2 -3 3 -5
leaf_value=0.0056395165025380561 -0.021336320857422517 0.0039328503275686431 -0.034545857729972339 -0.011627359343021337
leaf_weight=646 989 12207 612 993
leaf_count=646 989 12207 612 993
internal_value=0 0.00131162 -0.0129031 -0.0203664
internal_weight=0 14458 2251 1605
internal_count=15447 14458 2251 1605
is_linear=0
shrinkage=0.05


Tree=53
num_leaves=5
num_cat=0
split_feature=4 4 4 16
split_gain=57.4503 30.4615 100.316 22.6786
threshold=6.6745705244579669 1.0000000180025095e-35 3.0052699555259794 1.6806484296377997
decision_type=2 2 2 2
left_child=1 -1 -3 -4
right_child=-2 2 3 -5
leaf_value=0.0044766237082214484 0.026292316922734451 -0.011703283555987435 -7.2129901196250735e-05 0.010693463642224453
leaf_weight=2573 203 2021 10136 514
leaf_count=2573 203 2021 10136 514
internal_value=0 -0.00048338 -0.00149057 0.000447449
internal_weight=0 15244 12671 10650
internal_count=15447 15244 12671 10650
is_linear=0
shrinkage=0.05


Tree=54
num_leaves=5
num_cat=0
split_feature=14 12 1 1
split_gain=380.202 151.973 108.859 127.012
threshold=2.1576576623905894 2.7848356694136949 4.2323110362914269 3.484264854180712
decision_type=2 2 2 2
left_child=1 -1 3 -3
right_child=-2 2 -4 -5
leaf_value=-0.0061489436629651208 0.020279677576655601 -0.0066924110151634734 -0.013319235232479076 0.017384850191835746
leaf_weight=10191 1989 767 584 1916
leaf_count=10191 1989 767 584 1916
internal_value=0 -0.00314059 0.00624361 0.0105018
internal_weight=0 13458 3267 2683
internal_count=15447 13458 3267 2683
is_linear=0
shrinkage=0.05


Tree=55
num_leaves=5
num_cat=0
split_feature=1 1 4 1
split_gain=161.983 190.73 138.458 137.881
threshold=5.5432820482878951 3.484264854180712 3.8595581788924638 4.169585969404392
decision_type=2 2 2 2
left_child=1 -1 -3 -4
right_child=-2 2 3 -5
leaf_value=-0.012046812214635423 -0.019485409675558899 0.00092927070943053303 0.026720134791706502 0.0035374355217412529
leaf_weight=2282 1011 9567 1165 1427
leaf_count=2282 1011 9567 1165 1427
internal_value=0 0.00121712 0.00370649 0.0139571
internal_weight=0 14441 12159 2592
internal_count=15452 14441 12159 2592
is_linear=0
shrinkage=0.05


Tree=56
num_leaves=5
num_cat=0
split_feature=5 15 15 5
split_gain=422.565 253.057 247.305 128.814
threshold=2.4462226988301619 1.0000000180025095e-35 0.96239039249737179 4.2170098630526747
decision_type=2 2 2 2
left_child=2 3 -1 -2
right_child=1 -3 -4 -5
leaf_value=-0.012147117174301308 -0.0030297744183892033 0.031244128894115437 0.0022832452275957931 0.025435724895929879
leaf_weight=5717 1598 1431 6177 529
leaf_count=5717 1598 1431 6177 529
internal_value=0 0.0149871 -0.00465289 0.0040498
internal_weight=0 3558 11894 2127
internal_count=15452 3558 11894 2127
is_linear=0
shrinkage=0.05


Tree=57
num_leaves=5
num_cat=0
split_feature=14 14 14 4
split_gain=369.3 88.8351 85.2173 77.0657
threshold=1.9379878208504662 1.3676401967542762 4.1047324978355926 6.6745705244579669
decision_type=2 2 2 2
left_child=1 3 -2 -1
right_child=2 -3 -4 -5
leaf_value=-0.0080079834813530579 0.013373823347938317 0.0014881198231795534 0.049500066231440952 0.025839109328943628
leaf_weight=7560 2893 4654 173 172
leaf_count=7560 2893 4654 173 172
internal_value=0 -0.00396983 0.0154123 -0.00725505
internal_weight=0 12386 3066 7732
internal_count=15452 12386 3066 7732
is_linear=0
shrinkage=0.05


Tree=58
num_leaves=5
num_cat=0
split_feature=12 1 1 1
split_gain=277.545 101.132 140.724 96.23
threshold=3.2638637938764865 4.3519467737918545 3.484264854180712 5.5432820482878951
decision_type=2 2 2 2
left_child=3 2 -2 -1
right_child=1 -3 -4 -5
leaf_value=-0.0019486490924995365 -0.0043355594565780689 -0.0097156686172820625 0.025702228315515857 -0.019133005695060819
leaf_weight=12002 505 360 1711 874
leaf_count=12002 505 360 1711 874
internal_value=0 0.0148639 0.018857 -0.00311509
internal_weight=0 2576 2216 12876
internal_count=15452 2576 2216 12876
is_linear=0
shrinkage=0.05


Tree=59
num_leaves=5
num_cat=0
split_feature=14 1 1 1
split_gain=321.009 82.7142 118.782 271.577
threshold=1.9379878208504662 5.5432820482878951 5.2668119448065935 4.2323110362914269
decision_type=2 2 2 2
left_child=1 2 3 -1
right_child=-2 -3 -4 -5
leaf_value=-0.0020634271207951626 0.01437298980432051 -0.017583240591189632 0.0065586589092046415 -0.029092256512549704
leaf_weight=7591 3066 987 2749 1059
leaf_count=7591 3066 987 2749 1059
internal_value=0 -0.00369749 -0.00249517 -0.00537251
internal_weight=0 12386 11399 8650
internal_count=15452 12386 11399 8650
is_linear=0
shrinkage=0.05


Tree=60
num_leaves=5
num_cat=0
split_feature=13 22 13 16
split_gain=27.4058 29.6931 29.5416 18.4146
threshold=1.0000000180025095e-35 1.0000000180025095e-35 0.96239039249737179 1.9379878208504662
decision_type=2 2 2 2
left_child=1 -1 -2 -4
right_child=2 -3 3 -5
leaf_value=-0.034553600051279727 0.0055677700899440337 -0.0031140211029546641 -0.00082877272051940778 0.012743977222491203
leaf_weight=116 2328 213 12495 255
leaf_count=116 2328 213 12495 255
internal_value=0 -0.0141991 0.000388378 -0.000557318
internal_weight=0 329 15078 12750
internal_count=15407 329 15078 12750
is_linear=0
shrinkage=0.05


Tree=61
num_leaves=5
num_cat=0
split_feature=6 4 20 13
split_gain=55.7754 49.3489 40.0376 39.0429
threshold=9.4927521201886318 5.3747397698236528 1.0000000180025095e-35 1.0000000180025095e-35
decision_type=2 2 2 2
left_child=1 2 3 -1
right_child=-2 -3 -4 -5
leaf_value=-0.033792078626894317 0.039101759241996235 0.012464253001137456 0.00092601693073791891 -0.0040171802915285387
leaf_weight=113 91 737 10178 4288
leaf_count=113 91 737 10178 4288
internal_value=0 -0.000158855 -0.00079698 -0.00478168
internal_weight=0 15316 14579 4401
internal_count=15407 15316 14579 4401
is_linear=0
shrinkage=0.05


Tree=62
num_leaves=5
num_cat=0
split_feature=12 1 1 1
split_gain=235.41 96.5665 141.893 82.8745
threshold=3.2638637938764865 4.3519467737918545 3.484264854180712 5.5432820482878951
decision_type=2 2 2 2
left_child=3 2 -2 -1
right_child=1 -3 -4 -5
leaf_value=-0.00160103914807491 -0.0056384945752964294 -0.010298471709152039 0.024768653971287486 -0.017625662729391731
leaf_weight=11999 496 353 1694 865
leaf_count=11999 496 353 1694 865
internal_value=0 0.0139701 0.0178819 -0.00267857
internal_weight=0 2543 2190 12864
internal_count=15407 2543 2190 12864
is_linear=0
shrinkage=0.05


Tree=63
num_leaves=5
num_cat=0
split_feature=6 22 6 16
split_gain=50.8042 18.442 22.1088 17.7382
threshold=9.4927521201886318 1.0000000180025095e-35 6.9918844527344408 1.9379878208504662
decision_type=2 2 2 2
left_child=1 2 3 -1
right_child=-2 -3 -4 -5
leaf_value=-0.0047839080646706819 0.037314770562103493 0.0010263986031229064 0.0047382996156174811 0.015756881042748486
leaf_weight=3918 91 10462 828 108
leaf_count=3918 91 10462 828 108
internal_value=0 -0.000155401 -0.00270257 -0.00423289
internal_weight=0 15316 4854 4026
internal_count=15407 15316 4854 4026
is_linear=0
shrinkage=0.05


Tree=64
num_leaves=5
num_cat=0
split_feature=15 15 15 15
split_gain=241.861 80.1576 41.9077 43.7729
threshold=2.1576576623905894 0.96239039249737179 3.9679647710879817 2.6764223831288798
decision_type=2 2 2 2
left_child=1 -1 3 -2
right_child=2 -3 -4 -5
leaf_value=-0.0050669986281889987 0.017759607652253259 0.0025312584795360777 -0.061906604766845709 0.042278569188757664
leaf_weight=8066 1011 6093 14.999999999999998 222
leaf_count=8066 1011 6093 15 222
internal_value=0 -0.00179726 0.0211636 0.0221742
internal_weight=0 14159 1248 1233
internal_count=15407 14159 1248 1233
is_linear=0
shrinkage=0.05


Tree=65
num_leaves=5
num_cat=0
split_feature=0 4 0 0
split_gain=310.719 152.131 74.9455 63.1638
threshold=2.5214314235676833 4.2083337010765804 2.1576576623905894 1.0000000180025095e-35
decision_type=2 2 2 2
left_child=1 2 3 -1
right_child=-2 -3 -4 -5
leaf_value=-0.0017122556387842982 -0.0045590109265699411 0.03433643299546249 0.010375566282142467 -0.046997328213919172
leaf_weight=670 10444 595 3637 87
leaf_count=670 10444 595 3637 87
internal_value=0 0.0106094 0.00739644 -0.00691675
internal_weight=0 4989 4394 757
internal_count=15433 4989 4394 757
is_linear=0
shrinkage=0.05


Tree=66
num_leaves=5
num_cat=0
split_feature=5 12 5 1
split_gain=426.417 160.288 136.75 84.6774
threshold=2.8923345256312616 3.6600977475631402 2.0589054744004582 3.484264854180712
decision_type=2 2 2 2
left_child=2 -2 -1 -4
right_child=1 -3 3 -5
leaf_value=-0.0061581487732434966 0.015475908337766723 0.053278439552716654 -0.010286144732797878 0.0084048070943294924
leaf_weight=9452 1670 337 746 3228
leaf_count=9452 1670 337 746 3228
internal_value=0 0.0218234 -0.00288616 0.00489614
internal_weight=0 2007 13426 3974
internal_count=15433 2007 13426 3974
is_linear=0
shrinkage=0.05


Tree=67
num_leaves=5
num_cat=0
split_feature=0 0 0 0
split_gain=275.199 88.5987 114.492 37.0022
threshold=2.5214314235676833 1.3676401967542762 1.0000000180025095e-35 2.6764223831288798
decision_type=2 2 2 2
left_child=1 2 -1 -2
right_child=3 -3 -4 -5
leaf_value=0.00034117022632318834 -0.0011460577258156637 0.012878748617842294 -0.068897619261764562 -0.0071087427495098946
leaf_weight=733 4913 4191 65 5531
leaf_count=733 4913 4191 65 5531
internal_value=0 0.00997125 -0.00529858 -0.00430381
internal_weight=0 4989 798 10444
internal_count=15433 4989 798 10444
is_linear=0
shrinkage=0.05


Tree=68
num_leaves=5
num_cat=0
split_feature=1 1 1 1
split_gain=111.924 137.856 117.216 72.113
threshold=5.5432820482878951 3.484264854180712 1.3676401967542762 1.9379878208504662
decision_type=2 2 2 2
left_child=1 2 -1 -4
right_child=-2 -3 3 -5
leaf_value=0.0076489320334135651 -0.015872558101237829 0.0035328877104708668 -0.030800774890647149 -0.0089497104855065512
leaf_weight=673 1001 12153 607 999
leaf_count=673 1001 12153 607 999
internal_value=0 0.00141672 -0.00986797 -0.0172085
internal_weight=0 14432 2279 1606
internal_count=15433 14432 2279 1606
is_linear=0
shrinkage=0.05


Tree=69
num_leaves=5
num_cat=0
split_feature=14 14 14 4
split_gain=211.481 68.5354 58.0925 65.5731
threshold=2.1576576623905894 5.1916619858410096 1.3676401967542762 3.8595581788924638
decision_type=2 2 2 2
left_child=2 -2 -1 -4
right_child=1 -3 3 -5
leaf_value=-0.0048335571174151952 0.013642766171498852 0.065443972791686206 -0.00017231938431386124 0.016204434970190387
leaf_weight=7690 1962 66 5019 696
leaf_count=7690 1962 66 5019 696
internal_value=0 0.0153286 -0.00199602 0.00182212
internal_weight=0 2028 13405 5715
internal_count=15433 2028 13405 5715
is_linear=0
shrinkage=0.05


Tree=70
num_leaves=5
num_cat=0
split_feature=12 12 12 12
split_gain=191.846 31.9546 42.9693 25.2158
threshold=3.2638637938764865 2.0664679789772844 1.1538510012592533 1.7010527064814316
decision_type=2 2 2 2
left_child=1 2 -1 -4
right_child=-2 -3 3 -5
leaf_value=-0.0013230906008946132 0.012345956979066465 0.0010287190267218825 -0.012835322562559415 -0.0045717663303483863
leaf_weight=5063 2570 4098 1722 1990
leaf_count=5063 2570 4098 1722 1990
internal_value=0 -0.00261659 -0.00431898 -0.00840524
internal_weight=0 12873 8775 3712
internal_count=15443 12873 8775 3712
is_linear=0
shrinkage=0.05


Tree=71
num_leaves=5
num_cat=0
split_feature=5 5 5 4
split_gain=410.111 100.39 81.7487 149.493
threshold=2.8923345256312616 2.0589054744004582 2.0169895276086414 3.2190559721342802
decision_type=2 2 2 2
left_child=1 2 3 -1
right_child=-2 -3 -4 -5
leaf_value=-0.0098235990277932787 0.020998285056560852 0.0033818804428814883 -0.011909129226678835 0.0063074098484895876
leaf_weight=3107 2001 3994 3670 2671
leaf_count=3107 2001 3994 3670 2671
internal_value=0 -0.00326396 -0.00607338 -0.00236671
internal_weight=0 13442 9448 5778
internal_count=15443 13442 9448 5778
is_linear=0
shrinkage=0.05


Tree=72
num_leaves=5
num_cat=0
split_feature=12 12 12 12
split_gain=169.368 27.8742 36.6996 21.8093
threshold=3.2638637938764865 2.0664679789772844 1.1538510012592533 1.7010527064814316
decision_type=2 2 2 2
left_child=1 2 -1 -4
right_child=-2 -3 3 -5
leaf_value=-0.0012751129401161996 0.011604847285865059 0.00095079278484455979 -0.011940206635492263 -0.0042550666604159659
leaf_weight=5063 2570 4098 1722 1990
leaf_count=5063 2570 4098 1722 1990
internal_value=0 -0.00245383 -0.00404382 -0.00782021
internal_weight=0 12873 8775 3712
internal_count=15443 12873 8775 3712
is_linear=0
shrinkage=0.05


Tree=73
num_leaves=5
num_cat=0
split_feature=4 4 4 4
split_gain=31.592 20.3451 66.376 16.8884
threshold=6.6745705244579669 3.2190559721342802 1.0000000180025095e-35 2.7452916442235575
decision_type=2 2 2 2
left_child=1 2 -1 -4
right_child=-2 -3 3 -5
leaf_value=0.0031472674023508697 0.019199012657939392 0.001039059350287674 -0.013640448121302546 -0.0053951403848820113
leaf_weight=2603 209 9536 860 2235
leaf_count=2603 209 9536 860 2235
internal_value=0 -0.000373383 -0.0027372 -0.00768624
internal_weight=0 15234 5698 3095
internal_count=15443 15234 5698 3095
is_linear=0
shrinkage=0.05


Tree=74
num_leaves=5
num_cat=0
split_feature=0 12 0 1
split_gain=225.431 79.2397 81.4375 69.9868
threshold=2.5214314235676833 3.3894353769711834 1.3676401967542762 5.2668119448065935
decision_type=2 2 2 2
left_child=1 -1 -3 -2
right_child=3 2 -4 -5
leaf_value=0.0041560827480634022 -0.0068706086810214955 -0.015408652314100657 0.021189687525904211 0.0021340912800438074
leaf_weight=3282 7442 169 1511 3039
leaf_count=3282 7442 169 1511 3039
internal_value=0 0.00867671 0.0175081 -0.00425967
internal_weight=0 4962 1680 10481
internal_count=15443 4962 1680 10481
is_linear=0
shrinkage=0.05


Tree=75
num_leaves=5
num_cat=0
split_feature=0 14 14 14
split_gain=234.852 85.1455 83.6758 73.1616
threshold=2.5214314235676833 2.5214314235676833 0.96239039249737179 1.3676401967542762
decision_type=2 2 2 2
left_child=1 2 -1 -2
right_child=3 -3 -4 -5
leaf_value=0.027649241047576257 -0.0076412368622624932 0.024515992008757797 0.0037001871608193446 0.0010541970493271183
leaf_weight=403 6725 725 3840 3778
leaf_count=403 6725 725 3840 3778
internal_value=0 0.00868065 0.00597487 -0.00451343
internal_weight=0 4968 4243 10503
internal_count=15471 4968 4243 10503
is_linear=0
shrinkage=0.05


Tree=76
num_leaves=5
num_cat=0
split_feature=15 1 1 1
split_gain=164.183 91.4899 100.347 251.202
threshold=2.3499710825428539 5.5432820482878951 5.2668119448065935 4.3519467737918545
decision_type=2 2 2 2
left_child=1 2 3 -1
right_child=-2 -3 -4 -5
leaf_value=1.8398295364303933e-05 0.022899982592490833 -0.016002041266019531 0.007767543383775913 -0.024930539608776229
leaf_weight=9630 729 1001 2984 1127
leaf_count=9630 729 1001 2984 1127
internal_value=0 -0.00140817 -0.00034504 -0.00259548
internal_weight=0 14742 13741 10757
internal_count=15471 14742 13741 10757
is_linear=0
shrinkage=0.05


Tree=77
num_leaves=5
num_cat=0
split_feature=3 4 3 4
split_gain=125.984 84.4264 43.1351 42.5054
threshold=7.6266940690189733 4.478425873918229 9.0297949463285008 5.3747397698236528
decision_type=2 2 2 2
left_child=3 -2 -3 -1
right_child=1 2 -4 -5
leaf_value=-0.0024869929057995382 0.019996834826377416 -0.019177940726700812 0.0090052002814287931 0.010290630467586138
leaf_weight=13057 1181 248 300 685
leaf_count=13057 1181 248 300 685
internal_value=0 0.0124706 -0.00374921 -0.00185006
internal_weight=0 1729 548 13742
internal_count=15471 1729 548 13742
is_linear=0
shrinkage=0.05


Tree=78
num_leaves=5
num_cat=0
split_feature=5 12 5 5
split_gain=309.261 139.493 89.7365 72.8459
threshold=2.8923345256312616 2.6178993006091482 2.0589054744004582 2.0169895276086414
decision_type=2 2 2 2
left_child=2 -2 3 -1
right_child=1 -3 -4 -5
leaf_value=-0.0020787741224049575 0.0083510265459308657 0.035843876024844193 0.0033381693254653805 -0.01104136740639023
leaf_weight=5731 1321 709 3959 3751
leaf_count=5731 1321 709 3959 3751
internal_value=0 0.0179532 -0.00298444 -0.0056243
internal_weight=0 2030 13441 9482
internal_count=15471 2030 13441 9482
is_linear=0
shrinkage=0.05


Tree=79
num_leaves=5
num_cat=0
split_feature=5 1 1 1
split_gain=280.153 92.8005 129.828 76.7743
threshold=2.4462226988301619 3.484264854180712 4.2323110362914269 5.5432820482878951
decision_type=2 2 2 2
left_child=3 -2 -3 -1
right_child=1 2 -4 -5
leaf_value=-0.0029801741703993981 -0.0053296294002000491 0.02564437031203633 0.0046333433045625833 -0.021094019782244164
leaf_weight=11269 634 1562 1389 617
leaf_count=11269 634 1562 1389 617
internal_value=0 0.012026 0.0157547 -0.00392046
internal_weight=0 3585 2951 11886
internal_count=15471 3585 2951 11886
is_linear=0
shrinkage=0.05


Tree=80
num_leaves=5
num_cat=0
split_feature=5 5 12 5
split_gain=275.631 88.3387 86.7751 58.6314
threshold=2.8923345256312616 2.0589054744004582 3.5743208914002937 2.0169895276086414
decision_type=2 2 2 2
left_child=1 3 -2 -1
right_child=2 -3 -4 -5
leaf_value=-0.0020205230462028091 0.012663185562862375 0.0036805036561674111 0.040563329421470305 -0.010044567602848706
leaf_weight=5787 1658 3993 335 3753
leaf_count=5787 1658 3993 335 3753
internal_value=0 -0.00256364 0.0173529 -0.00517715
internal_weight=0 13533 1993 9540
internal_count=15526 13533 1993 9540
is_linear=0
shrinkage=0.05


Tree=81
num_leaves=5
num_cat=0
split_feature=15 15 4 4
split_gain=144.247 45.7522 87.5657 58.6415
threshold=2.1576576623905894 0.96239039249737179 3.2382586292790165 5.3747397698236528
decision_type=2 2 2 2
left_child=1 3 -3 -1
right_child=-2 2 -4 -5
leaf_value=-0.005208411492922292 0.016592843983707316 -0.0033892857825521937 0.0085936445593722093 0.0096834975793703079
leaf_weight=7391 1207 3502 2700 726
leaf_count=7391 1207 3502 2700 726
internal_value=0 -0.00140594 0.0018274 -0.00387645
internal_weight=0 14319 6202 8117
internal_count=15526 14319 6202 8117
is_linear=0
shrinkage=0.05


Tree=82
num_leaves=5
num_cat=0
split_feature=12 1 1 1
split_gain=94.4688 71.4875 69.1605 135.336
threshold=3.3894353769711834 3.484264854180712 5.5432820482878951 5.2668119448065935
decision_type=2 2 2 2
left_child=2 -2 3 -1
right_child=1 -3 -4 -5
leaf_value=-0.0037393334582711754 -0.0088375706254352811 0.013166743964803263 -0.015374291971561004 0.0084405491234837982
leaf_weight=9204 454 1974 862 3032
leaf_count=9204 454 1974 862 3032
internal_value=0 0.00905226 -0.00168558 -0.000721239
internal_weight=0 2428 13098 12236
internal_count=15526 2428 13098 12236
is_linear=0
shrinkage=0.05


Tree=83
num_leaves=5
num_cat=0
split_feature=0 4 0 0
split_gain=150.681 108.486 57.58 86.2687
threshold=2.5214314235676833 4.2083337010765804 1.3676401967542762 1.0000000180025095e-35
decision_type=2 2 2 2
left_child=1 2 3 -1
right_child=-2 -3 -4 -5
leaf_value=-0.0026225708452738529 -0.0034054257899510266 0.027485092054483108 0.0070507457378707261 -0.060173748603685656
leaf_weight=681 10517 579 3677 72
leaf_count=681 10517 579 3677 72
internal_value=0 0.00713136 0.00447113 -0.00812547
internal_weight=0 5009 4430 753
internal_count=15526 5009 4430 753
is_linear=0
shrinkage=0.05


Tree=84
num_leaves=5
num_cat=0
split_feature=12 12 12 12
split_gain=83.7056 17.7012 13.4412 42.5325
threshold=2.7848356694136949 3.8204317906260239 1.1538510012592533 1.7010527064814316
decision_type=2 2 2 2
left_child=2 -2 -1 -4
right_child=1 -3 3 -5
leaf_value=-0.00035458526524543671 0.0034520571447282985 0.010115451453530159 -0.010510158842123972 -0.0012470849413132364
leaf_weight=5129 2598 1617 1715 4467
leaf_count=5129 2598 1617 1715 4467
internal_value=0 0.00600833 -0.00224687 -0.00381683
internal_weight=0 4215 11311 6182
internal_count=15526 4215 11311 6182
is_linear=0
shrinkage=0.05


Tree=85
num_leaves=5
num_cat=0
split_feature=1 1 1 1
split_gain=91.8206 89.8703 238.219 106.612
threshold=5.5432820482878951 5.2668119448065935 4.169585969404392 3.484264854180712
decision_type=2 2 2 2
left_child=1 2 3 -1
right_child=-2 -3 -4 -5
leaf_value=-0.0080643898110967557 -0.014657996026212927 0.0086320535342057376 -0.021438148476121084 0.0042687811461527645
leaf_weight=2252 999 3055 1270 7896
leaf_count=2252 999 3055 1270 7896
internal_value=0 0.00101498 -0.00102305 0.00153186
internal_weight=0 14473 11418 10148
internal_count=15472 14473 11418 10148
is_linear=0
shrinkage=0.05


Tree=86
num_leaves=5
num_cat=0
split_feature=0 0 0 12
split_gain=125.526 56.3711 105.294 55.6647
threshold=2.5214314235676833 1.3676401967542762 1.0000000180025095e-35 3.3894353769711834
decision_type=2 2 2 2
left_child=1 2 -1 -3
right_child=-2 3 -4 -5
leaf_value=9.8532479239216763e-05 -0.0030907290162097718 0.004504010016019599 -0.063611587126490107 0.01652359644332748
leaf_weight=749 10512 2615 71 1525
leaf_count=749 10512 2615 71 1525
internal_value=0 0.00655924 -0.00541783 0.00893151
internal_weight=0 4960 820 4140
internal_count=15472 4960 820 4140
is_linear=0
shrinkage=0.05


Tree=87
num_leaves=5
num_cat=0
split_feature=1 1 1 1
split_gain=81.7779 82.5818 213.353 90.8
threshold=5.5432820482878951 5.2668119448065935 4.2323110362914269 3.484264854180712
decision_type=2 2 2 2
left_child=1 2 3 -1
right_child=-2 -3 -4 -5
leaf_value=-0.0075830804242635764 -0.013833316296685834 0.0082594147400217744 -0.021448494861628732 0.003779447828160492
leaf_weight=2252 999 3055 1147 8019
leaf_count=2252 999 3055 1147 8019
internal_value=0 0.000957741 -0.000995895 0.00128812
internal_weight=0 14473 11418 10271
internal_count=15472 14473 11418 10271
is_linear=0
shrinkage=0.05


Tree=88
num_leaves=5
num_cat=0
split_feature=43 43 20 43
split_gain=8.80361 1.12998 0.854726 0.0243308
threshold=1.3676401967542762 1.0000000180025095e-35 1.0000000180025095e-35 0.96239039249737179
decision_type=2 2 2 2
left_child=1 -1 3 -3
right_child=-2 2 -4 -5
leaf_value=-0.0011351718583583659 -0.0051152707356769698 0.001405670654144523 0.00020792025611479352 0.0010869774561613321
leaf_weight=1286 797 852 10521 2016
leaf_count=1286 797 852 10521 2016
internal_value=0 0.000280523 0.000416499 0.00118165
internal_weight=0 14675 13389 2868
internal_count=15472 14675 13389 2868
is_linear=0
shrinkage=0.05


Tree=89
num_leaves=5
num_cat=0
split_feature=0 4 4 0
split_gain=109.987 96.679 44.1733 46.2368
threshold=2.5214314235676833 4.2083337010765804 6.6745705244579669 2.6764223831288798
decision_type=2 2 2 2
left_child=1 -1 3 -2
right_child=2 -3 -4 -5
leaf_value=0.0035672798333574946 0.00016404891308644475 0.025083101827385847 0.022163327544324662 -0.0065283980555391717
leaf_weight=4367 4968 593 173 5371
leaf_count=4367 4968 593 173 5371
internal_value=0 0.00613964 -0.00289334 -0.00331261
internal_weight=0 4960 10512 10339
internal_count=15472 4960 10512 10339
is_linear=0
shrinkage=0.05


Tree=90
num_leaves=5
num_cat=0
split_feature=12 4 4 12
split_gain=81.181 29.8936 22.0803 20.6324
threshold=2.7848356694136949 4.499280045989777 4.478425873918229 3.6600977475631402
decision_type=2 2 2 2
left_child=-1 2 -2 -4
right_child=1 -3 3 -5
leaf_value=-0.0020327489661696695 0.0053888479254939441 0.018718933832822856 -0.031975798922070822 0.010346898622810841
leaf_weight=11332 3670 422 77 46
leaf_count=11332 3670 422 77 46
internal_value=0 0.00609497 0.00469045 -0.0161478
internal_weight=0 4215 3793 123
internal_count=15547 4215 3793 123
is_linear=0
shrinkage=0.05


Tree=91
num_leaves=5
num_cat=0
split_feature=4 4 4 4
split_gain=27.2193 46.8473 20.388 19.146
threshold=3.2382586292790165 1.0000000180025095e-35 2.6064475729658256 6.6745705244579669
decision_type=2 2 2 2
left_child=1 -1 -3 -2
right_child=3 2 -4 -5
leaf_value=0.002623360144778028 0.0014806314142127935 -0.013506665836493601 -0.0042384827817705866 0.016504287691722509
leaf_weight=2575 9323 763 2669 217
leaf_count=2575 9323 763 2669 217
internal_value=0 -0.00247427 -0.00629898 0.00182236
internal_weight=0 6007 3432 9540
internal_count=15547 6007 3432 9540
is_linear=0
shrinkage=0.05


Tree=92
num_leaves=5
num_cat=0
split_feature=12 1 1 1
split_gain=72.0777 53.1485 126.485 101.946
threshold=2.7848356694136949 5.2668119448065935 5.3034034897221876 4.3519467737918545
decision_type=2 2 2 2
left_child=1 3 -3 -1
right_child=-2 2 -4 -5
leaf_value=-0.0022776136195663782 0.0057362855369987994 0.010404928932721269 -0.0083735414447440436 -0.020710614597012723
leaf_weight=6742 4215 2259 1487 844
leaf_count=6742 4215 2259 1487 844
internal_value=0 -0.00192218 0.00295069 -0.00432842
internal_weight=0 11332 3746 7586
internal_count=15547 11332 3746 7586
is_linear=0
shrinkage=0.05


Tree=93
num_leaves=5
num_cat=0
split_feature=0 4 4 0
split_gain=99.2714 155.696 47.6704 55.527
threshold=2.6764223831288798 3.4428345243181426 6.6745705244579669 3.1829834417341325
decision_type=2 2 2 2
left_child=1 -1 3 -2
right_child=2 -3 -4 -5
leaf_value=-0.0017661697420840719 -0.022297774805527266 0.011119241815913892 0.020291203135634994 -0.0044363126283283507
leaf_weight=6146 477 3790 178 4956
leaf_count=6146 477 3790 178 4956
internal_value=0 0.00314886 -0.0051703 -0.00600449
internal_weight=0 9936 5611 5433
internal_count=15547 9936 5611 5433
is_linear=0
shrinkage=0.05


Tree=94
num_leaves=5
num_cat=0
split_feature=12 4 4 12
split_gain=62.7325 26.4863 19.8971 18.2074
threshold=2.7848356694136949 4.499280045989777 4.478425873918229 3.6600977475631402
decision_type=2 2 2 2
left_child=-1 2 -2 -4
right_child=1 -3 3 -5
leaf_value=-0.0017979353242875723 0.0046877460520378207 0.017229567211630225 -0.030625272813319629 0.0091325526520528878
leaf_weight=11332 3670 422 77 46
leaf_count=11332 3670 422 77 46
internal_value=0 0.00534682 0.00402478 -0.0157565
internal_weight=0 4215 3793 123
internal_count=15547 4215 3793 123
is_linear=0
shrinkage=0.05


Tree=95
num_leaves=5
num_cat=0
split_feature=4 13 16 9
split_gain=27.8982 29.1374 16.3863 16.3789
threshold=6.6745705244579669 1.0000000180025095e-35 1.0000000180025095e-35 1.6806484296377997
decision_type=2 2 2 2
left_child=1 3 -2 -1
right_child=2 -3 -4 -5
leaf_value=-0.030627129407209422 0.023022939627516791 -7.1011308723119431e-05 -0.024656944698072041 -0.0072406576296476571
leaf_weight=111 182 14872 20 230
leaf_count=111 182 14872 20 230
internal_value=0 -0.000402356 0.0183022 -0.0148533
internal_weight=0 15213 202 341
internal_count=15415 15213 202 341
is_linear=0
shrinkage=0.05


Tree=96
num_leaves=5
num_cat=0
split_feature=12 6 13 13
split_gain=64.0785 37.2245 35.6067 20.6417
threshold=2.3061026564038785 9.4927521201886318 1.0000000180025095e-35 1.3676401967542762
decision_type=2 2 2 2
left_child=1 2 -1 -2
right_child=3 -3 -4 -5
leaf_value=-0.023155381060523894 0.010332832474370527 0.028239464797511622 -0.0024371376330501824 0.0026372893005579602
leaf_weight=212 1080 97 9515 4511
leaf_count=212 1080 97 9515 4511
internal_value=0 -0.00258134 -0.00288869 0.00412382
internal_weight=0 9824 9727 5591
internal_count=15415 9824 9727 5591
is_linear=0
shrinkage=0.05


Tree=97
num_leaves=5
num_cat=0
split_feature=3 4 4 3
split_gain=70.0794 62.0078 26.1552 29.9911
threshold=9.0297949463285008 3.1225692165997088 6.6745705244579669 5.6995877797373931
decision_type=2 2 2 2
left_child=2 -2 3 -1
right_child=1 -3 -4 -5
leaf_value=-0.0029755560855437182 0.059603403205672902 0.010703139082201324 0.017121857362515546 0.0016013913846717445
leaf_weight=8454 75 478 201 6207
leaf_count=8454 75 478 201 6207
internal_value=0 0.0173352 -0.000792223 -0.00103782
internal_weight=0 553 14862 14661
internal_count=15415 553 14862 14661
is_linear=0
shrinkage=0.05


Tree=98
num_leaves=5
num_cat=0
split_feature=12 6 4 16
split_gain=54.8586 33.3873 20.8235 17.7182
threshold=2.4818650624278922 9.4927521201886318 6.6745705244579669 1.6806484296377997
decision_type=2 2 2 2
left_child=1 2 3 -1
right_child=-2 -3 -4 -5
leaf_value=-0.0033281125096211216 0.004071379303173194 0.026945190712300698 0.015143474028445781 0.0058801010116525535
leaf_weight=9443 5158 97 164 553
leaf_count=9443 5158 97 164 553
internal_value=0 -0.00225002 -0.00252875 -0.00281869
internal_weight=0 10257 10160 9996
internal_count=15415 10257 10160 9996
is_linear=0
shrinkage=0.05


Tree=99
num_leaves=5
num_cat=0
split_feature=16 9 9 23
split_gain=12.081 17.9112 10.6163 7.41258
threshold=1.6806484296377997 1.6806484296377997 1.0000000180025095e-35 1.0000000180025095e-35
decision_type=2 2 2 2
left_child=1 2 3 -1
right_child=-2 -3 -4 -5
leaf_value=0.012776515784282358 0.0068455250530895257 0.00062395580245402926 -0.0042598220309070052 -0.00088628350873051331
leaf_weight=156 597 10951 3438 273
leaf_count=156 597 10951 3438 273
internal_value=0 -0.000409039 -0.00333439 0.00408201
internal_weight=0 14818 3867 429
internal_count=15415 14818 3867 429
is_linear=0
shrinkage=0.05


Tree=100
num_leaves=5
num_cat=0
split_feature=5 5 5 5
split_gain=275.177 68.6824 56.4029 30.8646
threshold=2.8923345256312616 2.0589054744004582 2.0169895276086414 1.8216060729984542
decision_type=2 2 2 2
left_child=1 2 3 -1
right_child=-2 -3 -4 -5
leaf_value=-0.0036827001768829485 0.017673053609058166 0.0033644043536245811 -0.0092763986127687697 0.0043874576690976072
leaf_weight=4120 2019 4010 3686 1663
leaf_count=4120 2019 4010 3686 1663
internal_value=0 -0.00212018 -0.00444283 -0.00136199
internal_weight=0 13479 9469 5783
internal_count=15498 13479 9469 5783
is_linear=0
shrinkage=0.05


Tree=101
num_leaves=5
num_cat=0
split_feature=14 14 4 14
split_gain=87.3146 37.0177 30.6823 32.3378
threshold=2.3499710825428539 5.3212348096133493 6.6745705244579669 1.6806484296377997
decision_type=2 2 2 2
left_child=2 -2 3 -1
right_child=1 -3 -4 -5
leaf_value=-0.0025473705904781783 0.011408098529970698 0.052690003524746815 0.018792140537050729 0.0026170547492876998
leaf_weight=9680 1148 57 200 4413
leaf_count=9680 1148 57 200 4413
internal_value=0 0.0133609 -0.00065424 -0.000930212
internal_weight=0 1205 14293 14093
internal_count=15498 1205 14293 14093
is_linear=0
shrinkage=0.05


Tree=102
num_leaves=5
num_cat=0
split_feature=5 0 5 5
split_gain=245.537 114.605 91.5435 56.421
threshold=2.8923345256312616 2.6764223831288798 2.0589054744004582 2.0169895276086414
decision_type=2 2 2 2
left_child=1 2 -1 -3
right_child=-2 3 -4 -5
leaf_value=-0.0019045598947851469 0.01667485450106556 0.0030317875892687265 0.009340145689931462 -0.011531261577215263
leaf_weight=6692 2019 822 2481 3484
leaf_count=6692 2019 822 2481 3484
internal_value=0 -0.00202205 0.00113677 -0.00875123
internal_weight=0 13479 9173 4306
internal_count=15498 13479 9173 4306
is_linear=0
shrinkage=0.05


Tree=103
num_leaves=5
num_cat=0
split_feature=16 16 43 22
split_gain=6.51076 7.27818 10.5726 7.92543
threshold=1.9379878208504662 1.0000000180025095e-35 1.3676401967542762 1.0000000180025095e-35
decision_type=2 2 2 2
left_child=1 2 3 -1
right_child=-2 -3 -4 -5
leaf_value=0.0036168607410469889 0.0076872509241802615 -0.002545693335477793 -0.0073897705819968339 0.00035005280355315262
leaf_weight=2254 300 2020 394 10530
leaf_count=2254 300 2020 394 10530
internal_value=0 0.000249019 0.000677409 0.000926037
internal_weight=0 15198 13178 12784
internal_count=15498 15198 13178 12784
is_linear=0
shrinkage=0.05


Tree=104
num_leaves=5
num_cat=0
split_feature=5 1 16 1
split_gain=221.111 64.5104 61.1211 66.9777
threshold=2.8923345256312616 3.484264854180712 1.0000000180025095e-35 5.5432820482878951
decision_type=2 2 2 2
left_child=-1 -2 3 -3
right_child=1 2 -4 -5
leaf_value=-0.0019380546442949185 -0.0034795486164430588 0.027592579179129301 -0.010950773338506586 -0.00072771108504384764
leaf_weight=13479 357 1266 146 250
leaf_count=13479 357 1266 146 250
internal_value=0 0.0158045 0.0199467 0.0229223
internal_weight=0 2019 1662 1516
internal_count=15498 2019 1662 1516
is_linear=0
shrinkage=0.05


Tree=105
num_leaves=5
num_cat=0
split_feature=4 4 4 16
split_gain=19.7192 43.7341 15.7656 9.88525
threshold=3.2190559721342802 1.0000000180025095e-35 2.6064475729658256 1.6806484296377997
decision_type=2 2 2 2
left_child=1 -1 -3 -2
right_child=3 2 -4 -5
leaf_value=0.0023094907290371141 0.00090021051716914012 -0.012710782089658704 -0.0044336741519423574 0.0085614399083250147
leaf_weight=2608 9306 765 2320 441
leaf_count=2608 9306 765 2320 441
internal_value=0 -0.00245683 -0.00648618 0.00124684
internal_weight=0 5693 3085 9747
internal_count=15440 5693 3085 9747
is_linear=0
shrinkage=0.05


Tree=106
num_leaves=5
num_cat=0
split_feature=15 1 1 1
split_gain=87.6021 52.5965 78.5922 130.74
threshold=2.3499710825428539 5.5432820482878951 5.2668119448065935 4.169585969404392
decision_type=2 2 2 2
left_child=1 2 3 -1
right_child=-2 -3 -4 -5
leaf_value=-0.00018785826215967114 0.016854545894231455 -0.01199558819703361 0.0069689979624434992 -0.017704896600470723
leaf_weight=9482 725 1004 3029 1200
leaf_count=9482 725 1004 3029 1200
internal_value=0 -0.000948802 -0.000139892 -0.0021557
internal_weight=0 14715 13711 10682
internal_count=15440 14715 13711 10682
is_linear=0
shrinkage=0.05


Tree=107
num_leaves=5
num_cat=0
split_feature=6 19 16 6
split_gain=18.7169 18.1202 6.21716 5.87021
threshold=8.7892120920273218 0.96239039249737179 1.9379878208504662 1.0000000180025095e-35
decision_type=2 2 2 2
left_child=1 3 -3 -1
right_child=-2 2 -4 -5
leaf_value=0.0056805077607610397 0.015530844115548665 -0.00016320170516192717 0.0086046685267625964 -0.014307104536213392
leaf_weight=42 189 14711 205 293
leaf_count=42 189 14711 205 293
internal_value=0 -0.000300984 -4.26993e-05 -0.0118012
internal_weight=0 15251 14916 335
internal_count=15440 15251 14916 335
is_linear=0
shrinkage=0.05


Tree=108
num_leaves=5
num_cat=0
split_feature=4 4 4 19
split_gain=19.0923 39.3652 14.2149 7.24253
threshold=3.2190559721342802 1.0000000180025095e-35 2.6064475729658256 1.3676401967542762
decision_type=2 2 2 2
left_child=1 -1 -3 -2
right_child=3 2 -4 -5
leaf_value=0.0021195654396212425 0.0009462563928038175 -0.012135769356401618 -0.0042762782891541387 0.0075252881582988373
leaf_weight=2608 9309 765 2320 438
leaf_count=2608 9309 765 2320 438
internal_value=0 -0.00240242 -0.00622523 0.0012419
internal_weight=0 5693 3085 9747
internal_count=15440 5693 3085 9747
is_linear=0
shrinkage=0.05


Tree=109
num_leaves=5
num_cat=0
split_feature=12 4 6 12
split_gain=36.3222 25.5532 17.9244 19.8466
threshold=4.169585969404392 4.6048070842968096 8.7892120920273218 2.3061026564038785
decision_type=2 2 2 2
left_child=2 -2 3 -1
right_child=1 -3 -4 -5
leaf_value=-0.0021730865094358154 0.0066896347460481667 0.033215521642196814 0.014608730297540585 0.0017987617821565026
leaf_weight=9736 766 103 189 4646
leaf_count=9736 766 103 189 4646
internal_value=0 0.00983367 -0.000688976 -0.00089001
internal_weight=0 869 14571 14382
internal_count=15440 869 14571 14382
is_linear=0
shrinkage=0.05


Tree=110
num_leaves=5
num_cat=0
split_feature=1 1 1 1
split_gain=64.5274 86.6684 57.6444 134.488
threshold=3.484264854180712 1.3676401967542762 1.9379878208504662 1.6806484296377997
decision_type=2 2 2 2
left_child=1 -1 3 -3
right_child=-2 2 -4 -5
leaf_value=0.0072396408152152706 0.0010913727664632908 -0.01182826095661851 -0.0067398369216410169 -0.06363603333818775
leaf_weight=660 13198 454 988 173
leaf_count=660 13198 454 988 173
internal_value=0 -0.00802631 -0.014265 -0.0261229
internal_weight=0 2275 1615 627
internal_count=15473 2275 1615 627
is_linear=0
shrinkage=0.05


Tree=111
num_leaves=5
num_cat=0
split_feature=1 1 1 1
split_gain=58.236 78.2182 57.2631 118.711
threshold=3.484264854180712 1.3676401967542762 5.3034034897221876 5.4437584866277211
decision_type=2 2 2 2
left_child=1 -1 -2 -4
right_child=2 -3 3 -5
leaf_value=0.0068776587322028002 0.0023619815932927795 -0.013551778309893306 -0.045715076172103492 -0.0029640111155479561
leaf_weight=660 11359 1615 180 1659
leaf_count=660 11359 1615 180 1659
internal_value=0 -0.007625 0.0010368 -0.00714845
internal_weight=0 2275 13198 1839
internal_count=15473 2275 13198 1839
is_linear=0
shrinkage=0.05


Tree=112
num_leaves=5
num_cat=0
split_feature=1 1 1 4
split_gain=52.558 70.5919 55.1708 67.7462
threshold=3.484264854180712 1.3676401967542762 5.5432820482878951 3.8595581788924638
decision_type=2 2 2 2
left_child=1 -1 3 -2
right_child=2 -3 -4 -5
leaf_value=0.0065337758867077128 -3.1729034803429453e-05 -0.012874189392826602 -0.010379529328968524 0.0090683250495962511
leaf_weight=660 9612 1615 988 2598
leaf_count=660 9612 1615 988 2598
internal_value=0 -0.00724375 0.000984964 0.00190455
internal_weight=0 2275 13198 12210
internal_count=15473 2275 13198 12210
is_linear=0
shrinkage=0.05


Tree=113
num_leaves=5
num_cat=0
split_feature=15 1 1 4
split_gain=70.6598 33.7062 59.6513 53.2528
threshold=2.3499710825428539 3.484264854180712 1.3676401967542762 5.3747397698236528
decision_type=2 2 2 2
left_child=1 2 -1 -3
right_child=-2 3 -4 -5
leaf_value=0.0061182203888165533 0.015092260254221879 -0.00064203487352813046 -0.011782010177101827 0.015311875000842499
leaf_weight=656 719 11949 1602 547
leaf_count=656 719 11949 1602 547
internal_value=0 -0.000959557 -0.00658159 5.63317e-05
internal_weight=0 14754 2258 12496
internal_count=15473 14754 2258 12496
is_linear=0
shrinkage=0.05


Tree=114
num_leaves=5
num_cat=0
split_feature=1 1 1 1
split_gain=43.1215 57.7273 52.0826 121.259
threshold=3.484264854180712 1.3676401967542762 1.9379878208504662 1.6806484296377997
decision_type=2 2 2 2
left_child=1 -1 3 -3
right_child=-2 2 -4 -5
leaf_value=0.0058984566767828787 0.00089291118613819126 -0.0093501267591614423 -0.0044992463964156374 -0.058543833450688788
leaf_weight=660 13198 454 988 173
leaf_count=660 13198 454 988 173
internal_value=0 -0.00656058 -0.0116522 -0.0229235
internal_weight=0 2275 1615 627
internal_count=15473 2275 1615 627
is_linear=0
shrinkage=0.05


Tree=115
num_leaves=5
num_cat=0
split_feature=1 1 1 12
split_gain=50.2543 44.6789 162.666 82.8322
threshold=5.5432820482878951 5.2668119448065935 4.3519467737918545 1.8453726503557257
decision_type=2 2 2 2
left_child=1 2 3 -1
right_child=-2 -3 -4 -5
leaf_value=-0.0046047851639786589 -0.010911059368493228 0.006065713317007327 -0.018964329681444944 0.0046231911021781544
leaf_weight=3879 1003 3027 1109 6518
leaf_count=3879 1003 3027 1109 6518
internal_value=0 0.000660667 -0.000761294 0.00118034
internal_weight=0 14533 11506 10397
internal_count=15536 14533 11506 10397
is_linear=0
shrinkage=0.05


Tree=116
num_leaves=5
num_cat=0
split_feature=5 1 5 1
split_gain=165.639 42.16 57.6908 30.1634
threshold=2.4462226988301619 5.3034034897221876 3.8774147051360051 3.484264854180712
decision_type=2 2 2 2
left_child=-1 2 3 -2
right_child=1 -3 -4 -5
leaf_value=-0.0029158710361931561 -0.0024683678933745666 -0.0027382317133893448 0.024894417432842101 0.011138970667528635
leaf_weight=11939 525 603 653 1816
leaf_count=11939 525 603 653 1816
internal_value=0 0.00932371 0.011753 0.00808735
internal_weight=0 3597 2994 2341
internal_count=15536 3597 2994 2341
is_linear=0
shrinkage=0.05


Tree=117
num_leaves=5
num_cat=0
split_feature=1 1 1 4
split_gain=44.1439 40.5449 149.058 74.2924
threshold=5.5432820482878951 5.2668119448065935 4.3519467737918545 3.2190559721342802
decision_type=2 2 2 2
left_child=1 2 -1 -3
right_child=-2 3 -4 -5
leaf_value=0.0011262730141912839 -0.010223228255813933 -0.0066832561132789533 -0.018157438919068448 0.010697752747968137
leaf_weight=10397 1003 858 1109 2169
leaf_count=10397 1003 858 1109 2169
internal_value=0 0.000622201 -0.000732378 0.00577112
internal_weight=0 14533 11506 3027
internal_count=15536 14533 11506 3027
is_linear=0
shrinkage=0.05


Tree=118
num_leaves=5
num_cat=0
split_feature=12 13 4 13
split_gain=26.2357 24.1609 19.5849 13.4026
threshold=3.2638637938764865 1.0000000180025095e-35 4.7091141717828942 1.3676401967542762
decision_type=2 2 2 2
left_child=1 -1 -2 -3
right_child=2 3 -4 -5
leaf_value=-0.015788104514832851 0.0032254552904149424 0.0010265984018025687 0.01899171502870876 -0.0022250586514729826
leaf_weight=270 2349 6063 215 6639
leaf_count=270 2349 6063 215 6639
internal_value=0 -0.000987564 0.00454751 -0.000672957
internal_weight=0 12972 2564 12702
internal_count=15536 12972 2564 12702
is_linear=0
shrinkage=0.05


Tree=119
num_leaves=5
num_cat=0
split_feature=15 15 6 15
split_gain=65.9926 25.5623 19.9204 18.9409
threshold=2.3499710825428539 3.9679647710879817 8.7892120920273218 0.96239039249737179
decision_type=2 2 2 2
left_child=2 -2 3 -1
right_child=1 -3 -4 -5
leaf_value=-0.0026532018059270855 0.015755426725410998 -0.052452831821782259 0.015284822923376374 0.00096336091966785621
leaf_weight=7968 729 13.999999999999998 190 6635
leaf_count=7968 729 14 190 6635
internal_value=0 0.0144702 -0.000800696 -0.00100999
internal_weight=0 743 14793 14603
internal_count=15536 743 14793 14603
is_linear=0
shrinkage=0.05


Tree=120
num_leaves=5
num_cat=0
split_feature=14 1 1 1
split_gain=52.4196 30.7334 30.5487 46.4813
threshold=2.1576576623905894 1.0000000180025095e-35 5.5432820482878951 5.2668119448065935
decision_type=2 2 2 2
left_child=1 -1 3 -3
right_child=-2 2 -4 -5
leaf_value=-0.057319498667493467 0.0078797865705999802 -0.0016898651763508539 -0.0091931334454961027 0.005558920650277327
leaf_weight=24 2003 9605 979 2873
leaf_count=24 2003 9605 979 2873
internal_value=0 -0.000788971 -0.000688151 -2.08668e-05
internal_weight=0 13481 13457 12478
internal_count=15484 13481 13457 12478
is_linear=0
shrinkage=0.05


Tree=121
num_leaves=5
num_cat=0
split_feature=14 14 4 14
split_gain=47.3087 26.7837 19.0286 19.5455
threshold=2.1576576623905894 5.1916619858410096 5.5432820482878951 1.0000000180025095e-35
decision_type=2 2 2 2
left_child=2 -2 3 -1
right_child=1 -3 -4 -5
leaf_value=-0.0036326646138641716 0.0064785355182077472 0.040674217660137915 0.0075102097265015684 0.00037547272993538239
leaf_weight=4964 1944 59 663 7854
leaf_count=4964 1944 59 663 7854
internal_value=0 0.0074858 -0.000749523 -0.00117675
internal_weight=0 2003 13481 12818
internal_count=15484 2003 13481 12818
is_linear=0
shrinkage=0.05


Tree=122
num_leaves=5
num_cat=0
split_feature=0 12 0 0
split_gain=38.6389 47.1084 41.7183 78.9694
threshold=2.6764223831288798 1.8453726503557257 1.3676401967542762 1.0000000180025095e-35
decision_type=2 2 2 2
left_child=1 -1 3 -3
right_child=-2 2 -4 -5
leaf_value=-0.0015032459490748023 -0.0030331810329187847 -0.0011168090406521428 0.0069356413058491231 -0.062737639653014723
leaf_weight=4640 5568 502 4716 58
leaf_count=4640 5568 502 4716 58
internal_value=0 0.00217164 0.00540354 -0.00749897
internal_weight=0 9916 5276 560
internal_count=15484 9916 5276 560
is_linear=0
shrinkage=0.05


Tree=123
num_leaves=5
num_cat=0
split_feature=14 1 1 1
split_gain=40.6078 27.5496 28.1549 97.4204
threshold=2.1576576623905894 1.0000000180025095e-35 5.3034034897221876 5.4437584866277211
decision_type=2 2 2 2
left_child=1 -1 -3 -4
right_child=-2 2 3 -5
leaf_value=-0.054224347975105051 0.006927841424878841 0.00028350571375796308 -0.042237933425552238 -0.0026348569502171021
leaf_weight=24 2003 11687 172 1598
leaf_count=24 2003 11687 172 1598
internal_value=0 -0.000701986 -0.000606532 -0.00648329
internal_weight=0 13481 13457 1770
internal_count=15484 13481 13457 1770
is_linear=0
shrinkage=0.05


Tree=124
num_leaves=5
num_cat=0
split_feature=14 1 1 1
split_gain=38.0319 30.5914 89.4614 102.877
threshold=3.6600977475631402 5.3034034897221876 5.2668119448065935 4.3519467737918545
decision_type=2 2 2 2
left_child=1 2 3 -1
right_child=-2 -3 -4 -5
leaf_value=0.00050925711928928878 0.018144626458086174 -0.0061850587435465926 0.0099305086592964102 -0.015653944898968247
leaf_weight=10082 292 1804 2215 1091
leaf_count=10082 292 1804 2215 1091
internal_value=0 -7.27944e-05 0.000750818 -0.00106902
internal_weight=0 15192 13388 11173
internal_count=15484 15192 13388 11173
is_linear=0
shrinkage=0.05


Tree=125
num_leaves=5
num_cat=0
split_feature=14 14 4 14
split_gain=47.2397 24.1544 18.6534 19.1623
threshold=4.4091074173173004 2.3499710825428539 7.0462138840254029 0.96239039249737179
decision_type=2 2 2 2
left_child=1 2 -1 -4
right_child=-2 -3 3 -5
leaf_value=-0.0010552471646090428 0.02993407769455679 0.007050173297369045 0.022955813855343662 -0.030650243457210694
leaf_weight=14166 130 1033 136 19
leaf_count=14166 130 1033 136 19
internal_value=0 -0.000333865 -0.000866489 0.0163847
internal_weight=0 15354 14321 155
internal_count=15484 15354 14321 155
is_linear=0
shrinkage=0.05


Tree=126
num_leaves=5
num_cat=0
split_feature=14 14 13 0
split_gain=42.9803 31.3117 23.2031 19.3505
threshold=5.8170333083802417 2.3499710825428539 1.0000000180025095e-35 2.6764223831288798
decision_type=2 2 2 2
left_child=1 2 -1 -4
right_child=-2 -3 3 -5
leaf_value=-0.014287092884243841 0.060737556321867586 0.0078078985694343952 0.00095000722178991868 -0.0028679096102652906
leaf_weight=313 29 1134 8606 5402
leaf_count=313 29 1134 8606 5402
internal_value=0 -0.000189867 -0.000823165 -0.000522322
internal_weight=0 15455 14321 14008
internal_count=15484 15455 14321 14008
is_linear=0
shrinkage=0.05


Tree=127
num_leaves=5
num_cat=0
split_feature=19 16 20 16
split_gain=12.3625 3.72522 3.47794 3.00903
threshold=0.96239039249737179 0.96239039249737179 1.0000000180025095e-35 0.96239039249737179
decision_type=2 2 2 2
left_child=1 -1 3 -2
right_child=2 -3 -4 -5
leaf_value=-0.017468013197241217 0.0022525328636763971 -0.0060929984614018547 -0.00035094205762990749 -0.00041536137572795254
leaf_weight=97 2953 279 10509 1646
leaf_count=97 2953 279 10509 1646
internal_value=0 -0.00902751 0.000150913 0.00129768
internal_weight=0 376 15108 4599
internal_count=15484 376 15108 4599
is_linear=0
shrinkage=0.05


Tree=128
num_leaves=5
num_cat=0
split_feature=15 15 12 6
split_gain=37.9641 25.1249 17.8484 18.3635
threshold=2.3499710825428539 3.7420149475191633 3.2638637938764865 7.7560849484388568
decision_type=2 2 2 2
left_child=2 -2 3 -1
right_child=1 -3 -4 -5
leaf_value=-0.0017388028127343588 0.01296792625967731 -0.040160795398380446 0.0035478270928288578 0.0077365926280718554
leaf_weight=12045 685 23 2197 534
leaf_count=12045 685 23 2197 534
internal_value=0 0.011242 -0.000610312 -0.00133656
internal_weight=0 708 14776 12579
internal_count=15484 708 14776 12579
is_linear=0
shrinkage=0.05


Tree=129
num_leaves=5
num_cat=0
split_feature=1 1 1 4
split_gain=26.1769 42.9176 121.069 68.6771
threshold=5.5432820482878951 5.2668119448065935 4.2323110362914269 3.2382586292790165
decision_type=2 2 2 2
left_child=1 2 -1 -3
right_child=-2 3 -4 -5
leaf_value=0.00076164448013353462 -0.0078228617392596799 -0.0055203469199206386 -0.016585564182856175 0.010670570325067442
leaf_weight=10270 1016 944 1115 2139
leaf_count=10270 1016 944 1115 2139
internal_value=0 0.00047984 -0.00093727 0.00571299
internal_weight=0 14468 11385 3083
internal_count=15484 14468 11385 3083
is_linear=0
shrinkage=0.05


Tree=130
num_leaves=5
num_cat=0
split_feature=1 1 3 1
split_gain=30.4419 50.0765 48.5876 74.0529
threshold=3.484264854180712 1.3676401967542762 8.6072035792156871 3.6600977475631402
decision_type=2 2 2 2
left_child=1 -1 -2 -4
right_child=2 -3 3 -5
leaf_value=0.005913897490668462 3.3727922425776879e-05 -0.010317374921088869 0.046893379686619434 0.0053344856858163299
leaf_weight=674 12480 1611 136 506
leaf_count=674 12480 1611 136 506
internal_value=0 -0.00552968 0.000723798 0.0141382
internal_weight=0 2285 13122 642
internal_count=15407 2285 13122 642
is_linear=0
shrinkage=0.05


Tree=131
num_leaves=5
num_cat=0
split_feature=6 43 43 6
split_gain=18.8558 7.69208 24.2512 7.91573
threshold=9.4927521201886318 0.96239039249737179 1.0000000180025095e-35 8.7892120920273218
decision_type=2 2 2 2
left_child=1 2 -1 -3
right_child=-2 3 -4 -5
leaf_value=-0.00196545422289036 0.021339497529431293 -0.00086747864379567463 0.0090428028617612916 0.016235829781576554
leaf_weight=1235 101 13162 841 68
leaf_count=1235 101 13162 841 68
internal_value=0 -0.000335558 0.00249406 -0.00077957
internal_weight=0 15306 2076 13230
internal_count=15407 15306 2076 13230
is_linear=0
shrinkage=0.05


Tree=132
num_leaves=5
num_cat=0
split_feature=5 14 12 5
split_gain=121.076 47.7086 42.2725 27.5777
threshold=2.8923345256312616 1.3676401967542762 4.169585969404392 2.0589054744004582
decision_type=2 2 2 2
left_child=1 -1 -2 -3
right_child=2 3 -4 -5
leaf_value=-0.0050746265600739157 0.0090447349239421698 -0.0010816117349303049 0.034901266867554653 0.0057806620409762213
leaf_weight=6281 1832 5061 173 2060
leaf_count=6281 1832 5061 173 2060
internal_value=0 -0.00189819 0.0112757 0.000903543
internal_weight=0 13402 2005 7121
internal_count=15407 13402 2005 7121
is_linear=0
shrinkage=0.05


Tree=133
num_leaves=5
num_cat=0
split_feature=4 4 4 20
split_gain=19.4125 32.2455 11.558 11.0957
threshold=3.2190559721342802 1.0000000180025095e-35 2.7452916442235575 1.0000000180025095e-35
decision_type=2 2 2 2
left_child=1 -1 -3 -2
right_child=3 2 -4 -5
leaf_value=0.0016381042206804605 0.003314044560960456 -0.010865281043240386 -0.004040637442521984 -0.00015859198701396765
leaf_weight=2594 3760 853 2275 5925
leaf_count=2594 3760 853 2275 5925
internal_value=0 -0.00248362 -0.00590171 0.00118959
internal_weight=0 5722 3128 9685
internal_count=15407 5722 3128 9685
is_linear=0
shrinkage=0.05


Tree=134
num_leaves=5
num_cat=0
split_feature=12 6 12 12
split_gain=19.806 17.3462 8.0275 31.0944
threshold=3.8204317906260239 9.4927521201886318 1.1538510012592533 1.7010527064814316
decision_type=2 2 2 2
left_child=1 2 -1 -4
right_child=-2 -3 3 -5
leaf_value=0.00069234800544938787 0.0050985140845903141 0.019868768745166535 -0.0078467948129291084 -0.00036330476787887968
leaf_weight=4905 1601 101 1727 7073
leaf_count=4905 1601 101 1727 7073
internal_value=0 -0.000776355 -0.000928501 -0.00183194
internal_weight=0 13806 13705 8800
internal_count=15407 13806 13705 8800
is_linear=0
shrinkage=0.05


Tree=135
num_leaves=5
num_cat=0
split_feature=4 4 9 9
split_gain=12.1067 31.0873 13.9202 15.7271
threshold=3.2382586292790165 1.0000000180025095e-35 2.5214314235676833 2.1576576623905894
decision_type=2 2 2 2
left_child=1 2 3 -1
right_child=-2 -3 -4 -5
leaf_value=-0.0094358004191372954 0.00090780806234457717 -0.005087481234937026 -0.011862009868138668 0.0044481664150254046
leaf_weight=225 9421 3423 165 2182
leaf_count=225 9421 3423 165 2182
internal_value=0 -0.00196644 0.00218725 0.00315033
internal_weight=0 5995 2572 2407
internal_count=15416 5995 2572 2407
is_linear=0
shrinkage=0.05


Tree=136
num_leaves=5
num_cat=0
split_feature=1 1 1 1
split_gain=32.2723 50.9351 40.2187 104.711
threshold=3.484264854180712 1.3676401967542762 1.9379878208504662 1.6806484296377997
decision_type=2 2 2 2
left_child=1 -1 3 -3
right_child=-2 2 -4 -5
leaf_value=0.0059334476043317302 0.00075757467917149249 -0.0073087566074039739 -0.0042510392798770485 -0.052459030010150898
leaf_weight=670 13120 442 1003 181
leaf_count=670 13120 442 1003 181
internal_value=0 -0.00566809 -0.0104486 -0.0204263
internal_weight=0 2296 1626 623
internal_count=15416 2296 1626 623
is_linear=0
shrinkage=0.05


Tree=137
num_leaves=5
num_cat=0
split_feature=4 4 4 4
split_gain=11.4306 28.0449 13.5406 8.47048
threshold=3.2382586292790165 1.0000000180025095e-35 2.7452916442235575 6.6745705244579669
decision_type=2 2 2 2
left_child=1 -1 -3 -2
right_child=3 2 -4 -5
leaf_value=0.0020489785433032972 0.00067808684325096488 -0.010340563044522945 -0.0030559517558893948 0.011182244641205048
leaf_weight=2572 9225 848 2575 196
leaf_count=2572 9225 848 2575 196
internal_value=0 -0.00189623 -0.00486061 0.000896621
internal_weight=0 5995 3423 9421
internal_count=15416 5995 3423 9421
is_linear=0
shrinkage=0.05


Tree=138
num_leaves=5
num_cat=0
split_feature=14 12 14 12
split_gain=26.1096 17.1834 21.4681 39.302
threshold=5.3212348096133493 2.3061026564038785 1.3676401967542762 1.1538510012592533
decision_type=2 2 2 2
left_child=1 2 3 -1
right_child=-2 -3 -4 -5
leaf_value=-0.0007041277846665877 0.034526543339921369 0.0019299805292235035 0.00091887938666368918 -0.0099408939854903622
leaf_weight=3481 54 5523 4637 1721
leaf_count=3481 54 5523 4637 1721
internal_value=0 -0.000301993 -0.00155488 -0.00375997
internal_weight=0 15362 9839 5202
internal_count=15416 15362 9839 5202
is_linear=0
shrinkage=0.05


Tree=139
num_leaves=5
num_cat=0
split_feature=0 0 12 12
split_gain=27.9053 47.1723 33.2909 31.6277
threshold=2.6764223831288798 3.1829834417341325 1.8453726503557257 1.0000000180025095e-35
decision_type=2 2 2 2
left_child=2 -2 -1 -3
right_child=1 3 -4 -5
leaf_value=-0.0016655437549113691 -0.016722181231627269 0.0031727599071562952 0.0041439128842444654 -0.0049074090451971747
leaf_weight=4648 564 2112 5253 2839
leaf_count=4648 564 2112 5253 2839
internal_value=0 -0.00302132 0.00141668 -0.00146057
internal_weight=0 5515 9901 4951
internal_count=15416 5515 9901 4951
is_linear=0
shrinkage=0.05


Tree=140
num_leaves=5
num_cat=0
split_feature=3 3 3 3
split_gain=43.5941 14.7969 48.5637 42.0479
threshold=9.0297949463285008 2.7691733519034405 5.4774487451167166 1.0043235178625787
decision_type=2 2 2 2
left_child=1 3 -3 -1
right_child=-2 2 -4 -5
leaf_value=0.0010144875631360563 0.01397583363119069 -0.0073001476697101874 0.00067976544792235885 0.026436915966353683
leaf_weight=5106 554 2608 7089 168
leaf_count=5106 554 2608 7089 168
internal_value=0 -0.000307164 -0.00146643 0.0018243
internal_weight=0 14971 9697 5274
internal_count=15525 14971 9697 5274
is_linear=0
shrinkage=0.05


Tree=141
num_leaves=5
num_cat=0
split_feature=3 4 4 13
split_gain=39.3437 51.9245 24.0474 22.5254
threshold=9.0297949463285008 1.0000000180025095e-35 5.1073993432482512 1.0000000180025095e-35
decision_type=2 2 2 2
left_child=3 -2 -3 -1
right_child=1 2 -4 -5
leaf_value=-0.013607611591868563 0.05196168512105942 0.013805063941720036 -0.011839414195051584 -9.3218265150944967e-06
leaf_weight=311 75 356 123 14660
leaf_count=311 75 356 123 14660
internal_value=0 0.013277 0.00721995 -0.000291806
internal_weight=0 554 479 14971
internal_count=15525 554 479 14971
is_linear=0
shrinkage=0.05


Tree=142
num_leaves=5
num_cat=0
split_feature=15 15 12 15
split_gain=29.7116 22.0449 13.3991 11.605
threshold=2.3499710825428539 3.7420149475191633 4.622432649412767 1.3676401967542762
decision_type=2 2 2 2
left_child=2 -2 -1 -4
right_child=1 -3 3 -5
leaf_value=-0.00049822866165495248 0.011697662386307773 -0.037038242180521291 0.020496644897686017 -0.0012178688902942535
leaf_weight=14551 699 24 143 108
leaf_count=14551 699 24 143 108
internal_value=0 0.0100799 -0.000300651 0.0111533
internal_weight=0 723 14802 251
internal_count=15525 723 14802 251
is_linear=0
shrinkage=0.05


Tree=143
num_leaves=5
num_cat=0
split_feature=6 12 12 12
split_gain=16.5312 14.6962 9.47417 24.0608
threshold=9.4927521201886318 3.2638637938764865 1.1538510012592533 1.7010527064814316
decision_type=2 2 2 2
left_child=1 2 -1 -4
right_child=-2 -3 3 -5
leaf_value=0.0010696742434122813 0.021660812520435124 0.003497631787166488 -0.0068971196270416731 -0.00024591878099779424
leaf_weight=4969 89 2575 1746 6146
leaf_count=4969 89 2575 1746 6146
internal_value=0 4.97425e-05 -0.000640586 -0.00171741
internal_weight=0 15436 12861 7892
internal_count=15525 15436 12861 7892
is_linear=0
shrinkage=0.05


Tree=144
num_leaves=5
num_cat=0
split_feature=6 9 21 6
split_gain=14.9195 3.26417 13.457 21.5529
threshold=9.4927521201886318 1.6806484296377997 1.0000000180025095e-35 1.0000000180025095e-35
decision_type=2 2 2 2
left_child=1 -1 3 -3
right_child=-2 2 -4 -5
leaf_value=-0.0011321449643320223 0.020577772126501699 0.010783351632954775 -0.00016131178207935476 -0.0016528406027420308
leaf_weight=4251 89 759 9782 644
leaf_count=4251 89 759 9782 644
internal_value=0 4.72554e-05 0.000495501 0.00507494
internal_weight=0 15436 11185 1403
internal_count=15525 15436 11185 1403
is_linear=0
shrinkage=0.05


Tree=145
num_leaves=5
num_cat=0
split_feature=19 4 4 9
split_gain=17.3003 7.62122 19.2032 13.1665
threshold=0.96239039249737179 3.2190559721342802 1.0000000180025095e-35 2.1576576623905894
decision_type=2 2 2 2
left_child=-1 2 3 -2
right_child=1 -3 -4 -5
leaf_value=-0.010833789249810563 -0.0094389502005450005 0.0011520962414604636 -0.0039001311123435345 0.0030626671164475962
leaf_weight=358 231 9480 3003 2386
leaf_count=358 231 9480 3003 2386
internal_value=0 0.000287212 -0.0011717 0.00195916
internal_weight=0 15100 5620 2617
internal_count=15458 15100 5620 2617
is_linear=0
shrinkage=0.05


Tree=146
num_leaves=5
num_cat=0
split_feature=14 13 14 12
split_gain=29.0377 16.0412 15.5739 13.7361
threshold=3.484264854180712 1.0000000180025095e-35 6.1970928556991565 2.17111610418416
decision_type=2 2 2 2
left_child=1 3 -2 -1
right_child=2 -3 -4 -5
leaf_value=-0.01965598079242431 0.01139194923764987 -5.4183056265477011e-05 0.053121383399169046 0.00060268613854295593
leaf_weight=196 327 14765 24 146
leaf_count=196 327 14765 24 146
internal_value=0 -0.000302151 0.0142452 -0.0110075
internal_weight=0 15107 351 342
internal_count=15458 15107 351 342
is_linear=0
shrinkage=0.05


Tree=147
num_leaves=5
num_cat=0
split_feature=3 3 3 3
split_gain=28.3208 11.4585 30.3469 37.9693
threshold=9.0297949463285008 5.6995877797373931 2.7691733519034405 1.0043235178625787
decision_type=2 2 2 2
left_child=1 2 3 -1
right_child=-2 -3 -4 -5
leaf_value=3.5836940708381452e-05 0.010924841913610425 0.001239756707920265 -0.0052336822483753783 0.023857579203699367
leaf_weight=5053 574 6238 3420 173
leaf_count=5053 574 6238 3420 173
internal_value=0 -0.00039352 -0.00157191 0.000824425
internal_weight=0 14884 8646 5226
internal_count=15458 14884 8646 5226
is_linear=0
shrinkage=0.05


Tree=148
num_leaves=5
num_cat=0
split_feature=3 13 3 6
split_gain=25.5595 12.5681 11.8302 11.1872
threshold=9.0297949463285008 1.0000000180025095e-35 1.0043235178625787 10.845936272284481
decision_type=2 2 2 2
left_child=1 2 -1 -3
right_child=-2 3 -4 -5
leaf_value=-0.021385289469121577 0.010378599804221188 -0.00021948024932507586 -0.0022292290850896282 0.028925651557404886
leaf_weight=135 574 14516 200 33
leaf_count=135 574 14516 200 33
internal_value=0 -0.000373844 -0.00994884 -0.000153373
internal_weight=0 14884 335 14549
internal_count=15458 14884 335 14549
is_linear=0
shrinkage=0.05


Tree=149
num_leaves=5
num_cat=0
split_feature=15 3 15 15
split_gain=29.058 39.8089 24.0234 11.7962
threshold=2.1576576623905894 8.1090933238135126 3.3894353769711834 0.96239039249737179
decision_type=2 2 2 2
left_child=3 2 -2 -1
right_child=1 -3 -4 -5
leaf_value=-0.0018802046013122267 0.0050804515276386669 0.030141561723094019 -0.04105119912660328 0.0010258976367250588
leaf_weight=8038 1051 166 29 6174
leaf_count=8038 1051 166 29 6174
internal_value=0 0.00734556 0.00384173 -0.000617731
internal_weight=0 1246 1080 14212
internal_count=15458 1246 1080 14212
is_linear=0
shrinkage=0.05


Tree=150
num_leaves=5
num_cat=0
split_feature=15 15 12 15
split_gain=25.407 19.8133 9.80391 11.1421
threshold=2.1576576623905894 3.8204317906260239 4.622432649412767 0.96239039249737179
decision_type=2 2 2 2
left_child=2 -2 3 -1
right_child=1 -3 -4 -5
leaf_value=-0.0019644811087168169 0.0078748843616880029 -0.040014814395478673 0.0097203841737242783 0.00088160687943180023
leaf_weight=7940 1182 22 228 6066
leaf_count=7940 1182 22 228 6066
internal_value=0 0.00699982 -0.000564417 -0.00073184
internal_weight=0 1204 14234 14006
internal_count=15438 1204 14234 14006
is_linear=0
shrinkage=0.05


Tree=151
num_leaves=5
num_cat=0
split_feature=13 13 43 23
split_gain=10.5285 13.2058 9.50655 8.29764
threshold=1.0000000180025095e-35 1.3676401967542762 1.3676401967542762 1.0000000180025095e-35
decision_type=2 2 2 2
left_child=3 2 -2 -1
right_child=1 -3 -4 -5
leaf_value=-0.018981725674483085 0.0026385154705418292 -0.0010615555606586986 -0.0032244909330690695 -0.002767960804212551
leaf_weight=124 5691 8619 787 217
leaf_count=124 5691 8619 787 217
internal_value=0 0.000220479 0.00192623 -0.00866388
internal_weight=0 15097 6478 341
internal_count=15438 15097 6478 341
is_linear=0
shrinkage=0.05


Tree=152
num_leaves=5
num_cat=0
split_feature=6 43 9 9
split_gain=13.278 6.13416 13.9231 16.092
threshold=8.7892120920273218 0.96239039249737179 1.6806484296377997 0.96239039249737179
decision_type=2 2 2 2
left_child=1 2 3 -1
right_child=-2 -3 -4 -5
leaf_value=0.014841256877535104 0.013159249428733203 -0.00053768271998892606 0.0089234041545292863 -0.0019947023178461683
leaf_weight=159 190 13182 585 1322
leaf_count=159 190 13182 585 1322
internal_value=0 -0.00014066 0.00239252 -0.000187196
internal_weight=0 15248 2066 1481
internal_count=15438 15248 2066 1481
is_linear=0
shrinkage=0.05


Tree=153
num_leaves=5
num_cat=0
split_feature=1 1 9 9
split_gain=33.847 40.1098 53.0355 42.3612
threshold=3.484264854180712 3.1829834417341325 2.5214314235676833 2.1576576623905894
decision_type=2 2 2 2
left_child=1 2 3 -1
right_child=-2 -3 -4 -5
leaf_value=-0.0021951015217104792 0.00098789069768649598 -0.021073395813539939 0.011823444883872781 -0.021432519857372344
leaf_weight=1025 13192 355 469 397
leaf_count=1025 13192 355 469 397
internal_value=0 -0.00565207 -0.002757 -0.00756589
internal_weight=0 2246 1891 1422
internal_count=15438 2246 1891 1422
is_linear=0
shrinkage=0.05


Tree=154
num_leaves=5
num_cat=0
split_feature=12 4 12 4
split_gain=11.7013 13.9817 17.5469 16.9273
threshold=3.2638637938764865 4.499280045989777 5.0934691711277731 5.2668119448065935
decision_type=2 2 2 2
left_child=-1 -2 3 -3
right_child=1 2 -4 -5
leaf_value=-0.00059554677567792485 0.001828019822191802 0.022231462687320475 0.062985658470322101 -0.0035965148842761075
leaf_weight=12860 2305 140 17 116
leaf_count=12860 2305 140 17 116
internal_value=0 0.00309525 0.0137947 0.0105282
internal_weight=0 2578 273 256
internal_count=15438 2578 273 256
is_linear=0
shrinkage=0.05


Tree=155
num_leaves=5
num_cat=0
split_feature=1 1 1 1
split_gain=27.2099 45.172 42.9421 93.4258
threshold=3.484264854180712 1.3676401967542762 1.9379878208504662 1.6806484296377997
decision_type=2 2 2 2
left_child=1 -1 3 -3
right_child=-2 2 -4 -5
leaf_value=0.0061592470043127633 0.00090587381251296898 -0.0081158834979393659 -0.0031340878819201071 -0.052210811889026223
leaf_weight=646 13216 449 1009 164
leaf_count=646 13216 449 1009 164
internal_value=0 -0.00502206 -0.00947528 -0.0199129
internal_weight=0 2268 1622 613
internal_count=15484 2268 1622 613
is_linear=0
shrinkage=0.05


Tree=156
num_leaves=5
num_cat=0
split_feature=1 1 1 1
split_gain=24.5569 40.7678 38.7552 84.3168
threshold=3.484264854180712 1.3676401967542762 1.9379878208504662 1.6806484296377997
decision_type=2 2 2 2
left_child=1 -1 3 -3
right_child=-2 2 -4 -5
leaf_value=0.0058512845980348577 0.00086058012628202434 -0.0077100893751958612 -0.0029773834974406248 -0.049600271322968896
leaf_weight=646 13216 449 1009 164
leaf_count=646 13216 449 1009 164
internal_value=0 -0.00477095 -0.00900151 -0.0189173
internal_weight=0 2268 1622 613
internal_count=15484 2268 1622 613
is_linear=0
shrinkage=0.05


Tree=157
num_leaves=5
num_cat=0
split_feature=5 4 4 5
split_gain=112.07 31.9743 28.1569 25.7485
threshold=2.6064475729658256 4.8029879914690694 1.0000000180025095e-35 3.8774147051360051
decision_type=2 2 2 2
left_child=1 -1 3 -2
right_child=2 -3 -4 -5
leaf_value=-0.0016263025069464046 0.01597430672082811 -0.017612980251422449 0.0069776082645482398 0.052147614636253253
leaf_weight=12198 296 321 2610 59
leaf_count=12198 296 321 2610 59
internal_value=0 -0.00203622 0.00877459 0.0219862
internal_weight=0 12519 2965 355
internal_count=15484 12519 2965 355
is_linear=0
shrinkage=0.05


Tree=158
num_leaves=5
num_cat=0
split_feature=15 1 1 1
split_gain=22.8974 25.5047 98.101 56.8675
threshold=2.1576576623905894 5.2668119448065935 4.3519467737918545 5.3034034897221876
decision_type=2 2 2 2
left_child=1 2 -1 -3
right_child=-2 3 -4 -5
leaf_value=-0.00015223657127490283 0.0066302331404303715 0.0082192218623260444 -0.01592062084258165 -0.0036887994776036593
leaf_weight=9119 1212 2216 1106 1831
leaf_count=9119 1212 2216 1106 1831
internal_value=0 -0.000528086 -0.00185784 0.00283163
internal_weight=0 14272 10225 4047
internal_count=15484 14272 10225 4047
is_linear=0
shrinkage=0.05


Tree=159
num_leaves=5
num_cat=0
split_feature=4 4 4 9
split_gain=14.2901 15.7972 12.3644 10.4962
threshold=3.2190559721342802 1.0000000180025095e-35 2.6064475729658256 2.1576576623905894
decision_type=2 2 2 2
left_child=1 3 -3 -1
right_child=-2 2 -4 -5
leaf_value=-0.0097418264019687797 0.0011938575842633014 -0.0098316470313379173 -0.0025438657491750776 0.0018366120680430504
leaf_weight=213 9760 777 2319 2415
leaf_count=213 9760 777 2319 2415
internal_value=0 -0.00195283 -0.00437287 0.000898177
internal_weight=0 5724 3096 2628
internal_count=15484 5724 3096 2628
is_linear=0
shrinkage=0.05


Tree=160
num_leaves=5
num_cat=0
split_feature=1 1 1 13
split_gain=28.0989 49.5936 101.31 39.7915
threshold=5.5432820482878951 5.2668119448065935 4.3519467737918545 1.0000000180025095e-35
decision_type=2 2 2 2
left_child=1 2 -1 -3
right_child=-2 3 -4 -5
leaf_value=0.00052679310129880464 -0.0082287478811039032 -0.027573616639710963 -0.015418904438182219 0.0071228194564753287
leaf_weight=10278 985 85 1103 2969
leaf_count=10278 985 85 1103 2969
internal_value=0 0.000499565 -0.0010186 0.00615714
internal_weight=0 14435 11381 3054
internal_count=15420 14435 11381 3054
is_linear=0
shrinkage=0.05


Tree=161
num_leaves=5
num_cat=0
split_feature=3 4 3 4
split_gain=24.0274 30.4999 16.7628 51.6687
threshold=9.0297949463285008 3.3357423613006176 2.7691733519034405 1.0000000180025095e-35
decision_type=2 2 2 2
left_child=2 -2 3 -1
right_child=1 -3 -4 -5
leaf_value=0.068388676791098613 0.039833598606909319 0.0055283116058352554 -0.0016776727464881845 0.0014642846890686888
leaf_weight=29 75 476 9606 5234
leaf_count=29 75 476 9606 5234
internal_value=0 0.0101978 -0.000435025 0.00183305
internal_weight=0 551 14869 5263
internal_count=15420 551 14869 5263
is_linear=0
shrinkage=0.05


