tree
version=v3
num_class=1
num_tree_per_iteration=1
label_index=0
max_feature_idx=43
objective=regression
feature_names=FormRE Province FloorNum Area Height Width UsableArea FrontLength BackSideLength Direction BalconyDirection Corner RoadInFront Juridical NumOfBed NumOfFloor NumOfToilet ConstructionYear IsOwner Furniture Terrace CarParking DinningRoom Kitchen AirCond ADSL WashingMachine Balcony Fridge Wifi Pool Basement Park SuperMarket Clinics Sea Hospital Church BusStation School Temple Airport Preschool Characteristics
feature_infos=[0:2.0556415380581079] [0.73046314711896665:5.2852664168066479] none none [0.73046314711896665:30.822755012689935] [0.73046314711896665:30.822755012689935] [0:17.394781870868083] none none [0:2.4402683783626369] none none none [0:0.73046314711896665] [0:2.8858464724882018] [0:4.2014612941903655] [0:2.2596737867230705] none none [0:1.5409627556327752] none none none none none none none none none none none none none none none none none none none none none none none [0:1.1943176378757767]
tree_sizes=575 595 588 594 599 595 588 588 597 598 597 590 596 594 598 587 592 585 589 594 606 601 600 588 599 599 589 604 599 601 592 590 592 590 598 577 593 594 592 597 592 600 598 595 594 589 593 601 598 595 593 596 602 594 596 587 593 589 598 597 602 590 593 580 607 576 593 597 600 600 593 591 583 595 599 601 595 610 593 614 586 596 592 603 592 598 588 602 600 607 606 588 608 595 592 585 574 600 592 593 596 607 603 601 591 608 597 590 602 592 612 592 595 599 596 611 592 608 600 597 612 613 602 594 599 603 599 595 599 611 594 604 594 616 594 597 592 592 588 599 610 597 579 587 610 590 598 584 592 608 598 612 603 609 599 613 582 603 580 605 607 600 595 606 603 582 601 605 618 600 595 595 585 599 598 615 596 611 605 618 597 595 593 597 593 592 602 599 599 589 590 609 600 597 602 594 594 612 609 593 577 617 584 597 592 608 598 598 575 599 598 608 596 595 603 597 593 592 596 595 597 595 599 599 590 598 600 607 584 609 595 616 602 611 612 590 606 596 597 593 599 598 600 588 598 594 599 612 605 597 597 607 616 601 599 579 598 598 608 605 593 592 595 588 602 601 584 600 595 605 590 596 585 599 584 591 580 601 601 587 606 589 600 596 586 604 593 580 592 609 597 578 606 616 603 601 597 609 597 603 576 611 593 581 598 598 599 601 593 587 599 599 589 598 609 601 594 569 598 599 600 588 602 593 598 580 593 596 594 596 595 597 599 601 585 597 610 605 605 584 599 611 616 591 590 595 590 606 593 599 608 605 605 611 589 586 611 577 578 582 580 592 596 600 599 607 584 600 602 601 605 601 581 598 600 601 574 606 599 600 591 598 596 596 612 593 604 589 584 599 607 599 604 611 580 606 589 595 605 608 604 582 592 598 604 599 598 598 591 599 608 598 602 601 595 592 597 590 582 599 582 595 588 588 605 606 594 590 590 608 602 592 602 592 599 614 615 598 580 604 594 605 610 584 607 605 603 594 594 606 601 596 595 598 580 583 611 604 585 595 587 614 596 599 582 590 602 615 587 585 599 606 602 601 596 589 604 584 597 593 600 605 598 589 617 599 594 593 591 599 594 574 606 593 599 586 594 612 602 585 591 583 599 597 590 595 608 594 602 596 577 599 584 605 600 603 578 601 593 586 596 590 594 590 602 595 600 601 601 602 606 611 594 609 584 599 597 615 608 611 587 598 595 619 596 593 573 601 604 596 615 593 604 597 597 596 596 611 585 583 597 615 608 601 608 595 593 594 593 588 601 595 609 602 609 601 585 580 592 586 613 602 600 595 592 592 607 603 581 589 597 597 585 589 594 597 573 593 598 609 601 596 600 598 594 590 600 599 605 608 583 605 611 590 586 593 585 595 607 614 604 588 601 597 595 600 609 590 605 594 596 590 610 604 594 572 593 586 582 615 588 604 610 586 594 607 607 597 590 598 587 576 606 606 604 587 606 597 606 586 573 607 594 623 587 599 595 598 600 596 603 584 588 590 600 606 575 589 606 579 599 597 601 588 585 583 585 582 608 586 602 604 583 599 599 594 610 599 606 601 579 588 595 598 584 599 603 584 592 582 575 595 579 598 605 615 596 610 597 590

Tree=0
num_leaves=5
num_cat=0
split_feature=14 5 5 14
split_gain=3092.94 2678.92 461.763 398.64
threshold=1.3676401967542762 2.9051629628993054 2.3534329352358925 1.9379878208504662
decision_type=2 2 2 2
left_child=1 2 -1 -2
right_child=3 -3 -4 -5
leaf_value=21.429511810466526 21.477705314581971 21.484404185636226 21.452363481663024 21.510759621631216
leaf_weight=12668 4470 3108 2678 1146
leaf_count=12668 4470 3108 2678 1146
internal_value=21.4517 21.4421 21.4335 21.4845
internal_weight=0 18454 15346 5616
internal_count=24070 18454 15346 5616
is_linear=0
shrinkage=1


Tree=1
num_leaves=5
num_cat=0
split_feature=15 4 1 1
split_gain=1758.7 1269.73 1217.27 313.486
threshold=1.3676401967542762 5.5722838889597002 3.8204317906260239 5.0736137837144382
decision_type=2 2 2 2
left_child=1 2 -1 -4
right_child=-2 -3 3 -5
leaf_value=0.0025827107029788342 0.042555098636201147 0.039711126559716349 -0.017438993665433857 -0.041856054178090685
leaf_weight=12213 2230 1540 6435 1652
leaf_count=12213 2230 1540 6435 1652
internal_value=0 -0.00405991 -0.00738047 -0.0224269
internal_weight=0 21840 20300 8087
internal_count=24070 21840 20300 8087
is_linear=0
shrinkage=0.05


Tree=2
num_leaves=5
num_cat=0
split_feature=5 1 5 1
split_gain=1844.29 1508.44 431.542 421.966
threshold=2.4487611197031476 3.484264854180712 4.2323110362914269 4.3519467737918545
decision_type=2 2 2 2
left_child=1 -1 -2 -3
right_child=2 3 -4 -5
leaf_value=0.0088739025930031894 0.016747757582701434 -0.014631573932051814 0.048352982681125214 -0.03828242839501822
leaf_weight=7730 4681 7764 1404 2491
leaf_count=7730 4681 7764 1404 2491
internal_value=0 -0.0078046 0.0240401 -0.0203765
internal_weight=0 17985 6085 10255
internal_count=24070 17985 6085 10255
is_linear=0
shrinkage=0.05


Tree=3
num_leaves=5
num_cat=0
split_feature=14 4 14 4
split_gain=2635.43 1379.22 345.204 271.318
threshold=1.3676401967542762 5.8454395506737677 1.9379878208504662 4.7210722374962772
decision_type=2 2 2 2
left_child=1 3 -2 -1
right_child=2 -3 -4 -5
leaf_value=-0.014875050121915862 0.023947751804394481 0.046673236333553712 0.054706972092837029 0.0026269951653029285
leaf_weight=14797 4470 1053 1146 2604
leaf_count=14797 4470 1053 1146 2604
internal_value=0 -0.00889338 0.0302245 -0.0122559
internal_weight=0 18454 5616 17401
internal_count=24070 18454 5616 17401
is_linear=0
shrinkage=0.05


Tree=4
num_leaves=5
num_cat=0
split_feature=6 5 6 5
split_gain=1661.39 1725.27 851.433 417.44
threshold=7.4903040685228648 2.9051629628993054 1.0000000180025095e-35 2.3534329352358925
decision_type=2 2 2 2
left_child=1 2 3 -1
right_child=-2 -3 -4 -5
leaf_value=-0.021170361071500901 0.038576543271091231 0.029756184607394282 0.0071142253103687672 0.0014681449607303612
leaf_weight=10716 2527 3175 5138 2514
leaf_count=10716 2527 3175 5138 2514
internal_value=0 -0.00427712 -0.0101599 -0.0168685
internal_weight=0 21543 18368 13230
internal_count=24070 21543 18368 13230
is_linear=0
shrinkage=0.05


Tree=5
num_leaves=5
num_cat=0
split_feature=6 1 1 1
split_gain=1483.51 1211.34 347.856 276.893
threshold=7.8671644518344133 3.8204317906260239 2.6764223831288798 5.1137119054210949
decision_type=2 2 2 2
left_child=1 2 -1 -3
right_child=-2 3 -4 -5
leaf_value=0.019568464966968555 0.040929298458078175 -0.015249868027144585 0.00082949369664892393 -0.041606405419772029
leaf_weight=3252 2018 7145 10386 1158
leaf_count=3252 2018 7145 10386 1158
internal_value=0 -0.00386896 0.00529783 -0.0189258
internal_weight=0 21941 13638 8303
internal_count=23959 21941 13638 8303
is_linear=0
shrinkage=0.05


Tree=6
num_leaves=5
num_cat=0
split_feature=5 1 4 1
split_gain=1511.13 1112.65 395.043 334.175
threshold=2.4487611197031476 3.484264854180712 6.1111535540699933 4.3519467737918545
decision_type=2 2 2 2
left_child=1 -1 -2 -3
right_child=2 3 -4 -5
leaf_value=0.0070257713867407333 0.016608620343122295 -0.013038698557146023 0.054581345676392473 -0.034099655465456284
leaf_weight=7678 5236 7771 788 2486
leaf_count=7678 5236 7771 788 2486
internal_value=0 -0.00736836 0.0215758 -0.0181433
internal_weight=0 17935 6024 10257
internal_count=23959 17935 6024 10257
is_linear=0
shrinkage=0.05


Tree=7
num_leaves=5
num_cat=0
split_feature=5 0 5 0
split_gain=1363.79 1883.22 327.723 308.856
threshold=2.4487611197031476 1.6806484296377997 4.2323110362914269 1.0000000180025095e-35
decision_type=2 2 2 2
left_child=1 -1 3 -2
right_child=2 -3 -4 -5
leaf_value=-0.019222736796793649 0.065878714730756155 0.014476842869709345 0.04141921442075755 0.010758276461797776
leaf_weight=11430 270 6505 1428 4326
leaf_count=11430 270 6505 1428 4326
internal_value=0 -0.00699995 0.020497 0.0139964
internal_weight=0 17935 6024 4596
internal_count=23959 17935 6024 4596
is_linear=0
shrinkage=0.05


Tree=8
num_leaves=5
num_cat=0
split_feature=5 9 5 5
split_gain=1230.82 346.872 301.623 255.361
threshold=2.4487611197031476 1.0000000180025095e-35 3.6730532650190839 2.0534578654910636
decision_type=2 2 2 2
left_child=1 3 -2 -1
right_child=2 -3 -4 -5
leaf_value=-9.9245467473900331e-05 0.010937333822927459 0.0014569210900833339 0.034138590816379981 -0.017550909310237124
leaf_weight=2923 3808 7602 2216 7410
leaf_count=2923 3808 7602 2216 7410
internal_value=0 -0.00664995 0.0194722 -0.0126142
internal_weight=0 17935 6024 10333
internal_count=23959 17935 6024 10333
is_linear=0
shrinkage=0.05


Tree=9
num_leaves=5
num_cat=0
split_feature=6 5 6 5
split_gain=1277.5 1254.99 544.35 403.312
threshold=7.2319929417824618 3.1338712057408746 1.0000000180025095e-35 2.0610737721255887
decision_type=2 2 2 2
left_child=1 2 3 -1
right_child=-2 -3 -4 -5
leaf_value=-0.020306597912865973 0.029661956138056451 0.027612124303467919 0.0058293615639975691 -0.0021102666416959841
leaf_weight=9091 3138 2646 4505 4579
leaf_count=9091 3138 2646 4505 4579
internal_value=0 -0.00456017 -0.00924396 -0.0142114
internal_weight=0 20821 18175 13670
internal_count=23959 20821 18175 13670
is_linear=0
shrinkage=0.05


Tree=10
num_leaves=5
num_cat=0
split_feature=1 9 1 13
split_gain=1078.42 408.469 355.138 178.843
threshold=3.8204317906260239 1.6806484296377997 2.6764223831288798 1.0000000180025095e-35
decision_type=2 2 2 2
left_child=2 -2 -1 -4
right_child=1 -3 3 -5
leaf_value=0.021358773395572239 -0.021083768848576458 0.0022927976581222651 0.0046629070838064089 -0.030447291654969257
leaf_weight=3686 6232 2669 11056 375
leaf_count=3686 6232 2669 11056 375
internal_value=0 -0.0140742 0.00786292 0.0035111
internal_weight=0 8901 15117 11431
internal_count=24018 8901 15117 11431
is_linear=0
shrinkage=0.05


Tree=11
num_leaves=5
num_cat=0
split_feature=19 4 4 43
split_gain=734.52 852.038 117.532 97.2591
threshold=1.3676401967542762 6.1111535540699933 5.5722838889597002 1.0000000180025095e-35
decision_type=2 2 2 2
left_child=-1 2 -2 -3
right_child=1 3 -4 -5
leaf_value=0.018674578699417247 -0.0071968310157302685 0.027061604733302259 0.013751634862943949 0.061938468688899545
leaf_weight=4224 18293 367 695 439
leaf_count=4224 18293 367 695 439
internal_value=0 -0.0042928 -0.00643007 0.0460578
internal_weight=0 19794 18988 806
internal_count=24018 19794 18988 806
is_linear=0
shrinkage=0.05


Tree=12
num_leaves=5
num_cat=0
split_feature=14 1 14 1
split_gain=1745.01 515.542 271.794 228.251
threshold=1.3676401967542762 3.8204317906260239 1.9379878208504662 5.1137119054210949
decision_type=2 2 2 2
left_child=1 -1 -2 -3
right_child=2 3 -4 -5
leaf_value=-0.00054900032818188803 0.018478100123988029 -0.013954946959827741 0.045663134685971524 -0.038175666151535614
leaf_weight=10587 4508 6628 1155 1140
leaf_count=10587 4508 6628 1155 1140
internal_value=0 -0.00772683 0.0240226 -0.0175095
internal_weight=0 18355 5663 7768
internal_count=24018 18355 5663 7768
is_linear=0
shrinkage=0.05


Tree=13
num_leaves=5
num_cat=0
split_feature=14 14 13 6
split_gain=1574.87 245.294 178.784 127.097
threshold=1.3676401967542762 1.9379878208504662 1.0000000180025095e-35 8.0081662174414152
decision_type=2 2 2 2
left_child=2 3 -1 -2
right_child=1 -3 -4 -5
leaf_value=-0.0065379227650448866 0.013308778426322623 0.043379977809394274 -0.037681775612866876 0.034156641235051598
leaf_weight=17882 3590 1155 473 918
leaf_count=17882 3590 1155 473 918
internal_value=0 0.0228215 -0.00734049 0.0175542
internal_weight=0 5663 18355 4508
internal_count=24018 5663 18355 4508
is_linear=0
shrinkage=0.05


Tree=14
num_leaves=5
num_cat=0
split_feature=19 9 19 19
split_gain=560.308 277.794 53.4916 46.5857
threshold=1.3676401967542762 1.6806484296377997 1.0000000180025095e-35 0.96239039249737179
decision_type=2 2 2 2
left_child=2 -2 -1 -4
right_child=1 -3 3 -5
leaf_value=0.007781129558952671 -0.0073257281273234722 0.0060538994809510496 0.02803375844262633 0.015085233405061356
leaf_weight=1280 14497 5297 1123 1821
leaf_count=1280 14497 5297 1123 1821
internal_value=0 -0.00374525 0.0163144 0.0200245
internal_weight=0 19794 4224 2944
internal_count=24018 19794 4224 2944
is_linear=0
shrinkage=0.05


Tree=15
num_leaves=5
num_cat=0
split_feature=4 19 4 4
split_gain=569.982 605.445 112.341 83.6058
threshold=6.1111535540699933 1.3676401967542762 5.5070187017502308 11.441303953238029
decision_type=2 2 2 2
left_child=1 -1 -3 -2
right_child=3 2 -4 -5
leaf_value=0.015815376029238003 0.044545796416332335 -0.0061023361700664261 0.012686182194122993 -0.0065559443379386087
leaf_weight=4142 795 18184 832 89
leaf_count=4142 795 18184 832 89
internal_value=0 -0.00150715 -0.00528029 0.0394009
internal_weight=0 23158 19016 884
internal_count=24042 23158 19016 884
is_linear=0
shrinkage=0.05


Tree=16
num_leaves=5
num_cat=0
split_feature=5 19 5 5
split_gain=940.815 617.998 212.915 96.3308
threshold=2.4487611197031476 1.3676401967542762 3.6730532650190839 2.0534578654910636
decision_type=2 2 2 2
left_child=1 -1 -2 -3
right_child=2 3 -4 -5
leaf_value=0.012874585048105786 0.0099268940132816834 -0.0027825538427670576 0.02941069911069737 -0.012547123666148175
leaf_weight=3578 3815 3264 2217 11168
leaf_count=3578 3815 3264 2217 11168
internal_value=0 -0.005727 0.017088 -0.0103387
internal_weight=0 18010 6032 14432
internal_count=24042 18010 6032 14432
is_linear=0
shrinkage=0.05


Tree=17
num_leaves=5
num_cat=0
split_feature=16 6 6 0
split_gain=1165.07 251.834 178.278 73.02
threshold=1.3676401967542762 7.8671644518344133 9.0062003689080488 1.9379878208504662
decision_type=2 2 2 2
left_child=1 -1 3 -2
right_child=2 -3 -4 -5
leaf_value=-0.0057512725165127119 0.029654282145611839 0.023006376064494353 0.058881908121840888 0.014648697089677663
leaf_weight=19631 1673 792 373 1573
leaf_count=19631 1673 792 373 1573
internal_value=0 -0.00463606 0.0261445 0.0223826
internal_weight=0 20423 3619 3246
internal_count=24042 20423 3619 3246
is_linear=0
shrinkage=0.05


Tree=18
num_leaves=5
num_cat=0
split_feature=14 14 16 16
split_gain=1209.69 208.552 108.338 23.5626
threshold=1.3676401967542762 1.9379878208504662 1.3676401967542762 1.9379878208504662
decision_type=2 2 2 2
left_child=-1 2 -2 -4
right_child=1 -3 3 -5
leaf_value=-0.0061670789575653945 0.0053180049643540388 0.039552413746188515 0.020289299601411237 0.038941588277480878
leaf_weight=18464 1641 1133 2623 181
leaf_count=18464 1641 1133 2623 181
internal_value=0 0.0204028 0.0155217 0.0214933
internal_weight=0 5578 4445 2804
internal_count=24042 5578 4445 2804
is_linear=0
shrinkage=0.05


Tree=19
num_leaves=5
num_cat=0
split_feature=0 4 0 0
split_gain=500.231 742.608 342.809 230.811
threshold=1.6806484296377997 6.1111535540699933 1.0000000180025095e-35 1.9379878208504662
decision_type=2 2 2 2
left_child=1 2 -1 -2
right_child=3 -3 -4 -5
leaf_value=0.01968117706533043 0.020616888981886773 0.043297012818575745 -0.0092772911821536793 0.003020989356555817
leaf_weight=1099 3276 762 14582 4323
leaf_count=1099 3276 762 14582 4323
internal_value=0 -0.0049054 -0.00724774 0.0106067
internal_weight=0 16443 15681 7599
internal_count=24042 16443 15681 7599
is_linear=0
shrinkage=0.05


Tree=20
num_leaves=5
num_cat=0
split_feature=14 14 43 14
split_gain=1015.27 192.661 95.4472 72.967
threshold=1.3676401967542762 1.9379878208504662 1.0000000180025095e-35 1.0000000180025095e-35
decision_type=2 2 2 2
left_child=2 -2 3 -1
right_child=1 -3 -4 -5
leaf_value=-0.011229544835979946 0.014132473779688869 0.037354049574018326 -0.0015199364164563045 -0.0015243383616602305
leaf_weight=7713 4411 1120 8028 2586
leaf_count=7713 4411 1120 8028 2586
internal_value=0 0.0188347 -0.00560689 -0.00879264
internal_weight=0 5531 18327 10299
internal_count=23858 5531 18327 10299
is_linear=0
shrinkage=0.05


Tree=21
num_leaves=5
num_cat=0
split_feature=6 6 19 43
split_gain=661.911 96.1693 90.6646 56.4115
threshold=7.4903040685228648 8.7934539551809916 1.3676401967542762 1.0000000180025095e-35
decision_type=2 2 2 2
left_child=2 -2 -1 -4
right_child=1 -3 3 -5
leaf_value=0.005468018725566166 0.017741453728398908 0.038855111973162743 -0.0064893139887416537 -0.00090923670928512012
leaf_weight=2868 1733 783 10521 7953
leaf_count=2868 1733 783 10521 7953
internal_value=0 0.0243122 -0.00280306 -0.00408711
internal_weight=0 2516 21342 18474
internal_count=23858 2516 21342 18474
is_linear=0
shrinkage=0.05


Tree=22
num_leaves=5
num_cat=0
split_feature=9 13 13 9
split_gain=234.447 134.79 80.1083 23.5164
threshold=1.3676401967542762 1.0000000180025095e-35 1.0000000180025095e-35 2.3499710825428539
decision_type=2 2 2 2
left_child=1 -1 3 -2
right_child=2 -3 -4 -5
leaf_value=-0.0027279344810672104 0.0066245840351628338 -0.033673218277076054 -0.022492674642729131 0.013664247776606573
leaf_weight=15625 6183 360 222 1468
leaf_count=15625 6183 360 222 1468
internal_value=0 -0.00342486 0.00711616 0.00797529
internal_weight=0 15985 7873 7651
internal_count=23858 15985 7873 7651
is_linear=0
shrinkage=0.05


Tree=23
num_leaves=5
num_cat=0
split_feature=4 19 4 4
split_gain=524.317 310.555 147.634 115.664
threshold=6.4696510499094231 1.3676401967542762 5.5070187017502308 11.441303953238029
decision_type=2 2 2 2
left_child=1 -1 -3 -2
right_child=3 2 -4 -5
leaf_value=0.011287739523897489 0.052794768711908559 -0.0049155689950451283 0.014483946699131795 -0.010794578347264267
leaf_weight=4110 559 18070 1037 82
leaf_count=4110 559 18070 1037 82
internal_value=0 -0.00118068 -0.00386269 0.0446601
internal_weight=0 23217 19107 641
internal_count=23858 23217 19107 641
is_linear=0
shrinkage=0.05


Tree=24
num_leaves=5
num_cat=0
split_feature=16 15 16 43
split_gain=764.887 210.643 85.137 61.4346
threshold=1.3676401967542762 1.3676401967542762 1.9379878208504662 1.0000000180025095e-35
decision_type=2 2 2 2
left_child=1 3 -2 -1
right_child=2 -3 -4 -5
leaf_value=-0.0067232650721082204 0.018022504415976699 0.034519130839324307 0.039173247811211426 -0.0010860209778735571
leaf_weight=11683 3013 354 565 8243
leaf_count=11683 3013 354 565 8243
internal_value=0 -0.00371204 0.0213624 -0.00439125
internal_weight=0 20280 3578 19926
internal_count=23858 20280 3578 19926
is_linear=0
shrinkage=0.05


Tree=25
num_leaves=5
num_cat=0
split_feature=4 0 0 0
split_gain=466.708 465.886 235.563 219.675
threshold=6.4696510499094231 1.6806484296377997 1.0000000180025095e-35 1.9379878208504662
decision_type=2 2 2 2
left_child=1 2 -1 -3
right_child=-2 3 -4 -5
leaf_value=0.016249136477741961 0.042213998864929998 0.019178305527402299 -0.0074910766581277686 0.0018740430055476547
leaf_weight=1124 642 3211 14849 4277
leaf_count=1124 642 3211 14849 4277
internal_value=0 -0.000996298 -0.00582051 0.00929445
internal_weight=0 23461 15973 7488
internal_count=24103 23461 15973 7488
is_linear=0
shrinkage=0.05


Tree=26
num_leaves=5
num_cat=0
split_feature=14 1 9 1
split_gain=753.072 554.653 214.126 135.49
threshold=1.6806484296377997 3.8204317906260239 1.6806484296377997 5.1137119054210949
decision_type=2 2 2 2
left_child=1 -1 3 -3
right_child=-2 2 -4 -5
leaf_value=0.003415959787195025 0.024228851825566701 -0.014965233817658425 -0.00059953982860195577 -0.0356911176455438
leaf_weight=12876 2861 5005 2425 936
leaf_count=12876 2861 5005 2425 936
internal_value=0 -0.00309659 -0.01312 -0.0182306
internal_weight=0 21242 8366 5941
internal_count=24103 21242 8366 5941
is_linear=0
shrinkage=0.05


Tree=27
num_leaves=5
num_cat=0
split_feature=16 13 16 43
split_gain=621.092 191.567 78.7208 48.4949
threshold=1.3676401967542762 1.0000000180025095e-35 1.9379878208504662 1.0000000180025095e-35
decision_type=2 2 2 2
left_child=1 3 -2 -1
right_child=2 -3 -4 -5
leaf_value=-0.0044997725806448924 0.016038832083180781 -0.032283234801961692 0.036146768274469152 0.00050421163791824033
leaf_weight=11668 3027 552 580 8276
leaf_count=11668 3027 552 580 8276
internal_value=0 -0.0032275 0.0192722 -0.00242331
internal_weight=0 20496 3607 19944
internal_count=24103 20496 3607 19944
is_linear=0
shrinkage=0.05


Tree=28
num_leaves=5
num_cat=0
split_feature=16 0 0 16
split_gain=560.536 96.9052 75.2064 142.848
threshold=1.3676401967542762 1.9379878208504662 1.6806484296377997 1.0000000180025095e-35
decision_type=2 2 2 2
left_child=2 -2 -1 -4
right_child=1 -3 3 -5
leaf_value=-0.0046981521206189312 0.025795983746392033 0.0093382283357404221 0.025963959185285868 -0.00075309752119682961
leaf_weight=15884 1966 1641 571 4041
leaf_count=15884 1966 1641 571 4041
internal_value=0 0.0183085 -0.00306612 0.00255467
internal_weight=0 3607 20496 4612
internal_count=24103 3607 20496 4612
is_linear=0
shrinkage=0.05


Tree=29
num_leaves=5
num_cat=0
split_feature=0 0 0 13
split_gain=245.333 188.35 133.667 101.47
threshold=1.6806484296377997 1.9379878208504662 1.0000000180025095e-35 1.0000000180025095e-35
decision_type=2 2 2 2
left_child=2 -2 -1 -4
right_child=1 -3 3 -5
leaf_value=0.013277470915993253 0.016664834638264549 0.00073769074204271627 -0.003984046802706101 -0.035850591611073124
leaf_weight=1134 3253 4323 15139 254
leaf_count=1134 3253 4323 15139 254
internal_value=0 0.00757652 -0.0032894 -0.00450988
internal_weight=0 7576 16527 15393
internal_count=24103 7576 16527 15393
is_linear=0
shrinkage=0.05


Tree=30
num_leaves=5
num_cat=0
split_feature=5 16 6 5
split_gain=840.312 611.67 229.477 211.927
threshold=2.4487611197031476 1.3676401967542762 6.6593935678183396 4.9049454820059193
decision_type=2 2 2 2
left_child=1 2 -1 -2
right_child=3 -3 -4 -5
leaf_value=-0.011781860833327789 0.012147002374398887 0.014891772743938991 0.0074898988524717955 0.037612509207748029
leaf_weight=13165 5015 3099 1750 976
leaf_count=13165 5015 3099 1750 976
internal_value=0 -0.00532093 -0.00952068 0.0162956
internal_weight=0 18014 14915 5991
internal_count=24005 18014 14915 5991
is_linear=0
shrinkage=0.05


Tree=31
num_leaves=5
num_cat=0
split_feature=1 4 4 15
split_gain=619.58 396.241 230.699 251.567
threshold=3.8204317906260239 5.982248890051955 4.7210722374962772 1.3676401967542762
decision_type=2 2 2 2
left_child=2 -2 3 -1
right_child=1 -3 -4 -5
leaf_value=0.00091111009434991094 -0.012645608036776786 0.039739407196305004 0.021932538315922293 0.020429958762080785
leaf_weight=11171 8496 377 2024 1937
leaf_count=11171 8496 377 2024 1937
internal_value=0 -0.0104199 0.0062214 0.00379546
internal_weight=0 8873 15132 13108
internal_count=24005 8873 15132 13108
is_linear=0
shrinkage=0.05


Tree=32
num_leaves=5
num_cat=0
split_feature=1 1 1 1
split_gain=565.048 241.753 192.581 266.479
threshold=3.484264854180712 5.1137119054210949 3.3379193205507431 2.6764223831288798
decision_type=2 2 2 2
left_child=2 -2 3 -1
right_child=1 -3 -4 -5
leaf_value=0.014403952261166029 -0.0044007557194981235 -0.028109182835654223 0.02072890313519337 -0.0047362280030748376
leaf_weight=3699 12902 1173 2654 3577
leaf_count=3699 12902 1173 2654 3577
internal_value=0 -0.0063766 0.00919972 0.00499433
internal_weight=0 14075 9930 7276
internal_count=24005 14075 9930 7276
is_linear=0
shrinkage=0.05


Tree=33
num_leaves=5
num_cat=0
split_feature=4 6 15 6
split_gain=394.917 463.008 251.551 140.776
threshold=6.1111535540699933 8.0081662174414152 1.3676401967542762 1.0000000180025095e-35
decision_type=2 2 2 2
left_child=1 2 -1 -2
right_child=3 -3 -4 -5
leaf_value=-0.004690838110823139 0.041500752225659382 0.024254167804208155 0.0157129757570043 -0.017097249449115292
leaf_weight=19850 739 1662 1635 119
leaf_count=19850 739 1662 1635 119
internal_value=0 -0.0011713 -0.00313812 0.0333735
internal_weight=0 23147 21485 858
internal_count=24005 23147 21485 858
is_linear=0
shrinkage=0.05


Tree=34
num_leaves=5
num_cat=0
split_feature=1 9 1 9
split_gain=509.526 259.403 117.664 129.414
threshold=3.8204317906260239 1.6806484296377997 2.6764223831288798 1.0000000180025095e-35
decision_type=2 2 2 2
left_child=2 -2 -1 -4
right_child=1 -3 3 -5
leaf_value=0.013389810230399589 -0.015054077602992001 0.0035954633145986259 -0.0017171915921454105 0.0089679659553397271
leaf_weight=3699 6208 2665 6246 5187
leaf_count=3699 6208 2665 6246 5187
internal_value=0 -0.0094527 0.00563839 0.00313052
internal_weight=0 8873 15132 11433
internal_count=24005 8873 15132 11433
is_linear=0
shrinkage=0.05


Tree=35
num_leaves=5
num_cat=0
split_feature=5 4 5 4
split_gain=739.222 205.106 243.322 144.939
threshold=2.4316849171830195 4.7210722374962772 4.2323110362914269 11.441303953238029
decision_type=2 2 2 2
left_child=-1 -2 -3 -4
right_child=1 2 3 -5
leaf_value=-0.0055008545181645888 0.0068159506956830072 0.0139245775621855 0.051474039853036516 -0.020602507609874011
leaf_weight=17372 3908 1781 848 76
leaf_count=17372 3908 1781 848 76
internal_value=0 0.0141419 0.024726 0.0455457
internal_weight=0 6613 2705 924
internal_count=23985 6613 2705 924
is_linear=0
shrinkage=0.05


Tree=36
num_leaves=5
num_cat=0
split_feature=1 1 1 14
split_gain=507.052 223.986 183.09 261.123
threshold=3.484264854180712 5.1137119054210949 3.3379193205507431 1.6806484296377997
decision_type=2 2 2 2
left_child=2 -2 3 -1
right_child=1 -3 -4 -5
leaf_value=-0.00043720601448003971 -0.0042617574678070992 -0.0268741982903428 0.019844039839947085 0.022723926076696415
leaf_weight=5731 12868 1197 2644 1545
leaf_count=5731 12868 1197 2644 1545
internal_value=0 -0.00618619 0.00857565 0.00448087
internal_weight=0 14065 9920 7276
internal_count=23985 14065 9920 7276
is_linear=0
shrinkage=0.05


Tree=37
num_leaves=5
num_cat=0
split_feature=6 9 0 0
split_gain=333.696 179.517 141.355 39.1499
threshold=8.0081662174414152 1.3676401967542762 1.6806484296377997 1.9379878208504662
decision_type=2 2 2 2
left_child=1 2 -1 -2
right_child=3 -3 -4 -5
leaf_value=-0.0078065183546760959 0.025747391397059328 0.0047570353469424103 0.0030675336246164843 0.008785838861570831
leaf_weight=10918 1253 7232 4115 467
leaf_count=10918 1253 7232 4115 467
internal_value=0 -0.00171596 -0.00482995 0.0211421
internal_weight=0 22265 15033 1720
internal_count=23985 22265 15033 1720
is_linear=0
shrinkage=0.05


Tree=38
num_leaves=5
num_cat=0
split_feature=1 1 1 1
split_gain=450.127 198.495 161.791 189.871
threshold=3.484264854180712 5.1137119054210949 3.3379193205507431 2.6764223831288798
decision_type=2 2 2 2
left_child=2 -2 3 -1
right_child=1 -3 -4 -5
leaf_value=0.01219412049723643 -0.0040137728106273271 -0.025300668461564164 0.018675872581918704 -0.0039616821024762048
leaf_weight=3691 12868 1197 2644 3585
leaf_count=3691 12868 1197 2644 3585
internal_value=0 -0.00582539 0.00808315 0.0042339
internal_weight=0 14065 9920 7276
internal_count=23985 14065 9920 7276
is_linear=0
shrinkage=0.05


Tree=39
num_leaves=5
num_cat=0
split_feature=9 0 0 19
split_gain=161.535 195.916 83.1106 72.7993
threshold=1.6806484296377997 1.6806484296377997 1.9379878208504662 0.96239039249737179
decision_type=2 2 2 2
left_child=1 3 -3 -1
right_child=-2 2 -4 -5
leaf_value=0.021569336586044697 0.0063275851108120082 0.012801922576153788 2.3029857778613011e-05 -0.0068399222093002534
leaf_weight=230 6992 2180 3056 11527
leaf_count=230 6992 2180 3056 11527
internal_value=0 -0.00270136 0.0053435 -0.00628416
internal_weight=0 16993 5236 11757
internal_count=23985 16993 5236 11757
is_linear=0
shrinkage=0.05


Tree=40
num_leaves=5
num_cat=0
split_feature=5 14 5 14
split_gain=703.977 406.472 223.033 185.329
threshold=2.1028773525364928 1.3676401967542762 3.3507114906514248 1.6806484296377997
decision_type=2 2 2 2
left_child=1 -1 3 -2
right_child=2 -3 -4 -5
leaf_value=-0.011679115023221102 0.0026558118726549129 0.0068701159639421782 0.022749430119285124 0.029401568349837606
leaf_weight=11025 5624 4034 2764 732
leaf_count=11025 5624 4034 2764 732
internal_value=0 -0.00671015 0.0108923 0.00573603
internal_weight=0 15059 9120 6356
internal_count=24179 15059 9120 6356
is_linear=0
shrinkage=0.05


Tree=41
num_leaves=5
num_cat=0
split_feature=16 13 0 0
split_gain=274.274 131.419 81.0364 47.2757
threshold=1.3676401967542762 1.0000000180025095e-35 1.9379878208504662 1.6806484296377997
decision_type=2 2 2 2
left_child=1 3 -2 -1
right_child=2 -3 -4 -5
leaf_value=-0.0029260224001465829 0.01945166257331906 -0.026683775475421802 0.0043921988911954186 0.0029529520980794248
leaf_weight=15659 1978 538 1629 4375
leaf_count=15659 1978 538 1629 4375
internal_value=0 -0.00229707 0.0126505 -0.00164218
internal_weight=0 20572 3607 20034
internal_count=24179 20572 3607 20034
is_linear=0
shrinkage=0.05


Tree=42
num_leaves=5
num_cat=0
split_feature=14 9 14 14
split_gain=332.559 176.088 62.2315 58.3156
threshold=1.6806484296377997 1.3676401967542762 1.3676401967542762 1.9379878208504662
decision_type=2 2 2 2
left_child=1 2 -1 -2
right_child=3 -3 -4 -5
leaf_value=-0.0066021700609330027 0.01021860135141088 0.0042802722958942005 0.0034614368701253889 0.024924191324781381
leaf_weight=12573 1680 7050 1750 1126
leaf_count=12573 1680 7050 1750 1126
internal_value=0 -0.00218854 -0.00537259 0.0161197
internal_weight=0 21373 14323 2806
internal_count=24179 21373 14323 2806
is_linear=0
shrinkage=0.05


Tree=43
num_leaves=5
num_cat=0
split_feature=4 9 13 4
split_gain=279.676 138.551 75.1978 64.3203
threshold=5.5722838889597002 1.3676401967542762 1.0000000180025095e-35 6.4696510499094231
decision_type=2 2 2 2
left_child=1 2 -1 -2
right_child=3 -3 -4 -5
leaf_value=-0.0037003340768518331 0.012125605024786872 0.0040757922396240194 -0.027149608893053873 0.032720604053853707
leaf_weight=14755 966 7484 350 624
leaf_count=14755 966 7484 350 624
internal_value=0 -0.00148734 -0.00424368 0.0202082
internal_weight=0 22589 15105 1590
internal_count=24179 22589 15105 1590
is_linear=0
shrinkage=0.05


Tree=44
num_leaves=5
num_cat=0
split_feature=16 0 0 43
split_gain=231.917 54.3921 46.8073 114.55
threshold=1.6806484296377997 1.9379878208504662 1.6806484296377997 1.0000000180025095e-35
decision_type=2 2 2 2
left_child=2 -2 3 -1
right_child=1 -3 -4 -5
leaf_value=-0.00691596113812969 0.023584383607204898 0.006752490089191392 0.0022628171858471726 0.0014963363183059871
leaf_weight=8494 1127 836 5993 7729
leaf_count=8494 1127 836 5993 7729
internal_value=0 0.016416 -0.00151323 -0.00290815
internal_weight=0 1963 22216 16223
internal_count=24179 1963 22216 16223
is_linear=0
shrinkage=0.05


Tree=45
num_leaves=5
num_cat=0
split_feature=4 15 4 4
split_gain=256.027 197.823 122.311 109.456
threshold=6.4696510499094231 1.3676401967542762 4.622432649412767 11.441303953238029
decision_type=2 2 2 2
left_child=1 2 -1 -2
right_child=3 -3 -4 -5
leaf_value=-0.0039912369187764243 0.040596952944206892 0.013585351798526693 0.0062371540117210581 -0.020272326442348058
leaf_weight=17721 523 2158 3500 86
leaf_count=17721 523 2158 3500 86
internal_value=0 -0.000837567 -0.00230426 0.0320013
internal_weight=0 23379 21221 609
internal_count=23988 23379 21221 609
is_linear=0
shrinkage=0.05


Tree=46
num_leaves=5
num_cat=0
split_feature=5 16 15 5
split_gain=583.631 251.043 122.005 102.641
threshold=2.4487611197031476 1.3676401967542762 1.3676401967542762 4.9049454820059193
decision_type=2 2 2 2
left_child=1 2 -1 -2
right_child=3 -3 -4 -5
leaf_value=-0.0078541915615559597 0.010682512675598338 0.0084346025437110998 0.024517007993992031 0.028710906237443504
leaf_weight=14584 5073 3099 297 935
leaf_count=14584 5073 3099 297 935
internal_value=0 -0.00451197 -0.00720812 0.0134882
internal_weight=0 17980 14881 6008
internal_count=23988 17980 14881 6008
is_linear=0
shrinkage=0.05


Tree=47
num_leaves=5
num_cat=0
split_feature=4 43 13 4
split_gain=216.716 135.273 129.937 61.0262
threshold=6.4696510499094231 1.0000000180025095e-35 1.0000000180025095e-35 4.7210722374962772
decision_type=2 2 2 2
left_child=2 -2 3 -1
right_child=1 -3 -4 -5
leaf_value=-0.0012314827222724236 0.0066013543727172982 0.053754305612548431 -0.023977401559431184 0.0061452519865836707
leaf_weight=19517 314 295 588 3274
leaf_count=19517 314 295 588 3274
internal_value=0 0.0294423 -0.000770521 -0.000171791
internal_weight=0 609 23379 22791
internal_count=23988 609 23379 22791
is_linear=0
shrinkage=0.05


Tree=48
num_leaves=5
num_cat=0
split_feature=5 5 9 5
split_gain=519.764 152.6 137.822 60.7272
threshold=2.0610737721255887 3.3507114906514248 1.0000000180025095e-35 2.0534578654910636
decision_type=2 2 2 2
left_child=2 -2 3 -1
right_child=1 -3 -4 -5
leaf_value=-0.0042089545811902392 0.0051489895814632357 0.019249843308953692 -0.00019840611941727222 -0.013061722905232789
leaf_weight=2986 6445 2732 6310 5515
leaf_count=2986 6445 2732 6310 5515
internal_value=0 0.00934682 -0.00579672 -0.00995216
internal_weight=0 9177 14811 8501
internal_count=23988 9177 14811 8501
is_linear=0
shrinkage=0.05


Tree=49
num_leaves=5
num_cat=0
split_feature=14 4 14 0
split_gain=238.902 238.239 120.712 108.466
threshold=1.6806484296377997 6.4696510499094231 1.0000000180025095e-35 0.96239039249737179
decision_type=2 2 2 2
left_child=1 3 -3 -1
right_child=-2 2 -4 -5
leaf_value=-0.014574418174414223 0.013588714108544295 0.037685317816411316 -0.037244612152377767 -0.0016106419502276482
leaf_weight=1765 2849 516 60 18798
leaf_count=1765 2849 516 60 18798
internal_value=0 -0.00183499 0.0298801 -0.00272337
internal_weight=0 21139 576 20563
internal_count=23988 21139 576 20563
is_linear=0
shrinkage=0.05


Tree=50
num_leaves=5
num_cat=0
split_feature=5 16 5 16
split_gain=493.314 228.915 117.729 105.571
threshold=2.3534329352358925 1.3676401967542762 3.3507114906514248 1.6806484296377997
decision_type=2 2 2 2
left_child=1 -1 3 -2
right_child=2 -3 -4 -5
leaf_value=-0.0069950783575015267 0.0040325752235781638 0.0083750960916898955 0.019392752982073075 0.039064280695298263
leaf_weight=14337 3790 2915 2788 228
leaf_count=14337 3790 2915 2788 228
internal_value=0 -0.00439804 0.0114983 0.00602044
internal_weight=0 17252 6806 4018
internal_count=24058 17252 6806 4018
is_linear=0
shrinkage=0.05


Tree=51
num_leaves=5
num_cat=0
split_feature=4 15 0 0
split_gain=167.522 171.22 90.898 111.213
threshold=5.5070187017502308 1.3676401967542762 1.6806484296377997 1.9379878208504662
decision_type=2 2 2 2
left_child=1 2 -1 -4
right_child=-2 -3 3 -5
leaf_value=-0.0045696596906263159 0.014922240305224977 0.012391473266364422 0.010736055599312878 -0.0035052967771612266
leaf_weight=14629 1765 2133 2509 3022
leaf_count=14629 1765 2133 2509 3022
internal_value=0 -0.00107993 -0.00250525 0.00295494
internal_weight=0 22293 20160 5531
internal_count=24058 22293 20160 5531
is_linear=0
shrinkage=0.05


Tree=52
num_leaves=5
num_cat=0
split_feature=14 14 14 43
split_gain=202.542 41.736 40.3664 61.013
threshold=1.6806484296377997 2.1576576623905894 1.3676401967542762 1.0000000180025095e-35
decision_type=2 2 2 2
left_child=2 -2 3 -1
right_child=1 -3 -4 -5
leaf_value=-0.0049447101552510348 0.0092648459744386884 0.023528603789151645 0.0040869417791675666 0.00084717150160217914
leaf_weight=10444 2155 673 2733 8053
leaf_count=10444 2155 673 2733 8053
internal_value=0 0.0126593 -0.00158505 -0.00242311
internal_weight=0 2828 21230 18497
internal_count=24058 2828 21230 18497
is_linear=0
shrinkage=0.05


Tree=53
num_leaves=5
num_cat=0
split_feature=6 4 0 0
split_gain=203.296 199.036 76.4461 122.34
threshold=8.0081662174414152 6.1111535540699933 0.96239039249737179 1.0000000180025095e-35
decision_type=2 2 2 2
left_child=1 2 3 -1
right_child=-2 -3 -4 -5
leaf_value=0.0033630148590797931 0.016602315700668443 0.022667604377221953 -0.0011986471123552464 -0.022374880518546698
leaf_weight=789 1729 841 19586 1113
leaf_count=789 1729 841 19586 1113
internal_value=0 -0.0011941 -0.002128 -0.0116981
internal_weight=0 22329 21488 1902
internal_count=24058 22329 21488 1902
is_linear=0
shrinkage=0.05


Tree=54
num_leaves=5
num_cat=0
split_feature=9 0 0 0
split_gain=117.92 96.6738 65.1607 44.7943
threshold=1.3676401967542762 1.6806484296377997 1.9379878208504662 1.9379878208504662
decision_type=2 2 2 2
left_child=1 -1 -3 -2
right_child=3 2 -4 -5
leaf_value=-0.0049369753415793895 0.0068016327064403101 0.010436511499699869 -0.0012749407815637788 -0.0031319206795205473
leaf_weight=11211 6544 1995 2935 1373
leaf_count=11211 6544 1995 2935 1373
internal_value=0 -0.00237095 0.00346428 0.00507891
internal_weight=0 16141 4930 7917
internal_count=24058 16141 4930 7917
is_linear=0
shrinkage=0.05


Tree=55
num_leaves=5
num_cat=0
split_feature=5 0 4 5
split_gain=461.81 184.501 164.88 172.099
threshold=2.0610737721255887 1.6806484296377997 4.7210722374962772 4.2323110362914269
decision_type=2 2 2 2
left_child=1 -1 -2 -4
right_child=2 -3 3 -5
leaf_value=-0.0097897874722206301 0.0040428861345411567 0.0017418872900525064 0.010385457542154352 0.036132526510708876
leaf_weight=9305 6125 5530 2122 935
leaf_count=9305 6125 5530 2122 935
internal_value=0 -0.00549116 0.00877636 0.0182603
internal_weight=0 14835 9182 3057
internal_count=24017 14835 9182 3057
is_linear=0
shrinkage=0.05


Tree=56
num_leaves=5
num_cat=0
split_feature=5 14 5 14
split_gain=416.783 178.719 140.24 112.16
threshold=2.0610737721255887 1.3676401967542762 3.3507114906514248 1.3676401967542762
decision_type=2 2 2 2
left_child=1 -1 3 -2
right_child=2 -3 -4 -5
leaf_value=-0.0085505057107979603 0.0011234878993397646 0.0038172073407443303 0.017817322754780495 0.017966571364206454
leaf_weight=10836 5225 3999 2738 1219
leaf_count=10836 5225 3999 2738 1219
internal_value=0 -0.0052166 0.00833754 0.00430966
internal_weight=0 14835 9182 6444
internal_count=24017 14835 9182 6444
is_linear=0
shrinkage=0.05


Tree=57
num_leaves=5
num_cat=0
split_feature=4 43 0 0
split_gain=125.494 105.335 94.3253 71.4403
threshold=6.4696510499094231 1.0000000180025095e-35 1.3676401967542762 1.6806484296377997
decision_type=2 2 2 2
left_child=3 2 -2 -1
right_child=1 -3 -4 -5
leaf_value=-0.0025229109843823458 0.031951276963235624 0.042427825818045273 -0.022825598231495613 0.0034022084697525401
leaf_weight=15904 142 315 176 7480
leaf_count=15904 142 315 176 7480
internal_value=0 0.0219345 0.00163452 -0.000627603
internal_weight=0 633 318 23384
internal_count=24017 633 318 23384
is_linear=0
shrinkage=0.05


Tree=58
num_leaves=5
num_cat=0
split_feature=5 5 9 16
split_gain=373.775 122.742 120.623 158.006
threshold=2.0610737721255887 3.3507114906514248 1.0000000180025095e-35 1.3676401967542762
decision_type=2 2 2 2
left_child=2 -2 3 -1
right_child=1 -3 -4 -5
leaf_value=-0.012066801918865513 0.004128962743100136 0.016765879580415678 0.00027816498617238373 0.0055588359283975722
leaf_weight=6935 6444 2738 6343 1557
leaf_count=6935 6444 2738 6343 1557
internal_value=0 0.00789719 -0.00493858 -0.00883516
internal_weight=0 9182 14835 8492
internal_count=24017 9182 14835 8492
is_linear=0
shrinkage=0.05


Tree=59
num_leaves=5
num_cat=0
split_feature=14 13 14 14
split_gain=154.295 88.466 39.8238 14.7315
threshold=1.9379878208504662 1.0000000180025095e-35 1.3676401967542762 2.8180483849866156
decision_type=2 2 2 2
left_child=1 2 -1 -2
right_child=3 -3 -4 -5
leaf_value=-0.0014702061556220933 0.015315080301989704 -0.0204985734011724 0.0038593683215328647 0.030290014086871514
leaf_weight=17960 940 563 4355 199
leaf_count=17960 940 563 4355 199
internal_value=0 -0.000923947 -0.000430085 0.0179314
internal_weight=0 22878 22315 1139
internal_count=24017 22878 22315 1139
is_linear=0
shrinkage=0.05


Tree=60
num_leaves=5
num_cat=0
split_feature=9 13 43 43
split_gain=92.4298 53.2547 32.628 69.5065
threshold=1.3676401967542762 1.0000000180025095e-35 0.96239039249737179 1.0000000180025095e-35
decision_type=2 2 2 2
left_child=1 -1 3 -2
right_child=2 -3 -4 -5
leaf_value=-0.0017716322963414338 0.0027139581034730802 -0.021408566462396111 -0.003309586135108877 0.014334920723789658
leaf_weight=15754 4845 353 1155 1752
leaf_count=15754 4845 353 1155 1752
internal_value=0 -0.00220199 0.0044429 0.0058002
internal_weight=0 16107 7752 6597
internal_count=23859 16107 7752 6597
is_linear=0
shrinkage=0.05


Tree=61
num_leaves=5
num_cat=0
split_feature=5 6 5 6
split_gain=294.837 150.622 72.7638 147.388
threshold=2.4487611197031476 5.1530511107722008 5.1916619858410096 1.0000000180025095e-35
decision_type=2 2 2 2
left_child=1 -1 -2 -4
right_child=2 -3 3 -5
leaf_value=-0.0064544017362982726 0.0076299015074570006 0.0033052179008721261 0.03818909505644115 -0.016789156866725535
leaf_weight=12019 5277 5891 512 160
leaf_count=12019 5277 5891 512 160
internal_value=0 -0.00324424 0.00960322 0.025099
internal_weight=0 17910 5949 672
internal_count=23859 17910 5949 672
is_linear=0
shrinkage=0.05


Tree=62
num_leaves=5
num_cat=0
split_feature=1 1 1 1
split_gain=337.25 166.979 130.172 113.851
threshold=3.484264854180712 3.3379193205507431 5.1137119054210949 2.6764223831288798
decision_type=2 2 2 2
left_child=1 3 -2 -1
right_child=2 -3 -4 -5
leaf_value=0.0093146165005268625 -0.0035683310927436887 0.017894583798330199 -0.020956203439384403 -0.003216454893124289
leaf_weight=3680 12824 2608 1175 3572
leaf_count=3680 12824 2608 1175 3572
internal_value=0 0.00704439 -0.00502777 0.00314239
internal_weight=0 9860 13999 7252
internal_count=23859 9860 13999 7252
is_linear=0
shrinkage=0.05


Tree=63
num_leaves=5
num_cat=0
split_feature=6 14 6 14
split_gain=144.48 58.2737 37.4645 41.9962
threshold=8.7934539551809916 1.9379878208504662 6.9433018247519103 2.5214314235676833
decision_type=2 2 2 2
left_child=1 -1 3 -3
right_child=-2 2 -4 -5
leaf_value=-0.0012264782718348485 0.021099685552908712 0.014322599747840817 0.00014736800179300893 0.052218738190181885
leaf_weight=22286 782 356 343 92
leaf_count=22286 782 356 343 92
internal_value=0 -0.000753121 0.0125835 0.0221048
internal_weight=0 23077 791 448
internal_count=23859 23077 791 448
is_linear=0
shrinkage=0.05


Tree=64
num_leaves=5
num_cat=0
split_feature=14 16 43 43
split_gain=114.342 37.6321 41.5839 79.0519
threshold=1.9379878208504662 1.3676401967542762 1.0000000180025095e-35 0.96239039249737179
decision_type=2 2 2 2
left_child=1 2 -1 -4
right_child=-2 -3 3 -5
leaf_value=-0.003494798418072622 0.01562006746161446 0.0045634994848171044 0.0045811768972728291 -0.0058345810236363873
leaf_weight=11646 1112 2859 5524 2718
leaf_count=11646 1112 2859 5524 2718
internal_value=0 -0.000800341 -0.00157142 0.00114633
internal_weight=0 22747 19888 8242
internal_count=23859 22747 19888 8242
is_linear=0
shrinkage=0.05


Tree=65
num_leaves=5
num_cat=0
split_feature=6 4 4 4
split_gain=119.364 134.599 75.6627 91.136
threshold=8.0081662174414152 6.4696510499094231 11.441303953238029 8.3600552040682121
decision_type=2 2 2 2
left_child=1 -1 3 -3
right_child=-2 2 -4 -5
leaf_value=-0.0016191796716113465 0.012725565493212255 0.019155814640965704 -0.029473419545129654 0.074050663918151863
leaf_weight=21586 1714 447 63 91
leaf_count=21586 1714 447 63 91
internal_value=0 -0.000969359 0.0223701 0.028441
internal_weight=0 22187 601 538
internal_count=23901 22187 601 538
is_linear=0
shrinkage=0.05


Tree=66
num_leaves=5
num_cat=0
split_feature=1 5 1 5
split_gain=294.16 368.793 152.876 121.123
threshold=3.484264854180712 3.2482761821152355 3.3379193205507431 2.4487611197031476
decision_type=2 2 2 2
left_child=2 -2 3 -1
right_child=1 -3 -4 -5
leaf_value=-0.00084012674735629519 -0.0076698620145865736 0.016845861207013396 0.017029020320121491 0.014121701222900693
leaf_weight=5407 12330 1752 2608 1804
leaf_count=5407 12330 1752 2608 1804
internal_value=0 -0.00461976 0.00665492 0.00290292
internal_weight=0 14082 9819 7211
internal_count=23901 14082 9819 7211
is_linear=0
shrinkage=0.05


Tree=67
num_leaves=5
num_cat=0
split_feature=4 15 4 13
split_gain=86.5984 86.9769 69.8815 66.6605
threshold=4.9805275375445257 1.3676401967542762 3.01856808868652 1.0000000180025095e-35
decision_type=2 2 2 2
left_child=1 3 -3 -1
right_child=-2 2 -4 -5
leaf_value=-0.0016772784554379577 0.0080120222305440844 -0.0013458758619145949 0.016940810775131987 -0.01920560956972173
leaf_weight=18276 2963 968 1135 559
leaf_count=18276 2963 968 1135 559
internal_value=0 -0.00112068 0.00852354 -0.0021975
internal_weight=0 20938 2103 18835
internal_count=23901 20938 2103 18835
is_linear=0
shrinkage=0.05


Tree=68
num_leaves=5
num_cat=0
split_feature=5 14 5 14
split_gain=259.355 103.387 79.7303 80.3074
threshold=2.0610737721255887 1.0000000180025095e-35 3.3507114906514248 1.3676401967542762
decision_type=2 2 2 2
left_child=1 -1 3 -2
right_child=2 -3 -4 -5
leaf_value=-0.0076638724237347499 0.00089843336550718747 0.00083693573342644558 0.013693987218520335 0.015342450916691223
leaf_weight=8554 5256 6147 2766 1178
leaf_count=8554 5256 6147 2766 1178
internal_value=0 -0.00410939 0.00659491 0.00354299
internal_weight=0 14701 9200 6434
internal_count=23901 14701 9200 6434
is_linear=0
shrinkage=0.05


Tree=69
num_leaves=5
num_cat=0
split_feature=6 4 0 0
split_gain=95.6815 104.407 80.3462 98.6011
threshold=8.0081662174414152 6.4696510499094231 0.96239039249737179 1.0000000180025095e-35
decision_type=2 2 2 2
left_child=1 2 3 -1
right_child=-2 -3 -4 -5
leaf_value=0.0028873884959887564 0.011392409453537183 0.019686911077689561 -0.00047587720218828606 -0.020061597143206239
leaf_weight=769 1714 601 19621 1196
leaf_count=769 1714 601 19621 1196
internal_value=0 -0.000868915 -0.00144123 -0.0110805
internal_weight=0 22187 21586 1965
internal_count=23901 22187 21586 1965
is_linear=0
shrinkage=0.05


Tree=70
num_leaves=5
num_cat=0
split_feature=5 9 5 5
split_gain=235.291 100.994 79.9625 71.717
threshold=2.1028773525364928 1.0000000180025095e-35 3.6730532650190839 9.0375712821175238
decision_type=2 2 2 2
left_child=1 -1 -2 -4
right_child=2 -3 3 -5
leaf_value=-0.0074162258114027664 0.003668765986213358 0.00091228141457606383 0.017245932511516692 -0.015258921848459018
leaf_weight=8531 6860 6349 2051 185
leaf_count=8531 6860 6349 2051 185
internal_value=0 -0.00386262 0.00634523 0.0145566
internal_weight=0 14880 9096 2236
internal_count=23976 14880 9096 2236
is_linear=0
shrinkage=0.05


Tree=71
num_leaves=5
num_cat=0
split_feature=14 13 15 14
split_gain=91.5424 66.0018 27.9755 21.7984
threshold=1.9379878208504662 1.0000000180025095e-35 0.96239039249737179 2.8180483849866156
decision_type=2 2 2 2
left_child=1 -1 -2 -4
right_child=2 -3 3 -5
leaf_value=-0.00024536920596983152 0.0054528399861170085 -0.017490496703317988 0.017926735011773689 0.048179583985414082
leaf_weight=22286 519 569 535 67
leaf_count=22286 519 569 535 67
internal_value=0 -0.000674705 0.0139597 0.0212937
internal_weight=0 22855 1121 602
internal_count=23976 22855 1121 602
is_linear=0
shrinkage=0.05


Tree=72
num_leaves=5
num_cat=0
split_feature=5 5 16 16
split_gain=210.9 73.249 164.28 78.3052
threshold=2.1028773525364928 4.9049454820059193 1.0000000180025095e-35 1.6806484296377997
decision_type=2 2 2 2
left_child=-1 3 -3 -2
right_child=1 2 -4 -5
leaf_value=-0.0036573836264203914 0.0032288995966222043 0.030651008608516585 -0.017220517837689964 0.02410962523802709
leaf_weight=14880 7647 735 237 477
leaf_count=14880 7647 735 237 477
internal_value=0 0.00600692 0.0189786 0.00445491
internal_weight=0 9096 972 8124
internal_count=23976 9096 972 8124
is_linear=0
shrinkage=0.05


Tree=73
num_leaves=5
num_cat=0
split_feature=4 16 4 16
split_gain=81.5697 86.484 73.1375 112.987
threshold=2.7572831525778212 1.6806484296377997 6.6745705244579669 1.0000000180025095e-35
decision_type=2 2 2 2
left_child=-1 2 -2 -4
right_child=1 -3 3 -5
leaf_value=-0.012186575998175971 -0.00058678496209692125 0.011754162572477325 0.029177208473550677 -0.050681320682168012
leaf_weight=1297 20598 1643 388 50
leaf_count=1297 20598 1643 388 50
internal_value=0 0.000706036 -0.000156869 0.0200609
internal_weight=0 22679 21036 438
internal_count=23976 22679 21036 438
is_linear=0
shrinkage=0.05


Tree=74
num_leaves=5
num_cat=0
split_feature=6 9 16 9
split_gain=76.7958 79.0286 40.6157 31.2639
threshold=8.6131585371381618 1.0000000180025095e-35 1.3676401967542762 2.1576576623905894
decision_type=2 2 2 2
left_child=1 2 -1 -3
right_child=-2 3 -4 -5
leaf_value=-0.004162967859775225 0.014403561599638246 0.0010922065324490532 0.0039141435460110577 0.0073748972599902611
leaf_weight=11460 892 7073 1801 2750
leaf_count=11460 892 7073 1801 2750
internal_value=0 -0.000548089 -0.003066 0.00285108
internal_weight=0 23084 13261 9823
internal_count=23976 23084 13261 9823
is_linear=0
shrinkage=0.05


Tree=75
num_leaves=5
num_cat=0
split_feature=4 4 6 0
split_gain=79.3172 57.1406 68.3372 81.8757
threshold=2.7572831525778212 4.7686310199499387 9.0062003689080488 0.96239039249737179
decision_type=2 2 2 2
left_child=-1 2 3 -2
right_child=1 -3 -4 -5
leaf_value=-0.011940189264925726 -0.012230077105675773 0.0062657251749830625 0.018130002055938049 4.807854483746936e-06
leaf_weight=1331 1487 3741 480 17001
leaf_count=1331 1487 3741 480 17001
internal_value=0 0.000618173 -0.000495676 -0.000979251
internal_weight=0 22709 18968 18488
internal_count=24040 22709 18968 18488
is_linear=0
shrinkage=0.05


Tree=76
num_leaves=5
num_cat=0
split_feature=1 1 1 1
split_gain=265.933 79.0662 125.968 104.558
threshold=3.8204317906260239 5.1137119054210949 4.0375867995810886 4.1047324978355926
decision_type=2 2 2 2
left_child=-1 2 -2 -4
right_child=1 -3 3 -5
leaf_value=0.0039569256983592411 -0.012655132473322356 -0.018832489531741856 0.010497879974310356 -0.0053925454488404712
leaf_weight=15145 3196 1207 1618 2874
leaf_count=15145 3196 1207 1618 2874
internal_value=0 -0.00693527 -0.00506743 0.000331121
internal_weight=0 8895 7688 4492
internal_count=24040 8895 7688 4492
is_linear=0
shrinkage=0.05


Tree=77
num_leaves=5
num_cat=0
split_feature=6 43 43 0
split_gain=54.5996 25.2181 70.0876 50.0377
threshold=8.0081662174414152 0.96239039249737179 1.0000000180025095e-35 1.6806484296377997
decision_type=2 2 2 2
left_child=1 2 3 -1
right_child=-2 -3 -4 -5
leaf_value=-0.0043411663960521091 0.0085493351768872235 -0.0047829274010800851 0.0046929836495521703 0.0019426245885358188
leaf_weight=8423 1707 3273 5559 5078
leaf_count=8423 1707 3273 5559 5078
internal_value=0 -0.000728394 -3.21459e-05 -0.00197771
internal_weight=0 22333 19060 13501
internal_count=24040 22333 19060 13501
is_linear=0
shrinkage=0.05


Tree=78
num_leaves=5
num_cat=0
split_feature=1 1 1 1
split_gain=239.246 71.1079 113.152 94.271
threshold=3.8204317906260239 5.1137119054210949 4.0375867995810886 4.1047324978355926
decision_type=2 2 2 2
left_child=-1 2 -2 -4
right_child=1 -3 3 -5
leaf_value=0.0037565079383299199 -0.01199474836373403 -0.017857313215521888 0.0099668779114994582 -0.0051216280985986618
leaf_weight=15145 3196 1207 1618 2874
leaf_count=15145 3196 1207 1618 2874
internal_value=0 -0.00657472 -0.00480338 0.00031319
internal_weight=0 8895 7688 4492
internal_count=24040 8895 7688 4492
is_linear=0
shrinkage=0.05


Tree=79
num_leaves=5
num_cat=0
split_feature=14 13 43 43
split_gain=60.6905 49.3714 23.4773 52.7449
threshold=1.9379878208504662 1.0000000180025095e-35 0.96239039249737179 1.0000000180025095e-35
decision_type=2 2 2 2
left_child=1 2 3 -1
right_child=-2 -3 -4 -5
leaf_value=-0.0012597834866787266 0.011119898796047275 -0.01521070641938551 -0.0041567106681456144 0.0045498181160799952
leaf_weight=13536 1155 566 3291 5492
leaf_count=13536 1155 566 3291 5492
internal_value=0 -0.000627215 -0.000257384 0.000417026
internal_weight=0 22885 22319 19028
internal_count=24040 22885 22319 19028
is_linear=0
shrinkage=0.05


Tree=80
num_leaves=5
num_cat=0
split_feature=4 16 4 4
split_gain=73.1611 76.4597 59.934 109.199
threshold=4.9805275375445257 1.6806484296377997 11.441303953238029 8.3600552040682121
decision_type=2 2 2 2
left_child=1 -1 3 -2
right_child=2 -3 -4 -5
leaf_value=-0.0020374529436687602 0.0068037965564475269 0.0085353891186854772 -0.034622265042804454 0.064993850034044454
leaf_weight=19216 2816 1877 83 83
leaf_count=19216 2816 1877 83 83
internal_value=0 -0.00109661 0.0072704 0.00846981
internal_weight=0 21093 2982 2899
internal_count=24075 21093 2982 2899
is_linear=0
shrinkage=0.05


Tree=81
num_leaves=5
num_cat=0
split_feature=4 15 4 4
split_gain=71.1949 62.8272 74.003 64.8213
threshold=2.7572831525778212 1.3676401967542762 4.9805275375445257 11.441303953238029
decision_type=2 2 2 2
left_child=-1 2 -2 -4
right_child=1 -3 3 -5
leaf_value=-0.011470444946384304 -0.0013420222562451891 0.0098341298043569374 0.0083116905192022177 -0.044635533680350094
leaf_weight=1293 18166 1701 2856 59
leaf_count=1293 18166 1701 2856 59
internal_value=0 0.000590526 -0.000155329 0.00724003
internal_weight=0 22782 21081 2915
internal_count=24075 22782 21081 2915
is_linear=0
shrinkage=0.05


Tree=82
num_leaves=5
num_cat=0
split_feature=1 9 1 1
split_gain=212.592 95.7203 43.8464 208.53
threshold=3.8204317906260239 1.6806484296377997 3.484264854180712 3.7420149475191633
decision_type=2 2 2 2
left_child=2 -2 -1 -4
right_child=1 -3 3 -5
leaf_value=0.005483319487124925 -0.0095492883348627204 0.0018534327660563927 -0.013925495687246561 0.0070679094947278635
leaf_weight=9962 6271 2605 1805 3432
leaf_count=9962 6271 2605 1805 3432
internal_value=0 -0.00620273 0.00353618 -0.00016774
internal_weight=0 8876 15199 5237
internal_count=24075 8876 15199 5237
is_linear=0
shrinkage=0.05


Tree=83
num_leaves=5
num_cat=0
split_feature=4 9 15 4
split_gain=65.7097 55.9562 70.6909 63.8917
threshold=2.7572831525778212 2.1576576623905894 1.3676401967542762 4.2692138756590481
decision_type=2 2 2 2
left_child=-1 2 3 -2
right_child=1 -3 -4 -5
leaf_value=-0.011016388832698076 -0.0030715338242694214 0.0073730527928675491 0.010204973601546707 0.0033313604578206995
leaf_weight=1293 13091 2669 1475 5547
leaf_count=1293 13091 2669 1475 5547
internal_value=0 0.000570653 -0.000332027 -0.00116592
internal_weight=0 22782 20113 18638
internal_count=24075 22782 20113 18638
is_linear=0
shrinkage=0.05


Tree=84
num_leaves=5
num_cat=0
split_feature=1 5 5 1
split_gain=191.636 150.253 131.197 74.987
threshold=3.8204317906260239 3.447533729928252 2.0610737721255887 2.6764223831288798
decision_type=2 2 2 2
left_child=2 -2 3 -1
right_child=1 -3 -4 -5
leaf_value=0.0070299705338271404 -0.0081067449788844101 0.013174672771172827 0.0092710367020163147 -0.0030161728396992816
leaf_weight=2549 7950 926 5803 6847
leaf_count=2549 7950 926 5803 6847
internal_value=0 -0.00588653 0.00335992 -0.000290798
internal_weight=0 8876 15199 9396
internal_count=24075 8876 15199 9396
is_linear=0
shrinkage=0.05


Tree=85
num_leaves=5
num_cat=0
split_feature=9 6 15 9
split_gain=54.3912 60.34 53.2426 26.5097
threshold=2.1576576623905894 7.4903040685228648 2.1576576623905894 1.0000000180025095e-35
decision_type=2 2 2 2
left_child=1 2 3 -1
right_child=-2 -3 -4 -5
leaf_value=-0.0033857243451301 0.0064694676152999347 0.0070087239136335444 0.027035601589383569 0.00055892619659546306
leaf_weight=12301 2865 2179 159 6515
leaf_count=12301 2865 2179 159 6515
internal_value=0 -0.0008715 -0.00177643 -0.0020199
internal_weight=0 21154 18975 18816
internal_count=24019 21154 18975 18816
is_linear=0
shrinkage=0.05


Tree=86
num_leaves=5
num_cat=0
split_feature=1 1 0 1
split_gain=183.911 132.78 109.55 93.9874
threshold=3.484264854180712 3.3379193205507431 1.9379878208504662 3.7420149475191633
decision_type=2 2 2 2
left_child=1 -1 -3 -2
right_child=3 2 -4 -5
leaf_value=0.00173702847300364 -0.014285005849496985 0.020133036127883641 -0.0047207640772330382 -0.0021058498953125948
leaf_weight=7342 1820 2073 564 12220
leaf_count=7342 1820 2073 564 12220
internal_value=0 0.00519356 0.0148173 -0.00368463
internal_weight=0 9979 2637 14040
internal_count=24019 9979 2637 14040
is_linear=0
shrinkage=0.05


Tree=87
num_leaves=5
num_cat=0
split_feature=15 0 0 15
split_gain=43.0159 21.3373 54.6505 27.3002
threshold=2.1576576623905894 1.9379878208504662 1.6806484296377997 0.96239039249737179
decision_type=2 2 2 2
left_child=1 2 3 -1
right_child=-2 -3 -4 -5
leaf_value=-0.0010154205041590209 0.021336664669872385 -0.0034349048759432089 0.0065245887442117734 0.011287723808458522
leaf_weight=15963 234 4211 3147 464
leaf_count=15963 234 4211 3147 464
internal_value=0 -0.000206145 0.000488466 -0.000667904
internal_weight=0 23785 19574 16427
internal_count=24019 23785 19574 16427
is_linear=0
shrinkage=0.05


Tree=88
num_leaves=5
num_cat=0
split_feature=5 14 5 16
split_gain=161.226 60.7686 46.3955 100.436
threshold=2.0610737721255887 1.0000000180025095e-35 3.6730532650190839 1.0000000180025095e-35
decision_type=2 2 2 2
left_child=1 -1 -2 -4
right_child=2 -3 3 -5
leaf_value=-0.0059582101233730386 0.0031871211663252507 0.00053490535642636197 0.016320610340098917 -0.01169425097248428
leaf_weight=8581 6993 6212 1846 387
leaf_count=8581 6993 6212 1846 387
internal_value=0 -0.00323157 0.00519073 0.0114654
internal_weight=0 14793 9226 2233
internal_count=24019 14793 9226 2233
is_linear=0
shrinkage=0.05


Tree=89
num_leaves=5
num_cat=0
split_feature=15 43 43 0
split_gain=38.7752 28.5984 55.4103 26.7073
threshold=2.1576576623905894 0.96239039249737179 1.0000000180025095e-35 1.6806484296377997
decision_type=2 2 2 2
left_child=1 2 3 -1
right_child=-2 -3 -4 -5
leaf_value=-0.0028569005966318419 0.020257472309769473 -0.0043331389457398652 0.0047960956626263021 0.0014737961685731393
leaf_weight=8650 234 3553 5532 6050
leaf_count=8650 234 3553 5532 6050
internal_value=0 -0.000195895 0.000530658 -0.00107454
internal_weight=0 23785 20232 14700
internal_count=24019 23785 20232 14700
is_linear=0
shrinkage=0.05


Tree=90
num_leaves=5
num_cat=0
split_feature=9 16 9 43
split_gain=53.5637 41.3525 23.3496 30.7983
threshold=2.1576576623905894 1.6806484296377997 1.0000000180025095e-35 0.96239039249737179
decision_type=2 2 2 2
left_child=1 2 -1 -4
right_child=-2 -3 3 -5
leaf_value=-0.002824335075925233 0.0063568659847982852 0.0065839366838184067 0.0021372923252672236 -0.0075285475728038287
leaf_weight=12606 2896 1701 5935 957
leaf_count=12606 2896 1701 5935 957
internal_value=0 -0.000892697 -0.00154496 0.000795126
internal_weight=0 21199 19498 6892
internal_count=24095 21199 19498 6892
is_linear=0
shrinkage=0.05


Tree=91
num_leaves=5
num_cat=0
split_feature=4 4 4 4
split_gain=60.9537 47.1228 96.1992 45.6892
threshold=4.7210722374962772 11.441303953238029 8.3600552040682121 2.7572831525778212
decision_type=2 2 2 2
left_child=3 2 -2 -1
right_child=1 -3 -4 -5
leaf_value=-0.010154764172786239 0.0052355226211644318 -0.032296807256061585 0.056987406216237858 -0.00050168228712821632
leaf_weight=1311 3749 80 92 18863
leaf_count=1311 3749 80 92 18863
internal_value=0 0.00568403 0.00647509 -0.00112898
internal_weight=0 3921 3841 20174
internal_count=24095 3921 3841 20174
is_linear=0
shrinkage=0.05


Tree=92
num_leaves=5
num_cat=0
split_feature=5 14 9 5
split_gain=157.524 87.8455 96.9577 47.7025
threshold=2.4487611197031476 1.0000000180025095e-35 1.0000000180025095e-35 1.8241435510364272
decision_type=2 2 2 2
left_child=1 2 -1 -3
right_child=-2 3 -4 -5
leaf_value=-0.0092572890591758224 0.0069890207792865271 -0.0033506617828102069 0.00041735092445942604 0.0049411190872619675
leaf_weight=6258 6016 2774 4418 4629
leaf_count=6258 6016 2774 4418 4629
internal_value=0 -0.00235138 -0.00525368 0.00183408
internal_weight=0 18079 10676 7403
internal_count=24095 18079 10676 7403
is_linear=0
shrinkage=0.05


Tree=93
num_leaves=5
num_cat=0
split_feature=4 4 6 4
split_gain=51.8766 42.1917 50.9382 43.4631
threshold=2.7572831525778212 4.7686310199499387 8.7934539551809916 11.441303953238029
decision_type=2 2 2 2
left_child=-1 2 -2 -3
right_child=1 3 -4 -5
leaf_value=-0.0096900916471331471 -0.00085054370698836145 0.0062273306811619512 0.014728075263512977 -0.031031417319318279
leaf_weight=1311 18541 3623 540 80
leaf_count=1311 18541 3623 540 80
internal_value=0 0.000538199 -0.000409663 0.00542239
internal_weight=0 22784 19081 3703
internal_count=24095 22784 19081 3703
is_linear=0
shrinkage=0.05


Tree=94
num_leaves=5
num_cat=0
split_feature=1 5 1 1
split_gain=158.369 211.13 143.131 92.668
threshold=3.484264854180712 3.447533729928252 3.3379193205507431 3.7420149475191633
decision_type=2 2 2 2
left_child=2 3 -1 -2
right_child=1 -3 -4 -5
leaf_value=0.0011831442640309426 -0.016825230897559811 0.014698398213300188 0.01471483379099397 -0.0038703656014967185
leaf_weight=7282 1576 1444 2671 11122
leaf_count=7282 1576 1444 2671 11122
internal_value=0 -0.00341807 0.00481453 -0.00547825
internal_weight=0 14142 9953 12698
internal_count=24095 14142 9953 12698
is_linear=0
shrinkage=0.05


Tree=95
num_leaves=5
num_cat=0
split_feature=5 6 5 5
split_gain=129.457 51.1251 37.2026 109.751
threshold=2.0610737721255887 5.1530511107722008 5.1916619858410096 9.0375712821175238
decision_type=2 2 2 2
left_child=1 -1 -2 -4
right_child=2 -3 3 -5
leaf_value=-0.0048955156918782062 0.003873535147177227 0.0013096158992615345 0.028580408320781226 -0.015934817578373332
leaf_weight=9739 8523 5036 490 193
leaf_count=9739 8523 5036 490 193
internal_value=0 -0.00278052 0.00477331 0.0160014
internal_weight=0 14775 9206 683
internal_count=23981 14775 9206 683
is_linear=0
shrinkage=0.05


Tree=96
num_leaves=5
num_cat=0
split_feature=5 5 5 5
split_gain=116.835 33.5754 99.0506 50.5167
threshold=2.0610737721255887 5.1916619858410096 9.0375712821175238 7.7810066776749034
decision_type=2 2 2 2
left_child=-1 -2 3 -3
right_child=1 2 -4 -5
leaf_value=-0.0026414952136663045 0.003679858384343376 0.0219221705461497 -0.015138076897228013 0.076439542402612415
leaf_weight=14775 8523 443 193 47
leaf_count=14775 8523 443 193 47
internal_value=0 0.00453465 0.0152014 0.0271514
internal_weight=0 9206 683 490
internal_count=23981 9206 683 490
is_linear=0
shrinkage=0.05


Tree=97
num_leaves=5
num_cat=0
split_feature=9 0 0 0
split_gain=38.7195 24.3041 17.7634 76.9011
threshold=2.1576576623905894 1.9379878208504662 0.96239039249737179 1.0000000180025095e-35
decision_type=2 2 2 2
left_child=2 -2 3 -1
right_child=1 -3 -4 -5
leaf_value=0.0056145733879400458 0.0077745783962958077 -0.0044014147010313469 -0.00010458853818922459 -0.01239794909047948
leaf_weight=1039 2315 498 18750 1379
leaf_count=1039 2315 498 18750 1379
internal_value=0 0.005619 -0.000624729 -0.00465808
internal_weight=0 2813 21168 2418
internal_count=23981 2813 21168 2418
is_linear=0
shrinkage=0.05


Tree=98
num_leaves=5
num_cat=0
split_feature=1 1 1 1
split_gain=152.85 60.4743 97.4563 89.2264
threshold=3.8204317906260239 5.1137119054210949 4.0375867995810886 4.1047324978355926
decision_type=2 2 2 2
left_child=-1 2 -2 -4
right_child=1 -3 3 -5
leaf_value=0.003149401840757161 -0.010167485288793913 -0.015756477033374783 0.010672053720571409 -0.0040508581267081683
leaf_weight=15152 3205 1162 1610 2852
leaf_count=15152 3205 1162 1610 2852
internal_value=0 -0.00512707 -0.00351609 0.00126153
internal_weight=0 8829 7667 4462
internal_count=23981 8829 7667 4462
is_linear=0
shrinkage=0.05


Tree=99
num_leaves=5
num_cat=0
split_feature=5 0 0 0
split_gain=107 81.439 168.754 62.0657
threshold=2.0610737721255887 0.96239039249737179 1.0000000180025095e-35 1.9379878208504662
decision_type=2 2 2 2
left_child=1 2 -1 -2
right_child=3 -3 -4 -5
leaf_value=-0.0020699509356360314 0.0057758932730156308 -0.0015134750173159284 -0.044926871834870652 -0.0073149748101477355
leaf_weight=708 8188 13727 340 1018
leaf_count=708 8188 13727 340 1018
internal_value=0 -0.00253916 -0.0159739 0.0043283
internal_weight=0 14775 1048 9206
internal_count=23981 14775 1048 9206
is_linear=0
shrinkage=0.05


Tree=100
num_leaves=5
num_cat=0
split_feature=1 5 1 1
split_gain=157.277 147.751 112.224 108.631
threshold=3.484264854180712 3.447533729928252 3.3379193205507431 3.7420149475191633
decision_type=2 2 2 2
left_child=2 3 -1 -2
right_child=1 -3 -4 -5
leaf_value=0.0015273937013697183 -0.017528943846605759 0.011869717152929986 0.013476408374883973 -0.0034291663616528266
leaf_weight=7276 1557 1416 2692 11139
leaf_count=7276 1557 1416 2692 11139
internal_value=0 -0.00344973 0.00475439 -0.00515832
internal_weight=0 14112 9968 12696
internal_count=24080 14112 9968 12696
is_linear=0
shrinkage=0.05


Tree=101
num_leaves=5
num_cat=0
split_feature=6 15 43 43
split_gain=36.5705 38.048 30.7937 54.1774
threshold=8.7934539551809916 2.1576576623905894 0.96239039249737179 1.0000000180025095e-35
decision_type=2 2 2 2
left_child=1 2 3 -1
right_child=-2 -3 -4 -5
leaf_value=-0.0014702582379245866 0.010501306906787642 0.022361004347452425 -0.0049581380851642714 0.0043639695037074877
leaf_weight=14130 794 182 3435 5539
leaf_count=14130 794 182 3435 5539
internal_value=0 -0.000410728 -0.000590111 0.000172722
internal_weight=0 23286 23104 19669
internal_count=24080 23286 23104 19669
is_linear=0
shrinkage=0.05


Tree=102
num_leaves=5
num_cat=0
split_feature=1 43 43 1
split_gain=143.724 57.9997 54.3606 58.7579
threshold=3.8204317906260239 0.96239039249737179 1.0000000180025095e-35 4.0375867995810886
decision_type=2 2 2 2
left_child=-1 2 3 -2
right_child=1 -3 -4 -5
leaf_value=0.0029099280116566453 -0.013367216717448206 -0.015741575826885144 0.002513670930102253 -0.0024259402183207336
leaf_weight=15178 1937 1118 2499 3348
leaf_count=15178 1937 1118 2499 3348
internal_value=0 -0.00509231 -0.00356278 -0.00643602
internal_weight=0 8902 7784 5285
internal_count=24080 8902 7784 5285
is_linear=0
shrinkage=0.05


Tree=103
num_leaves=5
num_cat=0
split_feature=13 15 15 19
split_gain=33.6997 27.5862 6.67057 14.5495
threshold=1.0000000180025095e-35 2.1576576623905894 1.3676401967542762 1.3676401967542762
decision_type=2 2 2 2
left_child=1 2 -1 -4
right_child=-2 -3 3 -5
leaf_value=-0.00018028453793831592 -0.011973294676662178 0.017366231753003222 0.00017755480692701188 0.009782993135061183
leaf_weight=21316 578 233 1405 548
leaf_count=21316 578 233 1405 548
internal_value=0 0.00024738 7.59637e-05 0.00287278
internal_weight=0 23502 23269 1953
internal_count=24080 23502 23269 1953
is_linear=0
shrinkage=0.05


Tree=104
num_leaves=5
num_cat=0
split_feature=5 4 4 5
split_gain=90.0829 87.0404 77.794 82.6569
threshold=2.0610737721255887 4.7210722374962772 3.9397092397672471 4.2323110362914269
decision_type=2 2 2 2
left_child=1 -1 -2 -4
right_child=2 -3 3 -5
leaf_value=-0.0014780457878277654 -0.0016540335725130405 -0.017528202253351357 0.004665853619728072 0.020308610067970575
leaf_weight=13985 3783 899 4366 1047
leaf_count=13985 3783 899 4366 1047
internal_value=0 -0.00244748 0.003847 0.00769153
internal_weight=0 14884 9196 5413
internal_count=24080 14884 9196 5413
is_linear=0
shrinkage=0.05


Tree=105
num_leaves=5
num_cat=0
split_feature=6 15 43 43
split_gain=38.4541 25.6715 19.4819 53.2268
threshold=8.6131585371381618 2.1576576623905894 0.96239039249737179 1.0000000180025095e-35
decision_type=2 2 2 2
left_child=1 2 3 -1
right_child=-2 -3 -4 -5
leaf_value=-0.0014701423096482899 0.010107532459890118 0.018788499578833582 -0.0039361866655160871 0.0043192852555197911
leaf_weight=13997 925 175 3386 5542
leaf_count=13997 925 175 3386 5542
internal_value=0 -0.000289179 -0.000434811 0.000171958
internal_weight=0 23100 22925 19539
internal_count=24025 23100 22925 19539
is_linear=0
shrinkage=0.05


Tree=106
num_leaves=5
num_cat=0
split_feature=1 1 1 1
split_gain=128.416 51.2902 147.895 38.7924
threshold=4.3519467737918545 4.0375867995810886 3.8204317906260239 5.2295732578892933
decision_type=2 2 2 2
left_child=1 2 -1 -2
right_child=3 -3 -4 -5
leaf_value=0.0028021471217996759 -0.0098217213473658638 0.0088622337177360379 -0.0090748147606265987 0.017322120399819348
leaf_weight=15183 3356 2181 3168 137
leaf_count=15183 3356 2181 3168 137
internal_value=0 0.00161331 0.000751784 -0.0087571
internal_weight=0 20532 18351 3493
internal_count=24025 20532 18351 3493
is_linear=0
shrinkage=0.05


Tree=107
num_leaves=5
num_cat=0
split_feature=4 4 4 6
split_gain=51.5846 31.0498 105.075 36.922
threshold=2.7572831525778212 11.441303953238029 8.3600552040682121 9.4894749406762333
decision_type=2 2 2 2
left_child=-1 2 3 -2
right_child=1 -3 -4 -5
leaf_value=-0.0095356519046526471 0.00029665257166590266 -0.03005458587743683 0.055611884482633114 0.016286484538311042
leaf_weight=1313 22176 82 87 367
leaf_count=1313 22176 82 87 367
internal_value=0 0.000657338 0.000768623 0.000556967
internal_weight=0 22712 22630 22543
internal_count=24025 22712 22630 22543
is_linear=0
shrinkage=0.05


Tree=108
num_leaves=5
num_cat=0
split_feature=9 14 16 14
split_gain=30.69 72.0342 32.8115 15.2339
threshold=1.0000000180025095e-35 1.3676401967542762 1.0000000180025095e-35 2.1576576623905894
decision_type=2 2 2 2
left_child=1 -1 -3 -4
right_child=-2 2 3 -5
leaf_value=-0.0034044245330858884 0.0021701084547206852 0.018669131909873522 0.0022206675701255353 0.016487343402205975
leaf_weight=10656 10232 396 2539 202
leaf_count=10656 10232 396 2539 202
internal_value=0 -0.00144391 0.00521571 0.00327206
internal_weight=0 13793 3137 2741
internal_count=24025 13793 3137 2741
is_linear=0
shrinkage=0.05


Tree=109
num_leaves=5
num_cat=0
split_feature=4 15 4 4
split_gain=48.5732 34.4334 37.7143 95.6161
threshold=2.8987730842782269 1.6806484296377997 11.441303953238029 8.3600552040682121
decision_type=2 2 2 2
left_child=-1 2 3 -2
right_child=1 -3 -4 -5
leaf_value=-0.0067212725817068029 0.0003396500204707908 0.011112940745446697 -0.039473253198094291 0.052866954827445682
leaf_weight=2360 20734 785 59 87
leaf_count=2360 20734 785 59 87
internal_value=0 0.000832516 0.000446016 0.000559134
internal_weight=0 21665 20880 20821
internal_count=24025 21665 20880 20821
is_linear=0
shrinkage=0.05


Tree=110
num_leaves=5
num_cat=0
split_feature=9 16 9 16
split_gain=35.4443 26.4912 12.5467 11.4453
threshold=2.1576576623905894 1.6806484296377997 1.0000000180025095e-35 1.0000000180025095e-35
decision_type=2 2 2 2
left_child=1 2 -1 -2
right_child=3 -3 -4 -5
leaf_value=-0.0019752693928623785 0.0077749572519346102 0.0054613991362639953 0.00067957718751102266 0.0011849242122662495
leaf_weight=12585 1838 1706 6885 1027
leaf_count=12585 1838 1706 6885 1027
internal_value=0 -0.000512974 -0.00103646 0.00541267
internal_weight=0 21176 19470 2865
internal_count=24041 21176 19470 2865
is_linear=0
shrinkage=0.05


Tree=111
num_leaves=5
num_cat=0
split_feature=4 13 4 4
split_gain=40.5277 31.6323 33.7909 26.3678
threshold=2.7572831525778212 1.0000000180025095e-35 4.7210722374962772 11.441303953238029
decision_type=2 2 2 2
left_child=-1 3 -3 -2
right_child=1 2 -4 -5
leaf_value=-0.0084167003433748624 0.0010585685618778994 -0.014615317540923404 0.045003073692321781 -0.027698514529038223
leaf_weight=1296 22158 482 25 80
leaf_count=1296 22158 482 25 80
internal_value=0 0.000673571 -0.0116756 0.000955117
internal_weight=0 22745 507 22238
internal_count=24041 22745 507 22238
is_linear=0
shrinkage=0.05


Tree=112
num_leaves=5
num_cat=0
split_feature=1 1 1 1
split_gain=120.319 101.235 83.2503 82.2444
threshold=3.484264854180712 3.3379193205507431 2.6764223831288798 3.7420149475191633
decision_type=2 2 2 2
left_child=1 2 -1 -2
right_child=3 -3 -4 -5
leaf_value=0.0066447317959627541 -0.012684087176677012 0.01274632880506936 -0.0040308724823691485 -0.0013229191517253004
leaf_weight=3677 1831 2653 3628 12252
leaf_count=3677 1831 2653 3628 12252
internal_value=0 0.00438087 0.00134273 -0.00280004
internal_weight=0 9958 7305 14083
internal_count=24041 9958 7305 14083
is_linear=0
shrinkage=0.05


Tree=113
num_leaves=5
num_cat=0
split_feature=6 0 0 6
split_gain=26.7517 20.7526 55.1226 43.6609
threshold=9.0297949463285008 0.96239039249737179 1.0000000180025095e-35 1.0000000180025095e-35
decision_type=2 2 2 2
left_child=1 2 3 -1
right_child=-2 -3 -4 -5
leaf_value=0.030084613405375018 0.010916840888032344 0.00041330352648591054 -0.010668680368601505 0.00030422197350352668
leaf_weight=144 565 21035 1450 847
leaf_count=144 565 21035 1450 847
internal_value=0 -9.31115e-05 -0.00445708 0.00463154
internal_weight=0 23476 2441 991
internal_count=24041 23476 2441 991
is_linear=0
shrinkage=0.05


Tree=114
num_leaves=5
num_cat=0
split_feature=1 1 1 1
split_gain=116.062 50.4535 112.314 90.8415
threshold=4.3519467737918545 3.484264854180712 3.7420149475191633 3.3379193205507431
decision_type=2 2 2 2
left_child=1 3 -3 -1
right_child=-2 2 -4 -5
leaf_value=0.0012716661086982477 -0.0082308122906831413 -0.012070140453116031 0.0015499253654994629 0.012074044596893624
leaf_weight=7305 3520 1831 8732 2653
leaf_count=7305 3520 1831 8732 2653
internal_value=0 0.00159619 -0.000810989 0.00414962
internal_weight=0 20521 10563 9958
internal_count=24041 20521 10563 9958
is_linear=0
shrinkage=0.05


Tree=115
num_leaves=5
num_cat=0
split_feature=13 0 0 0
split_gain=33.4085 16.8693 61.0223 18.746
threshold=1.0000000180025095e-35 1.0000000180025095e-35 0.96239039249737179 1.9379878208504662
decision_type=2 2 2 2
left_child=1 -1 -3 -4
right_child=-2 2 3 -5
leaf_value=0.0062024306489985755 -0.012084253592305928 -0.010250561856435541 0.0012566247818723761 -0.0025146732505920734
leaf_weight=1096 572 1402 16937 4091
leaf_count=1096 572 1402 16937 4091
internal_value=0 0.000145477 -0.000150484 0.000522918
internal_weight=0 23526 22430 21028
internal_count=24098 23526 22430 21028
is_linear=0
shrinkage=0.05


Tree=116
num_leaves=5
num_cat=0
split_feature=1 5 5 1
split_gain=112.718 81.5053 68.2473 61.9239
threshold=3.8204317906260239 2.0610737721255887 3.8847550548460159 2.6764223831288798
decision_type=2 2 2 2
left_child=1 3 -2 -1
right_child=2 -3 -4 -5
leaf_value=0.006160630991335213 -0.0058391975498739849 0.0071646232119584935 0.0109290620564476 -0.0028906719486011213
leaf_weight=2614 8247 5763 655 6819
leaf_count=2614 8247 5763 655 6819
internal_value=0 0.00247974 -0.00460541 -0.000382445
internal_weight=0 15196 8902 9433
internal_count=24098 15196 8902 9433
is_linear=0
shrinkage=0.05


Tree=117
num_leaves=5
num_cat=0
split_feature=6 43 43 6
split_gain=29.3827 17.5172 37.2069 24.5863
threshold=9.4894749406762333 0.96239039249737179 1.0000000180025095e-35 6.5846400147740729
decision_type=2 2 2 2
left_child=1 2 3 -1
right_child=-2 -3 -4 -5
leaf_value=-0.0022700975650863688 0.013850842556865837 -0.0036190828483015237 0.003701054184027159 0.0024846974083975225
leaf_weight=11078 370 3492 5555 3603
leaf_count=11078 370 3492 5555 3603
internal_value=0 -0.000348713 0.000215635 -0.00110318
internal_weight=0 23728 20236 14681
internal_count=24098 23728 20236 14681
is_linear=0
shrinkage=0.05


Tree=118
num_leaves=5
num_cat=0
split_feature=1 9 1 1
split_gain=102.121 47.391 42.6614 42.3619
threshold=3.8204317906260239 1.0000000180025095e-35 2.5214314235676833 2.6764223831288798
decision_type=2 2 2 2
left_child=2 -2 -1 -4
right_child=1 -3 3 -5
leaf_value=-0.014713032706314567 -0.0074258653824487725 -1.182501536354675e-05 0.0077035408204357897 0.0013290413470163553
leaf_weight=357 5241 3661 3373 11466
leaf_count=357 5241 3661 3373 11466
internal_value=0 -0.0043768 0.00236709 0.00277801
internal_weight=0 8902 15196 14839
internal_count=24098 8902 15196 14839
is_linear=0
shrinkage=0.05


Tree=119
num_leaves=5
num_cat=0
split_feature=5 0 0 0
split_gain=86.2478 69.9058 147.584 55.8255
threshold=2.0610737721255887 0.96239039249737179 1.0000000180025095e-35 1.9379878208504662
decision_type=2 2 2 2
left_child=1 2 -1 -2
right_child=3 -3 -4 -5
leaf_value=-0.001421184832878267 0.0050490823319743784 -0.001542406120476264 -0.041478803927842048 -0.0073645092526813038
leaf_weight=674 8209 13848 349 1018
leaf_count=674 8209 13848 349 1018
internal_value=0 -0.00247416 -0.015087 0.00367951
internal_weight=0 14871 1023 9227
internal_count=24098 14871 1023 9227
is_linear=0
shrinkage=0.05


Tree=120
num_leaves=5
num_cat=0
split_feature=14 43 43 19
split_gain=18.5348 20.5102 48.2121 13.674
threshold=1.3676401967542762 0.96239039249737179 1.0000000180025095e-35 1.0000000180025095e-35
decision_type=2 2 2 2
left_child=1 2 -1 -2
right_child=3 -3 -4 -5
leaf_value=-0.002135298452739466 -0.0037764419714647456 -0.0049643537147188296 0.003630585300238711 0.0034693391813066495
leaf_weight=10378 752 2533 5572 4854
leaf_count=10378 752 2533 5572 4854
internal_value=0 -0.000784787 -0.000121035 0.00249738
internal_weight=0 18483 15950 5606
internal_count=24089 18483 15950 5606
is_linear=0
shrinkage=0.05


Tree=121
num_leaves=5
num_cat=0
split_feature=0 14 0 43
split_gain=19.5877 66.9708 49.5993 18.2311
threshold=1.9379878208504662 1.0000000180025095e-35 0.96239039249737179 1.0000000180025095e-35
decision_type=2 2 2 2
left_child=1 2 -1 -4
right_child=-2 -3 3 -5
leaf_value=-0.0096746985678715716 -0.0030545368626691987 0.0061348730073055345 -0.001799523618340992 0.001817586898385592
leaf_weight=1457 4356 4341 6922 7013
leaf_count=1457 4356 4341 6922 7013
internal_value=0 0.000649971 -0.000896934 2.08421e-05
internal_weight=0 19733 15392 13935
internal_count=24089 19733 15392 13935
is_linear=0
shrinkage=0.05


Tree=122
num_leaves=5
num_cat=0
split_feature=1 5 0 0
split_gain=93.688 71.7378 77.5442 121.309
threshold=5.1137119054210949 2.0610737721255887 0.96239039249737179 1.0000000180025095e-35
decision_type=2 2 2 2
left_child=1 2 3 -1
right_child=-2 -3 -4 -5
leaf_value=-0.0024138163447413831 -0.013788926324487586 0.0042090893172235079 -0.00050405014602257134 -0.039051044240061727
leaf_weight=662 1175 8865 13044 343
leaf_count=662 1175 8865 13044 343
internal_value=0 0.000687191 -0.00153515 -0.0149179
internal_weight=0 22914 14049 1005
internal_count=24089 22914 14049 1005
is_linear=0
shrinkage=0.05


Tree=123
num_leaves=5
num_cat=0
split_feature=5 4 5 4
split_gain=74.1419 81.7816 79.1022 73.1936
threshold=2.0610737721255887 3.9397092397672471 4.4091074173173004 5.1916619858410096
decision_type=2 2 2 2
left_child=3 2 -2 -1
right_child=1 -3 -4 -5
leaf_value=-0.0016392437115029905 0.00017129154520445749 0.0074855720024700522 -0.025083377024900128 -0.023955404272288164
leaf_weight=14474 3521 5377 340 377
leaf_count=14474 3521 5377 340 377
internal_value=0 0.0034991 -0.00205264 -0.00220575
internal_weight=0 9238 3861 14851
internal_count=24089 9238 3861 14851
is_linear=0
shrinkage=0.05


Tree=124
num_leaves=5
num_cat=0
split_feature=5 9 16 5
split_gain=66.913 34.0023 29.9162 26.5904
threshold=2.0610737721255887 1.0000000180025095e-35 1.3676401967542762 9.0375712821175238
decision_type=2 2 2 2
left_child=1 2 -1 -2
right_child=3 -3 -4 -5
leaf_value=-0.0055487709935830784 0.0037190926952090416 0.00068416998782123322 0.0021339748850341517 -0.014895820671874241
leaf_weight=6983 9042 6320 1548 196
leaf_count=6983 9042 6320 1548 196
internal_value=0 -0.00209546 -0.00415469 0.00332415
internal_weight=0 14851 8531 9238
internal_count=24089 14851 8531 9238
is_linear=0
shrinkage=0.05


Tree=125
num_leaves=5
num_cat=0
split_feature=1 1 1 6
split_gain=73.0017 60.5909 106.638 54.5425
threshold=4.3519467737918545 4.0375867995810886 3.8204317906260239 1.0000000180025095e-35
decision_type=2 2 2 2
left_child=1 2 -1 -4
right_child=-2 -3 3 -5
leaf_value=0.0019892556905922809 -0.0066883710859984291 0.0090535387632867965 -0.0044508747687413168 -0.019888835554690648
leaf_weight=15200 3441 2184 2444 747
leaf_count=15200 3441 2184 2444 747
internal_value=0 0.00117982 0.000244782 -0.00806484
internal_weight=0 20575 18391 3191
internal_count=24016 20575 18391 3191
is_linear=0
shrinkage=0.05


Tree=126
num_leaves=5
num_cat=0
split_feature=13 9 16 16
split_gain=26.4451 25.5415 15.3552 10.6416
threshold=1.0000000180025095e-35 1.0000000180025095e-35 2.1576576623905894 1.3676401967542762
decision_type=2 2 2 2
left_child=1 2 -1 -2
right_child=3 -3 -4 -5
leaf_value=-0.0012624394036592256 -0.01205367398869763 0.0022213355461691161 0.018306934042363474 0.02010030942382636
leaf_weight=13329 548 10011 101 27
leaf_count=13329 548 10011 101 27
internal_value=0 0.000309702 -0.00111527 -0.0105438
internal_weight=0 23441 13430 575
internal_count=24016 23441 13430 575
is_linear=0
shrinkage=0.05


Tree=127
num_leaves=5
num_cat=0
split_feature=4 4 4 4
split_gain=41.8114 22.4931 60.3112 18.7842
threshold=2.8987730842782269 11.441303953238029 8.3600552040682121 3.9397092397672471
decision_type=2 2 2 2
left_child=-1 2 3 -2
right_child=1 -3 -4 -5
leaf_value=-0.0062064881394268741 -0.00061235629279897364 -0.024776645398936994 0.043384642679109631 0.0023744776674760747
leaf_weight=2405 12160 86 83 9282
leaf_count=2405 12160 86 83 9282
internal_value=0 0.000743315 0.000845276 0.00068061
internal_weight=0 21611 21525 21442
internal_count=24016 21611 21525 21442
is_linear=0
shrinkage=0.05


Tree=128
num_leaves=5
num_cat=0
split_feature=1 1 1 1
split_gain=66.9484 54.1063 96.4179 45.2772
threshold=4.3519467737918545 4.0375867995810886 3.8204317906260239 4.9049454820059193
decision_type=2 2 2 2
left_child=1 2 -1 -2
right_child=3 -3 -4 -5
leaf_value=0.0018997738975708193 -0.014395822617765423 0.008565054317690465 -0.007660413143736936 -0.0022909407796018184
leaf_weight=15200 1171 2184 3191 2270
leaf_count=15200 1171 2184 3191 2270
internal_value=0 0.00112458 0.000240997 -0.00641033
internal_weight=0 20575 18391 3441
internal_count=24016 20575 18391 3441
is_linear=0
shrinkage=0.05


Tree=129
num_leaves=5
num_cat=0
split_feature=15 43 43 14
split_gain=18.5766 14.0172 35.5311 27.6805
threshold=2.3499710825428539 0.96239039249737179 1.0000000180025095e-35 1.0000000180025095e-35
decision_type=2 2 2 2
left_child=1 2 3 -1
right_child=-2 -3 -4 -5
leaf_value=-0.0028945783224082621 0.022346039793343958 -0.002942875417916711 0.0038805402816713915 0.0014275714429093757
leaf_weight=7695 93 3551 5534 7143
leaf_count=7695 93 3551 5534 7143
internal_value=0 -4.39693e-05 0.000461333 -0.000813899
internal_weight=0 23923 20372 14838
internal_count=24016 23923 20372 14838
is_linear=0
shrinkage=0.05


Tree=130
num_leaves=5
num_cat=0
split_feature=1 1 1 1
split_gain=73.3811 88.7222 79.2439 90.0816
threshold=3.484264854180712 3.3379193205507431 3.7420149475191633 3.8204317906260239
decision_type=2 2 2 2
left_child=1 -1 -2 -4
right_child=2 -3 3 -5
leaf_value=0.00038880272184267347 -0.012110317103920517 0.011083584144942128 0.0059943551619401 -0.0035848081176967218
leaf_weight=7245 1818 2648 3399 8830
leaf_count=7245 1818 2648 3399 8830
internal_value=0 0.00325141 -0.0023703 -0.000922319
internal_weight=0 9893 14047 12229
internal_count=23940 9893 14047 12229
is_linear=0
shrinkage=0.05


Tree=131
num_leaves=5
num_cat=0
split_feature=13 15 0 0
split_gain=28.2406 14.6634 14.0993 37.1692
threshold=1.0000000180025095e-35 2.3499710825428539 1.9379878208504662 1.6806484296377997
decision_type=2 2 2 2
left_child=1 2 3 -1
right_child=-2 -3 -4 -5
leaf_value=-0.00025485983416754452 -0.010933714051468046 0.021332523526578415 -0.0025327750831980354 0.0056928953341330423
leaf_weight=16096 581 82 4042 3139
leaf_count=16096 581 82 4042 3139
internal_value=0 0.000226018 0.000151665 0.000715767
internal_weight=0 23359 23277 19235
internal_count=23940 23359 23277 19235
is_linear=0
shrinkage=0.05


Tree=132
num_leaves=5
num_cat=0
split_feature=5 4 5 43
split_gain=74.0991 84.2407 66.4715 64.3072
threshold=2.4487611197031476 3.9397092397672471 4.0068922118544439 1.0000000180025095e-35
decision_type=2 2 2 2
left_child=-1 -2 -3 -4
right_child=1 2 3 -5
leaf_value=-0.0016521846579228346 -0.0039131677291220938 0.0046346841000178378 0.0082814004477058858 0.031283622585155456
leaf_weight=17935 1908 2867 682 548
leaf_count=17935 1908 2867 682 548
internal_value=0 0.00476481 0.00880619 0.0185295
internal_weight=0 6005 4097 1230
internal_count=23940 6005 4097 1230
is_linear=0
shrinkage=0.05


Tree=133
num_leaves=5
num_cat=0
split_feature=13 6 6 19
split_gain=25.1719 21.9426 13.6873 6.90705
threshold=1.0000000180025095e-35 8.2858336783273874 8.6131585371381618 1.0000000180025095e-35
decision_type=2 2 2 2
left_child=2 -2 3 -1
right_child=1 -3 -4 -5
leaf_value=-0.0039942309440415295 -0.011847579993251745 0.051517056607242144 0.0062130102810564018 0.00016502915727192467
leaf_weight=1047 567 13.999999999999998 914 21398
leaf_count=1047 567 14 914 21398
internal_value=0 -0.0103207 0.00021525 -2.89893e-05
internal_weight=0 581 23359 22445
internal_count=23940 581 23359 22445
is_linear=0
shrinkage=0.05


Tree=134
num_leaves=5
num_cat=0
split_feature=4 16 4 4
split_gain=37.4852 25.3467 50.7401 50.4066
threshold=3.01856808868652 0.96239039249737179 5.982248890051955 6.4696510499094231
decision_type=2 2 2 2
left_child=-1 3 -3 -2
right_child=1 2 -4 -5
leaf_value=-0.0054583988731502038 -0.00072476681246305718 0.0048396006867693856 -0.031541120139311776 0.014482258327622365
leaf_weight=2815 16114 4349 98 564
leaf_count=2815 16114 4349 98 564
internal_value=0 0.00068381 0.00403787 -0.000210511
internal_weight=0 21125 4447 16678
internal_count=23940 21125 4447 16678
is_linear=0
shrinkage=0.05


Tree=135
num_leaves=5
num_cat=0
split_feature=4 9 4 4
split_gain=32.6187 24.2133 25.283 52.3614
threshold=2.7572831525778212 2.1576576623905894 11.441303953238029 8.3600552040682121
decision_type=2 2 2 2
left_child=-1 2 3 -2
right_child=1 -3 -4 -5
leaf_value=-0.0077849860287900101 -0.00034627696362401117 0.0048283681957561417 -0.030497041182673497 0.038981139129575564
leaf_weight=1317 19816 2621 69 85
leaf_count=1317 19816 2621 69 85
internal_value=0 0.000309965 -0.000283061 -0.000178304
internal_weight=0 22591 19970 19901
internal_count=23908 22591 19970 19901
is_linear=0
shrinkage=0.05


Tree=136
num_leaves=5
num_cat=0
split_feature=5 43 5 43
split_gain=49.3094 40.3503 28.8039 52.1849
threshold=3.3507114906514248 1.0000000180025095e-35 4.2323110362914269 0.96239039249737179
decision_type=2 2 2 2
left_child=-1 -2 -3 -4
right_child=1 2 3 -5
leaf_value=-0.00094274140840955247 0.00075290639574791948 0.0056743239642724208 0.035239292946613696 0.0050509266389125347
leaf_weight=21188 1509 636 306 269
leaf_count=21188 1509 636 306 269
internal_value=0 0.00620843 0.0130064 0.0211164
internal_weight=0 2720 1211 575
internal_count=23908 2720 1211 575
is_linear=0
shrinkage=0.05


Tree=137
num_leaves=5
num_cat=0
split_feature=14 0 0 0
split_gain=16.5927 36.0681 14.6873 46.8
threshold=2.8180483849866156 1.6806484296377997 0.96239039249737179 1.0000000180025095e-35
decision_type=2 2 2 2
left_child=2 -2 3 -1
right_child=1 -3 -4 -5
leaf_value=0.0039424756638266273 0.07178532555699349 0.0063533533819366333 0.00018703815047593796 -0.0097981811728343766
leaf_weight=1093 24 172 21188 1431
leaf_count=1093 24 172 21188 1431
internal_value=0 0.0143654 -0.000242456 -0.00384789
internal_weight=0 196 23712 2524
internal_count=23908 196 23712 2524
is_linear=0
shrinkage=0.05


Tree=138
num_leaves=5
num_cat=0
split_feature=5 16 5 5
split_gain=45.9131 88.2164 47.7294 44.1952
threshold=3.3507114906514248 1.0000000180025095e-35 4.0068922118544439 5.3747397698236528
decision_type=2 2 2 2
left_child=-1 3 -3 -2
right_child=1 2 -4 -5
leaf_value=-0.0009016295909664555 0.0066547994378671205 0.010524392611761061 -0.023927942213152087 0.024239319236113818
leaf_weight=21188 1797 144 333 446
leaf_count=21188 1797 144 333 446
internal_value=0 0.00599887 -0.0135272 0.0101513
internal_weight=0 2720 477 2243
internal_count=23908 2720 477 2243
is_linear=0
shrinkage=0.05


Tree=139
num_leaves=5
num_cat=0
split_feature=4 9 6 4
split_gain=29.1533 23.5034 39.3001 47.3407
threshold=2.8987730842782269 1.0000000180025095e-35 5.5432820482878951 5.5070187017502308
decision_type=2 2 2 2
left_child=-1 2 -2 -4
right_child=1 -3 3 -5
leaf_value=-0.0053865532856829214 -0.0025206871979704406 0.0023617882305331439 0.005330759362280264 -0.033225307286512566
leaf_weight=2360 9428 9302 2736 82
leaf_count=2360 9428 9302 2736 82
internal_value=0 0.000467087 -0.000972118 0.00420883
internal_weight=0 21548 12246 2818
internal_count=23908 21548 12246 2818
is_linear=0
shrinkage=0.05


Tree=140
num_leaves=5
num_cat=0
split_feature=43 43 14 14
split_gain=17.0809 19.5912 30.4444 13.7806
threshold=0.96239039249737179 1.0000000180025095e-35 1.0000000180025095e-35 1.9379878208504662
decision_type=2 2 2 2
left_child=1 2 -1 -2
right_child=3 -3 -4 -5
leaf_value=-0.0025403725446328071 -0.0039431627019375576 0.003104750036444386 0.0019969969415587529 0.008332963757673088
leaf_weight=7713 3416 5606 7100 245
leaf_count=7713 3416 5606 7100 245
internal_value=0 0.000587199 -0.000365572 -0.00312162
internal_weight=0 20419 14813 3661
internal_count=24080 20419 14813 3661
is_linear=0
shrinkage=0.05


Tree=141
num_leaves=5
num_cat=0
split_feature=0 0 6 6
split_gain=15.3919 37.7579 25.3324 19.5672
threshold=1.9379878208504662 1.6806484296377997 4.6723603330226355 8.0081662174414152
decision_type=2 2 2 2
left_child=1 3 -3 -1
right_child=-2 2 -4 -5
leaf_value=-0.00060521248389610119 -0.0026814178265218893 0.017215666786556505 0.0038676264772848955 0.011657287720001741
leaf_weight=16167 4320 406 2855 332
leaf_count=16167 4320 406 2855 332
internal_value=0 0.000613228 0.00552948 -0.000358461
internal_weight=0 19760 3261 16499
internal_count=24080 19760 3261 16499
is_linear=0
shrinkage=0.05


Tree=142
num_leaves=5
num_cat=0
split_feature=14 6 6 14
split_gain=14.7679 35.5785 23.7211 16.2093
threshold=2.1576576623905894 6.6593935678183396 9.4894749406762333 2.5214314235676833
decision_type=2 2 2 2
left_child=-1 3 -3 -2
right_child=1 2 -4 -5
leaf_value=-0.00018858469360214387 0.012492594507268884 -0.0097503687626310995 0.016216969633782944 0.038594906408620143
leaf_weight=23409 165 286 127 93
leaf_count=23409 165 286 127 93
internal_value=0 0.00733466 -0.00176526 0.0219016
internal_weight=0 671 413 258
internal_count=24080 671 413 258
is_linear=0
shrinkage=0.05


Tree=143
num_leaves=5
num_cat=0
split_feature=4 4 4 43
split_gain=28.1073 21.8782 47.6193 28.733
threshold=2.7572831525778212 11.441303953238029 8.3600552040682121 1.0000000180025095e-35
decision_type=2 2 2 2
left_child=-1 2 -2 -4
right_child=1 -3 3 -5
leaf_value=-0.0071192270062775988 0.00038123888753814421 -0.024313012098244741 0.0022226294489680895 0.059890490622018226
leaf_weight=1304 22597 89 36 54
leaf_count=1304 22597 89 36 54
internal_value=0 0.000428745 0.000525806 0.0368233
internal_weight=0 22776 22687 90
internal_count=24080 22776 22687 90
is_linear=0
shrinkage=0.05


Tree=144
num_leaves=5
num_cat=0
split_feature=43 43 14 16
split_gain=15.3194 17.8955 26.3596 17.1507
threshold=0.96239039249737179 1.0000000180025095e-35 1.0000000180025095e-35 1.9379878208504662
decision_type=2 2 2 2
left_child=1 2 -1 -2
right_child=3 -3 -4 -5
leaf_value=-0.0023812497716610473 -0.0035756736074893272 0.002959136312548038 0.0018407718842239594 0.016044040256301347
leaf_weight=7713 3546 5606 7100 115
leaf_count=7713 3546 5606 7100 115
internal_value=0 0.000553005 -0.000357598 -0.00295938
internal_weight=0 20419 14813 3661
internal_count=24080 20419 14813 3661
is_linear=0
shrinkage=0.05


Tree=145
num_leaves=5
num_cat=0
split_feature=5 6 4 5
split_gain=52.1887 88.8432 65.3558 66.2953
threshold=3.3507114906514248 1.0000000180025095e-35 4.622432649412767 4.9049454820059193
decision_type=2 2 2 2
left_child=-1 2 -2 -4
right_child=1 -3 3 -5
leaf_value=-0.00067695854353573266 -0.0023796970905443347 -0.012142526900392107 0.0090944086417960972 0.030718025454184991
leaf_weight=21218 649 511 1039 538
leaf_count=21218 649 511 1039 538
internal_value=0 0.00665916 0.0109753 0.0164714
internal_weight=0 2737 2226 1577
internal_count=23955 2737 2226 1577
is_linear=0
shrinkage=0.05


Tree=146
num_leaves=5
num_cat=0
split_feature=1 1 1 1
split_gain=68.7318 89.4905 90.267 43.7572
threshold=5.0736137837144382 4.9049454820059193 4.3519467737918545 4.0375867995810886
decision_type=2 2 2 2
left_child=1 2 3 -1
right_child=-2 -3 -4 -5
leaf_value=0.00041504611200069986 -0.0092627924251378838 0.021806698394363038 -0.012878733905398457 0.007903342454411915
leaf_weight=18274 1793 501 1203 2184
leaf_count=18274 1793 501 1203 2184
internal_value=0 0.000914967 0.000431759 0.00121446
internal_weight=0 22162 21661 20458
internal_count=23955 22162 21661 20458
is_linear=0
shrinkage=0.05


Tree=147
num_leaves=5
num_cat=0
split_feature=4 4 4 4
split_gain=28.7808 23.15 37.2008 23.1127
threshold=3.9397092397672471 11.441303953238029 8.3600552040682121 3.8576782489162329
decision_type=2 2 2 2
left_child=3 2 -2 -1
right_child=1 -3 -4 -5
leaf_value=0.00013787695871262263 0.0022093634587582972 -0.024505692496313715 0.035831320252134861 -0.0041221599864262933
leaf_weight=9682 9366 80 83 4744
leaf_count=9682 9366 80 83 4744
internal_value=0 0.00227793 0.0025047 -0.00126304
internal_weight=0 9529 9449 14426
internal_count=23955 9529 9449 14426
is_linear=0
shrinkage=0.05


Tree=148
num_leaves=5
num_cat=0
split_feature=1 1 1 1
split_gain=63.4847 53.7516 42.4298 65.8674
threshold=5.1137119054210949 5.2295732578892933 2.6764223831288798 2.5214314235676833
decision_type=2 2 2 2
left_child=2 -2 3 -1
right_child=1 -3 -4 -5
leaf_value=-0.014915785641214775 -0.015010966704600183 0.018187033971839083 -0.00022972021234484547 0.007754817831467975
leaf_weight=354 1047 138 19041 3375
leaf_count=354 1047 138 19041 3375
internal_value=0 -0.0111449 0.000725438 0.00560266
internal_weight=0 1185 22770 3729
internal_count=23955 1185 22770 3729
is_linear=0
shrinkage=0.05


Tree=149
num_leaves=5
num_cat=0
split_feature=0 14 0 14
split_gain=13.5637 38.9751 42.3825 16.1165
threshold=1.9379878208504662 1.0000000180025095e-35 0.96239039249737179 0.96239039249737179
decision_type=2 2 2 2
left_child=1 2 -1 -3
right_child=-2 3 -4 -5
leaf_value=-0.0086341180969129374 -0.0024026677497839205 0.018889406477386246 0.00035600462590512443 0.0042155219137231135
leaf_weight=1448 4327 196 13854 4130
leaf_count=1448 4327 196 13854 4130
internal_value=0 0.000689949 -0.000494714 0.00488036
internal_weight=0 19628 15302 4326
internal_count=23955 19628 15302 4326
is_linear=0
shrinkage=0.05


Tree=150
num_leaves=5
num_cat=0
split_feature=1 1 1 1
split_gain=61.2355 85.4136 85.1001 72.1712
threshold=3.484264854180712 3.7420149475191633 3.3379193205507431 2.6764223831288798
decision_type=2 2 2 2
left_child=2 -2 3 -1
right_child=1 -3 -4 -5
leaf_value=0.0050277186186533495 -0.012384072422967796 -0.00071498152475729399 0.010609618528744483 -0.0049304428203516869
leaf_weight=3702 1798 12268 2642 3578
leaf_count=3702 1798 12268 2642 3578
internal_value=0 -0.00220659 0.00292301 0.000133446
internal_weight=0 14066 9922 7280
internal_count=23988 14066 9922 7280
is_linear=0
shrinkage=0.05


Tree=151
num_leaves=5
num_cat=0
split_feature=13 43 43 16
split_gain=16.4129 12.9816 17.406 13.9102
threshold=1.0000000180025095e-35 0.96239039249737179 1.0000000180025095e-35 0.96239039249737179
decision_type=2 2 2 2
left_child=1 2 3 -1
right_child=-2 -3 -4 -5
leaf_value=-0.001434132935942065 -0.0084040641087183097 -0.0026730280603078013 0.0030104137165699648 0.00182803932685556
leaf_weight=9359 578 3522 5508 5021
leaf_count=9359 578 3522 5508 5021
internal_value=0 0.000124882 0.000620369 -0.000295095
internal_weight=0 23410 19888 14380
internal_count=23988 23410 19888 14380
is_linear=0
shrinkage=0.05


Tree=152
num_leaves=5
num_cat=0
split_feature=9 43 43 43
split_gain=17.725 11.6326 22.6273 6.13891
threshold=2.1576576623905894 0.96239039249737179 1.0000000180025095e-35 0.96239039249737179
decision_type=2 2 2 2
left_child=3 2 -2 -1
right_child=1 -3 -4 -5
leaf_value=-0.00021633478810973209 0.0018863588286337583 -0.0042445577189404856 0.012540987840555663 -0.0025969894249414207
leaf_weight=17951 1748 403 697 3189
leaf_count=17951 1748 403 697 3189
internal_value=0 0.00362636 0.00492369 -0.00057546
internal_weight=0 2848 2445 21140
internal_count=23988 2848 2445 21140
is_linear=0
shrinkage=0.05


Tree=153
num_leaves=5
num_cat=0
split_feature=15 0 16 0
split_gain=15.6483 14.0422 22.1092 33.8759
threshold=2.1576576623905894 1.9379878208504662 1.0000000180025095e-35 0.96239039249737179
decision_type=2 2 2 2
left_child=1 2 3 -1
right_child=-2 -3 -4 -5
leaf_value=-0.0076066230786340956 0.012963789650913035 -0.0028278637309840406 0.0036813589429647029 0.00027635696871549357
leaf_weight=1509 228 4182 3997 14072
leaf_count=1509 228 4182 3997 14072
internal_value=0 -0.000197863 0.000363923 -0.0004871
internal_weight=0 23760 19578 15581
internal_count=23988 23760 19578 15581
is_linear=0
shrinkage=0.05


Tree=154
num_leaves=5
num_cat=0
split_feature=1 5 1 1
split_gain=55.7517 86.4285 91.7154 74.4265
threshold=3.484264854180712 3.447533729928252 3.7420149475191633 3.3379193205507431
decision_type=2 2 2 2
left_child=3 2 -2 -1
right_child=1 -3 -4 -5
leaf_value=0.00019214610852621582 -0.014805351785981453 0.0095888839348547226 -0.0018172295314637238 0.0099893314563239202
leaf_weight=7280 1549 1423 11094 2642
leaf_count=7280 1549 1423 11094 2642
internal_value=0 -0.00209362 -0.00340851 0.00280091
internal_weight=0 14066 12643 9922
internal_count=23988 14066 12643 9922
is_linear=0
shrinkage=0.05


Tree=155
num_leaves=5
num_cat=0
split_feature=13 43 43 19
split_gain=14.2836 9.89664 15.6919 7.95519
threshold=1.0000000180025095e-35 0.96239039249737179 1.0000000180025095e-35 0.96239039249737179
decision_type=2 2 2 2
left_child=1 2 -1 -3
right_child=-2 3 -4 -5
leaf_value=-0.00021435002903796076 -0.007633225887900952 0.0037372881074234383 0.0029293786275500508 -0.0031540573471633688
leaf_weight=14400 594 485 5480 3067
leaf_count=14400 594 485 5480 3067
internal_value=0 0.000217883 0.000652231 -0.00221309
internal_weight=0 23432 19880 3552
internal_count=24026 23432 19880 3552
is_linear=0
shrinkage=0.05


Tree=156
num_leaves=5
num_cat=0
split_feature=5 5 14 5
split_gain=50.8316 32.8377 70.0567 51.1784
threshold=2.0610737721255887 5.1916619858410096 1.0000000180025095e-35 9.9050939614858802
decision_type=2 2 2 2
left_child=-1 -2 3 -3
right_child=1 2 -4 -5
leaf_value=-0.0017975435378452826 0.002099018863541227 0.029199333960879256 -0.016980345935675583 -0.013020938889361745
leaf_weight=14773 8587 434 146 86
leaf_count=14773 8587 434 146 86
internal_value=0 0.00292855 0.013624 0.0222168
internal_weight=0 9253 666 520
internal_count=24026 9253 666 520
is_linear=0
shrinkage=0.05


Tree=157
num_leaves=5
num_cat=0
split_feature=13 6 15 6
split_gain=12.7626 22.1775 11.2252 8.96059
threshold=1.0000000180025095e-35 8.2858336783273874 1.9379878208504662 9.7672034556670653
decision_type=2 2 2 2
left_child=2 -2 -1 -4
right_child=1 -3 3 -5
leaf_value=-5.950475688741468e-06 -0.0087714213132375728 0.052807876827816173 0.0047740182780182834 0.029941008869256526
leaf_weight=22593 579 14.999999999999998 802 37
leaf_count=22593 579 15 802 37
internal_value=0 -0.00721639 0.000204939 0.00588389
internal_weight=0 594 23432 839
internal_count=24026 594 23432 839
is_linear=0
shrinkage=0.05


Tree=158
num_leaves=5
num_cat=0
split_feature=16 14 6 6
split_gain=11.9205 8.00939 29.2526 17.2328
threshold=2.1576576623905894 2.8180483849866156 7.8671644518344133 9.0062003689080488
decision_type=2 2 2 2
left_child=1 -1 -3 -4
right_child=-2 2 3 -5
leaf_value=-0.0001477871117890105 0.014413420097589806 0.039392903788109959 -0.028507598802785986 0.0098894325609522309
leaf_weight=23693 143 59 44 87
leaf_count=23693 143 59 44 87
internal_value=0 -6.57913e-05 0.0101591 -0.00300728
internal_weight=0 23883 190 131
internal_count=24026 23883 190 131
is_linear=0
shrinkage=0.05


Tree=159
num_leaves=5
num_cat=0
split_feature=4 0 0 0
split_gain=27.1284 18.4768 18.2086 50.3108
threshold=2.8987730842782269 1.3676401967542762 1.0000000180025095e-35 0.96239039249737179
decision_type=2 2 2 2
left_child=1 -1 -2 -4
right_child=2 -3 3 -5
leaf_value=-0.021033005160899537 0.0070445393271585735 -0.0038650223719750351 -0.0087321122007497139 0.00092339356022708109
leaf_weight=169 1034 2157 1451 19215
leaf_count=169 1034 2157 1451 19215
internal_value=0 -0.0051124 0.000569436 0.000245462
internal_weight=0 2326 21700 20666
internal_count=24026 2326 21700 20666
is_linear=0
shrinkage=0.05


Tree=160
num_leaves=5
num_cat=0
split_feature=14 15 15 43
split_gain=13.628 15.3719 13.9271 11.2046
threshold=2.8180483849866156 1.3676401967542762 1.0000000180025095e-35 0.96239039249737179
decision_type=2 2 2 2
left_child=3 2 -2 -1
right_child=1 -3 -4 -5
leaf_value=0.00041607089560736127 0.0089906071763834923 0.034773774888238004 -0.047343230557938418 -0.0026166967927781473
leaf_weight=20111 128 58 11.999999999999998 3589
leaf_count=20111 128 58 12 3589
internal_value=0 0.0131291 0.00416199 -4.31951e-05
internal_weight=0 198 140 23700
internal_count=23898 198 140 23700
is_linear=0
shrinkage=0.05


Tree=161
num_leaves=5
num_cat=0
split_feature=4 6 0 0
