tree
version=v3
num_class=1
num_tree_per_iteration=1
label_index=0
max_feature_idx=220
objective=regression
feature_names=MSSubClass LotFrontage LotArea Street Alley LotShape LandSlope OverallQual OverallCond YearBuilt YearRemodAdd MasVnrArea ExterQual ExterCond BsmtQual BsmtCond BsmtExposure BsmtFinType1 BsmtFinSF1 BsmtFinType2 BsmtFinSF2 BsmtUnfSF TotalBsmtSF HeatingQC CentralAir 1stFlrSF 2ndFlrSF LowQualFinSF GrLivArea BsmtFullBath BsmtHalfBath FullBath HalfBath BedroomAbvGr KitchenAbvGr KitchenQual TotRmsAbvGrd Functional Fireplaces FireplaceQu GarageYrBlt GarageFinish GarageCars GarageArea GarageQual GarageCond PavedDrive WoodDeckSF OpenPorchSF EnclosedPorch 3SsnPorch ScreenPorch PoolArea PoolQC Fence MiscVal MoSold YrSold TotalSF MSZoning_C_(all) MSZoning_FV MSZoning_RH MSZoning_RL MSZoning_RM LandContour_Bnk LandContour_HLS LandContour_Low LandContour_Lvl LotConfig_Corner LotConfig_CulDSac LotConfig_FR2 LotConfig_FR3 LotConfig_Inside Neighborhood_Blmngtn Neighborhood_Blueste Neighborhood_BrDale Neighborhood_BrkSide Neighborhood_ClearCr Neighborhood_CollgCr Neighborhood_Crawfor Neighborhood_Edwards Neighborhood_Gilbert Neighborhood_IDOTRR Neighborhood_MeadowV Neighborhood_Mitchel Neighborhood_NAmes Neighborhood_NPkVill Neighborhood_NWAmes Neighborhood_NoRidge Neighborhood_NridgHt Neighborhood_OldTown Neighborhood_SWISU Neighborhood_Sawyer Neighborhood_SawyerW Neighborhood_Somerst Neighborhood_StoneBr Neighborhood_Timber Neighborhood_Veenker Condition1_Artery Condition1_Feedr Condition1_Norm Condition1_PosA Condition1_PosN Condition1_RRAe Condition1_RRAn Condition1_RRNe Condition1_RRNn Condition2_Artery Condition2_Feedr Condition2_Norm Condition2_PosA Condition2_PosN Condition2_RRAe Condition2_RRAn Condition2_RRNn BldgType_1Fam BldgType_2fmCon BldgType_Duplex BldgType_Twnhs BldgType_TwnhsE HouseStyle_1.5Fin HouseStyle_1.5Unf HouseStyle_1Story HouseStyle_2.5Fin HouseStyle_2.5Unf HouseStyle_2Story HouseStyle_SFoyer HouseStyle_SLvl RoofStyle_Flat RoofStyle_Gable RoofStyle_Gambrel RoofStyle_Hip RoofStyle_Mansard RoofStyle_Shed RoofMatl_ClyTile RoofMatl_CompShg RoofMatl_Membran RoofMatl_Metal RoofMatl_Roll RoofMatl_Tar&Grv RoofMatl_WdShake RoofMatl_WdShngl Exterior1st_AsbShng Exterior1st_AsphShn Exterior1st_BrkComm Exterior1st_BrkFace Exterior1st_CBlock Exterior1st_CemntBd Exterior1st_HdBoard Exterior1st_ImStucc Exterior1st_MetalSd Exterior1st_Plywood Exterior1st_Stone Exterior1st_Stucco Exterior1st_VinylSd Exterior1st_Wd_Sdng Exterior1st_WdShing Exterior2nd_AsbShng Exterior2nd_AsphShn Exterior2nd_Brk_Cmn Exterior2nd_BrkFace Exterior2nd_CBlock Exterior2nd_CmentBd Exterior2nd_HdBoard Exterior2nd_ImStucc Exterior2nd_MetalSd Exterior2nd_Other Exterior2nd_Plywood Exterior2nd_Stone Exterior2nd_Stucco Exterior2nd_VinylSd Exterior2nd_Wd_Sdng Exterior2nd_Wd_Shng MasVnrType_BrkCmn MasVnrType_BrkFace MasVnrType_None MasVnrType_Stone Foundation_BrkTil Foundation_CBlock Foundation_PConc Foundation_Slab Foundation_Stone Foundation_Wood Heating_Floor Heating_GasA Heating_GasW Heating_Grav Heating_OthW Heating_Wall Electrical_FuseA Electrical_FuseF Electrical_FuseP Electrical_Mix Electrical_SBrkr GarageType_2Types GarageType_Attchd GarageType_Basment GarageType_BuiltIn GarageType_CarPort GarageType_Detchd GarageType_None MiscFeature_Gar2 MiscFeature_None MiscFeature_Othr MiscFeature_Shed MiscFeature_TenC SaleType_COD SaleType_CWD SaleType_Con SaleType_ConLD SaleType_ConLI SaleType_ConLw SaleType_New SaleType_Oth SaleType_WD SaleCondition_Abnorml SaleCondition_AdjLand SaleCondition_Alloca SaleCondition_Family SaleCondition_Normal SaleCondition_Partial
feature_infos=[0:3.4381104434026533] [3.9325102940665544:9.125735246126716] [12.878993133201504:35.391370879389704] [0:0.73046314711896665] [0:1.1943176378757767] [0:1.5409627556327752] [0:1.1943176378757767] [0.73046314711896665:2.8858464724882018] [0:2.6025944687727294] [13.977122145591951:14.198437226858903] [14.103851511653946:14.198437226858903] [0:13.496903957925936] [0:1.5409627556327752] [0:1.8203341036428238] [0:1.8203341036428238] [0:1.8203341036428238] [0:1.8203341036428238] [0:2.2596737867230705] [0:14.465576779860692] [0:2.2596737867230705] [0:13.25049937800808] [0:14.673978647470983] [0:15.71145264093626] [0:1.8203341036428238] [0:0.73046314711896665] [9.2798364468081687:15.734412852050287] [0:14.283056501227003] [0:10.616842895097365] [9.2798364468081687:16.859805295124275] [0:1.5409627556327752] [0:1.1943176378757767] [0:1.5409627556327752] [0:1.1943176378757767] [0:2.6025944687727294] [0:1.5409627556327752] [0:1.5409627556327752] [1.1943176378757767:3.3407603105397121] [0:2.2596737867230705] [0:1.5409627556327752] [0:2.0556415380581079] [0:14.198437226858903] [0:1.5409627556327752] [0:1.8203341036428238] [0:13.076090802577335] [0:2.0556415380581079] [0:2.0556415380581079] [0:1.1943176378757767] [0:11.695834404033846] [0:10.501575267176273] [0:10.524981344043688] [0:10.312501443831783] [0:10.169007130464756] [0:11.289160096627912] [0:1.5409627556327752] [0:1.8203341036428238] [0:21.677435084678006] [0:3.011340243262834] [0:1.8203341036428238] [9.2798364468081687:18.422179726065472] [0:1] [0:1] [0:1] [0:1] [0:1] [0:1] [0:1] [0:1] [0:1] [0:1] [0:1] [0:1] [0:1] [0:1] [0:1] [0:1] [0:1] [0:1] [0:1] [0:1] [0:1] [0:1] [0:1] [0:1] [0:1] [0:1] [0:1] [0:1] [0:1] [0:1] [0:1] [0:1] [0:1] [0:1] [0:1] [0:1] [0:1] [0:1] [0:1] [0:1] [0:1] [0:1] [0:1] [0:1] [0:1] [0:1] [0:1] [0:1] [0:1] [0:1] [0:1] none none none none [0:1] [0:1] [0:1] [0:1] [0:1] [0:1] [0:1] [0:1] [0:1] [0:1] [0:1] [0:1] [0:1] [0:1] [0:1] [0:1] [0:1] [0:1] [0:1] [0:1] none [0:1] none none none [0:1] [0:1] [0:1] [0:1] none [0:1] [0:1] none [0:1] [0:1] none [0:1] [0:1] [0:1] [0:1] [0:1] [0:1] [0:1] [0:1] [0:1] [0:1] [0:1] none [0:1] [0:1] [0:1] [0:1] none [0:1] [0:1] [0:1] [0:1] [0:1] [0:1] [0:1] [0:1] [0:1] [0:1] [0:1] [0:1] [0:1] [0:1] [0:1] [0:1] none [0:1] [0:1] [0:1] [0:1] [0:1] [0:1] [0:1] [0:1] none [0:1] [0:1] [0:1] [0:1] [0:1] [0:1] [0:1] [0:1] [0:1] [0:1] [0:1] [0:1] none [0:1] [0:1] [0:1] [0:1] [0:1] [0:1] [0:1] [0:1] [0:1] [0:1] [0:1] [0:1] [0:1] [0:1] [0:1]
tree_sizes=568 586 591 591 586 591 585 584 598 593 588 586 595 591 591 585 582 597 588 588 594 586 596 585 588 589 581 590 585 592 585 600 589 587 584 600 599 585 585 589 586 590 592 594 590 597 595 600 584 592 600 593 599 590 604 604 593 592 590 589 597 593 597 591 590 595 594 589 586 596 605 595 592 594 589 599 600 592 589 580 593 589 589 583 583 598 580 588 602 598 604 591 588 591 598 590 601 599 599 605 604 598 597 623 594 606 601 607 589 601 597 608 591 599 599 593 595 634 598 605 631 602 614 596 610 615 593 615 606 619 600 595 625 602 609 593 621 600 600 619 589 610 625 594 605 594 614 595 601 613 604 596 594 597 602 602 595 619 606 604 640 601 603 602 614 595 589 585 599 621 603 621 595 607 606 596 596 600 606 610 602 606 594 618 608 610 598 620 592 608 605 601 606 610 616 601 620 610 609 614 589 593 596 603 607 604 600 601 601 608 633 606 596 593 613 607 610 605 610 604 617 603 615 608 608 622 610 603 600 597 597 602 604 607 594 600 626 612 630 601 621 624 606 595 619 608 608 612 609 605 598 605 593 620 594 593 614 581 622 605 604 615 594 613 599 605 592 586 642 588 585 590 605 612 603 606 579 621 601 609 594 587 596 608 601 620 608 585 626 596 587 605 587 604 589 619 606 631 621 596 592 585 598 601 619 608 602 610 614 611 590 597 615 597 612 601 605 611 592 628 618 620 605 599 600 634 613 608 604 612 598 627 599 612 607 600 600 609 603 597 590 606 615 625 595 591 593 616 602 613 617 606 616 589 634 595 648 589 618 611 613 616 599 610 602 623 599 600 624 626 607 634 609 631 604 620 611 606 610 598 618 595 612 603 620 628 601 605 625 606 614 593 629 614 613 632 634 615 590 624 589 595 634 625 620 587 591 605 605 609 618 608 594 601 615 619 613 627 591 600 616 601 601 612 602 590 615 627 591 618 597 591 588 623 602 587 585 601 612 623 604 610 618 633 606 601 590 594 618 593 602 603 586 619 612 618 601 629 612 594 607 610 600 627 603 615 609 587 607 628 589 595 598 603 613 616 604 627 606 623 607 616 583 592 606 596 603 606 590 640 632 638 590 614 605 601 621 611 592 595 611 584 601 598 596 612 598 596 603 610 621 600 589 589 598 590 587 632 593 599 607 611 602 606 594 612 608 603 596 614 596 603 601 599 603 595 592 607 599 616 586 598 623 632 600 631 616 612 618 590 608 590 591 600 599 589 613 622 612 588 600 603 615 617 589 599 608 592 616 589 603 590 609 628 613 609 628 584 584 652 629 616 631 604 602 613 605 618 630 601 591 591 592 591 594 603 610 593 604 586 587 616 614 596 627 602 603 605 612 594 614 603 594 614 612 605 590 610 589 606 630 603 594 619 585 593 622 617 603 610 599 627 630 612 600 609 604 581 608 610 618 618 590 594 602 589 630 614 599 602 621 610 600 636 596 631 626 591 625 590 619 611 607 599 598 595 622 627 594 620 625 628 615 614 623 602 606 629 620 623 624 600 613 610 605 607 604 601 627 612 619 599 619 606 596 605 632 599 592 621 612 608 596 585 592 595 600 601 631 620 601 619 587 603 598 596 599 601 619 587

Tree=0
num_leaves=5
num_cat=0
split_feature=12 43 43 24
split_gain=268.186 68.4565 48.3075 31.5975
threshold=1.3676401967542762 10.946833949135803 9.4123323746678302 1.0000000180025095e-35
decision_type=2 2 2 2
left_child=1 3 -2 -1
right_child=2 -3 -4 -5
leaf_value=11.982748151545907 12.007169828560301 12.053284891468039 12.020346452506587 12.033935321989862
leaf_weight=31 1173 613 1709 1098
leaf_count=31 1173 613 1709 1098
internal_value=12.0242 12.0398 12.015 12.0325
internal_weight=0 1742 2882 1129
internal_count=4624 1742 2882 1129
is_linear=0
shrinkage=1


Tree=1
num_leaves=5
num_cat=0
split_feature=31 22 26 22
split_gain=231.629 62.648 39.3776 34.5556
threshold=0.96239039249737179 13.187140831127719 11.619500353355809 12.167338700771325
decision_type=2 2 2 2
left_child=3 2 -2 -1
right_child=1 -3 -4 -5
leaf_value=-0.016728614314117689 -0.00029792487336607014 0.022694547289146046 0.014977710416772287 -0.0030307507680612448
leaf_weight=1396 1148 726 667 687
leaf_count=1396 1148 726 667 687
internal_value=0 0.0102811 0.00531577 -0.0122109
internal_weight=0 2541 1815 2083
internal_count=4624 2541 1815 2083
is_linear=0
shrinkage=0.05


Tree=2
num_leaves=5
num_cat=0
split_feature=31 42 10 42
split_gain=209.045 83.0576 28.7293 27.5693
threshold=0.96239039249737179 1.3676401967542762 14.152236763120525 1.0000000180025095e-35
decision_type=2 2 2 2
left_child=3 2 -2 -1
right_child=1 -3 -4 -5
leaf_value=-0.030247120658007776 -0.0047783574626569236 0.02702649448614336 0.0087038553653432226 -0.0098258561064122202
leaf_weight=181 543 547 1451 1902
leaf_count=181 543 547 1451 1902
internal_value=0 0.00976708 0.00503242 -0.0116003
internal_weight=0 2541 1994 2083
internal_count=4624 2541 1994 2083
is_linear=0
shrinkage=0.05


Tree=3
num_leaves=5
num_cat=0
split_feature=9 42 42 24
split_gain=217.975 55.5062 43.9795 19.8179
threshold=14.160108304614061 1.3676401967542762 0.96239039249737179 1.0000000180025095e-35
decision_type=2 2 2 2
left_child=2 -2 3 -1
right_child=1 -3 -4 -5
leaf_value=-0.029462611248985457 0.008001769306354458 0.027200449344100985 -0.0024348522266914737 -0.012478992071861889
leaf_weight=201 1282 533 1427 1181
leaf_count=201 1282 533 1427 1181
internal_value=0 0.0136397 -0.00859174 -0.0149491
internal_weight=0 1815 2809 1382
internal_count=4624 1815 2809 1382
is_linear=0
shrinkage=0.05


Tree=4
num_leaves=5
num_cat=0
split_feature=58 58 58 35
split_gain=250.754 67.5736 38.3157 27.0723
threshold=14.872748393562043 16.072868943186762 13.562413838304597 1.3676401967542762
decision_type=2 2 2 2
left_child=2 3 -1 -2
right_child=1 -3 -4 -5
leaf_value=-0.026178397928943505 0.011990907169787231 0.028862847482921485 -0.0086359533863078018 -0.00077642583242908776
leaf_weight=370 1189 466 1961 638
leaf_count=370 1189 466 1961 638
internal_value=0 0.0118674 -0.0114205 0.00753247
internal_weight=0 2293 2331 1827
internal_count=4624 2293 2331 1827
is_linear=0
shrinkage=0.05


Tree=5
num_leaves=5
num_cat=0
split_feature=28 42 195 10
split_gain=198.178 55.5887 34.207 19.1613
threshold=13.134150378117679 1.3676401967542762 1.0000000180025095e-35 14.15538740346379
decision_type=2 2 2 2
left_child=2 3 -1 -2
right_child=1 -3 -4 -5
leaf_value=-0.017326928817738868 -0.0015987301284520626 0.023474824176081314 -0.0046401978196409606 0.0090486915551591662
leaf_weight=1109 632 557 1020 1275
leaf_count=1109 632 557 1020 1275
internal_value=0 0.0095788 -0.0112487 0.00552002
internal_weight=0 2464 2129 1907
internal_count=4593 2464 2129 1907
is_linear=0
shrinkage=0.05


Tree=6
num_leaves=5
num_cat=0
split_feature=40 18 43 26
split_gain=142.917 41.7511 33.4142 19.8344
threshold=14.163252206464737 11.91312366504123 9.8417511911460185 11.727777240920011
decision_type=2 2 2 2
left_child=2 3 -1 -2
right_child=1 -3 -4 -5
leaf_value=-0.012796596522217124 0.0029898981826649833 0.023839498745470214 -0.0015003157210002013 0.01622992455857147
leaf_weight=1439 1142 435 1201 376
leaf_count=1439 1142 435 1201 376
internal_value=0 0.0101828 -0.00765764 0.00626938
internal_weight=0 1953 2640 1518
internal_count=4593 1953 2640 1518
is_linear=0
shrinkage=0.05


Tree=7
num_leaves=5
num_cat=0
split_feature=12 43 2 43
split_gain=149.796 38.7369 28.4699 19.3923
threshold=1.3676401967542762 10.470873531282377 19.505952916049289 1.0000000180025095e-35
decision_type=2 2 2 2
left_child=1 3 -2 -1
right_child=2 -3 -4 -5
leaf_value=-0.037464512565306259 -0.012006240604260116 0.018396797717506259 -0.002022050483308252 0.0048969807419822989
leaf_weight=28 1455 939 1402 769
leaf_count=28 1455 939 1402 769
internal_value=0 0.0115158 -0.00710675 0.00340875
internal_weight=0 1736 2857 797
internal_count=4593 1736 2857 797
is_linear=0
shrinkage=0.05


Tree=8
num_leaves=5
num_cat=0
split_feature=28 14 195 14
split_gain=160.657 50.6234 28.453 19.0636
threshold=13.134150378117679 1.0000000180025095e-35 1.0000000180025095e-35 1.3676401967542762
decision_type=2 2 2 2
left_child=2 -2 -1 -3
right_child=1 3 -4 -5
leaf_value=-0.015668263761880932 0.027013797241907857 0.0093813904234509304 -0.0040976503816451517 -0.00044706649031765148
leaf_weight=1109 325 1367 1020 772
leaf_count=1109 325 1367 1020 772
internal_value=0 0.00862772 -0.0101248 0.00583414
internal_weight=0 2464 2129 2139
internal_count=4593 2464 2129 2139
is_linear=0
shrinkage=0.05


Tree=9
num_leaves=5
num_cat=0
split_feature=31 35 34 39
split_gain=118.084 41.4348 25.8599 20.4698
threshold=0.96239039249737179 1.0000000180025095e-35 0.96239039249737179 1.3676401967542762
decision_type=2 2 2 2
left_child=3 -2 -3 -1
right_child=1 2 -4 -5
leaf_value=0.00016878790321546455 0.026670342433428473 0.0067470326857577666 -0.012253801158762404 -0.011606509150364527
leaf_weight=480 247 2073 196 1597
leaf_count=480 247 2073 196 1597
internal_value=0 0.00722275 0.00510571 -0.00888521
internal_weight=0 2516 2269 2077
internal_count=4593 2516 2269 2077
is_linear=0
shrinkage=0.05


Tree=10
num_leaves=5
num_cat=0
split_feature=58 58 58 35
split_gain=160.511 42.6252 34.2515 12.0333
threshold=15.008077815879384 15.968283394389024 13.732651288260223 1.3676401967542762
decision_type=2 2 2 2
left_child=2 3 -1 -2
right_child=1 -3 -4 -5
leaf_value=-0.018968767602163945 0.0092357987280570399 0.022681944276718775 -0.0051568303239913306 -0.00035264610219649207
leaf_weight=579 1042 531 1997 477
leaf_count=579 1042 531 1997 477
internal_value=0 0.0104876 -0.0082613 0.00622481
internal_weight=0 2050 2576 1519
internal_count=4626 2050 2576 1519
is_linear=0
shrinkage=0.05


Tree=11
num_leaves=5
num_cat=0
split_feature=7 7 7 63
split_gain=156.62 35.3899 28.7895 14.1058
threshold=2.3499710825428539 1.9379878208504662 2.5214314235676833 1.0000000180025095e-35
decision_type=2 2 2 2
left_child=1 -1 -2 -3
right_child=2 3 -4 -5
leaf_value=-0.019791343650707095 0.0065206337794358714 -0.0028455152514286078 0.019661145467548821 -0.012672499946063813
leaf_weight=456 988 2015 721 446
leaf_count=456 988 2015 721 446
internal_value=0 -0.00699709 0.0120644 -0.00462643
internal_weight=0 2917 1709 2461
internal_count=4626 2917 1709 2461
is_linear=0
shrinkage=0.05


Tree=12
num_leaves=5
num_cat=0
split_feature=43 43 195 43
split_gain=91.1402 32.574 13.778 12.4979
threshold=9.8417511911460185 11.111114423537163 1.0000000180025095e-35 1.0000000180025095e-35
decision_type=2 2 2 2
left_child=3 2 -2 -1
right_child=1 -3 -4 -5
leaf_value=-0.019256152591898182 -0.0031800450361875255 0.01585962185149797 0.0052624230185182993 -0.0072995310352350976
leaf_weight=257 688 596 1624 1461
leaf_count=257 688 596 1624 1461
internal_value=0 0.00543695 0.00275013 -0.00908815
internal_weight=0 2908 2312 1718
internal_count=4626 2908 2312 1718
is_linear=0
shrinkage=0.05


Tree=13
num_leaves=5
num_cat=0
split_feature=7 58 58 24
split_gain=133.976 38.7185 35.5413 15.9638
threshold=2.3499710825428539 14.299748911373809 15.898507673809892 1.0000000180025095e-35
decision_type=2 2 2 2
left_child=1 3 -2 -1
right_child=2 -3 -4 -5
leaf_value=-0.026557076463587972 0.006336033309102697 -0.0016020207624307813 0.021941096367046352 -0.010812665679764639
leaf_weight=191 1181 1701 528 1025
leaf_count=191 1181 1701 528 1025
internal_value=0 -0.00647255 0.0111573 -0.0132857
internal_weight=0 2917 1709 1216
internal_count=4626 2917 1709 1216
is_linear=0
shrinkage=0.05


Tree=14
num_leaves=5
num_cat=0
split_feature=7 58 58 24
split_gain=120.914 34.9435 32.076 14.4073
threshold=2.3499710825428539 14.299748911373809 15.898507673809892 1.0000000180025095e-35
decision_type=2 2 2 2
left_child=1 3 -2 -1
right_child=2 -3 -4 -5
leaf_value=-0.025229222662941947 0.0060192316399572164 -0.0015219197352396281 0.020844041422065914 -0.010272032424187141
leaf_weight=191 1181 1701 528 1025
leaf_count=191 1181 1701 528 1025
internal_value=0 -0.00614892 0.0105994 -0.0126214
internal_weight=0 2917 1709 1216
internal_count=4626 2917 1709 1216
is_linear=0
shrinkage=0.05


Tree=15
num_leaves=5
num_cat=0
split_feature=7 58 58 7
split_gain=109.626 30.7374 29.3463 11.7199
threshold=2.3499710825428539 14.299748911373809 15.474725656671763 1.9379878208504662
decision_type=2 2 2 2
left_child=1 3 -2 -1
right_child=2 -3 -4 -5
leaf_value=-0.019974168304715455 0.0028930894587417154 -0.0016632271053945089 0.015964086682012029 -0.0090387548344585452
leaf_weight=342 803 1669 923 864
leaf_count=342 803 1669 923 864
internal_value=0 -0.00605794 0.00988297 -0.0121398
internal_weight=0 2875 1726 1206
internal_count=4601 2875 1726 1206
is_linear=0
shrinkage=0.05


Tree=16
num_leaves=5
num_cat=0
split_feature=7 7 7 18
split_gain=98.9372 25.6421 21.4248 9.17922
threshold=2.3499710825428539 1.9379878208504662 2.6764223831288798 11.91312366504123
decision_type=2 2 2 2
left_child=1 -1 3 -2
right_child=2 -3 -4 -5
leaf_value=-0.01684855349102404 0.0053964781003996059 -0.0037450841778986681 0.025181119045466965 0.014798034295676069
leaf_weight=441 1204 2434 191 331
leaf_count=441 1204 2434 191 331
internal_value=0 -0.00575504 0.00938882 0.00742378
internal_weight=0 2875 1726 1535
internal_count=4601 2875 1726 1535
is_linear=0
shrinkage=0.05


Tree=17
num_leaves=5
num_cat=0
split_feature=12 14 24 40
split_gain=65.7397 19.7999 17.1615 12.0813
threshold=1.3676401967542762 1.0000000180025095e-35 1.0000000180025095e-35 1.0000000180025095e-35
decision_type=2 2 2 2
left_child=1 -1 -2 -3
right_child=2 3 -4 -5
leaf_value=0.018467112153680628 -0.016609046407669349 -0.028772768378257752 -0.0034524175818794727 0.005633715951855447
leaf_weight=339 274 26 2598 1364
leaf_count=339 274 26 2598 1364
internal_value=0 0.00763253 -0.00470761 0.00499014
internal_weight=0 1729 2872 1390
internal_count=4601 1729 2872 1390
is_linear=0
shrinkage=0.05


Tree=18
num_leaves=5
num_cat=0
split_feature=28 38 8 28
split_gain=75.721 21.535 17.9238 12.4526
threshold=13.272708728082108 1.0000000180025095e-35 1.6806484296377997 14.158534671106645
decision_type=2 2 2 2
left_child=2 -2 -1 -3
right_child=1 3 -4 -5
leaf_value=-0.021710625003980494 -0.0014881761185902096 0.0061817324150190579 -0.0050424118322381683 0.015243230008595369
leaf_weight=174 603 1010 2207 607
leaf_count=174 603 1010 2207 607
internal_value=0 0.00657605 -0.0062605 0.0095833
internal_weight=0 2220 2381 1617
internal_count=4601 2220 2381 1617
is_linear=0
shrinkage=0.05


Tree=19
num_leaves=5
num_cat=0
split_feature=58 58 58 35
split_gain=82.5473 30.0413 13.0619 9.59534
threshold=14.618090859159372 16.178521484271545 13.195375812282533 1.3676401967542762
decision_type=2 2 2 2
left_child=2 3 -1 -2
right_child=1 -3 -4 -5
leaf_value=-0.021511310273499201 0.0059185959301927219 0.018673610851168632 -0.0067873972812227991 -0.00070105505320811035
leaf_weight=165 1454 375 1729 878
leaf_count=165 1454 375 1729 878
internal_value=0 0.0055385 -0.0080701 0.00342629
internal_weight=0 2707 1894 2332
internal_count=4601 2707 1894 2332
is_linear=0
shrinkage=0.05


Tree=20
num_leaves=5
num_cat=0
split_feature=10 35 26 59
split_gain=52.1988 22.7826 11.7372 8.60573
threshold=14.142768596599238 1.0000000180025095e-35 11.727777240920011 1.0000000180025095e-35
decision_type=2 2 2 2
left_child=3 -2 -3 -1
right_child=1 2 -4 -5
leaf_value=-0.0070296915876767027 0.017191175006935858 0.0009533113767499898 0.0095819335914619982 -0.036610298871994018
leaf_weight=1490 289 2291 476 25
leaf_count=1490 289 2291 476 25
internal_value=0 0.00383288 0.00243767 -0.00751782
internal_weight=0 3056 2767 1515
internal_count=4571 3056 2767 1515
is_linear=0
shrinkage=0.05


Tree=21
num_leaves=5
num_cat=0
split_feature=28 43 28 8
split_gain=59.7979 14.9943 13.2449 8.69499
threshold=13.272708728082108 8.9263639064464027 15.045523795502703 1.6806484296377997
decision_type=2 2 2 2
left_child=1 -1 -2 -3
right_child=2 3 -4 -5
leaf_value=-0.012200285451148044 0.0050004405133515575 -0.018415627897907558 0.020492722660403802 -0.0022962688758308824
leaf_weight=605 2034 88 148 1696
leaf_count=605 2034 88 148 1696
internal_value=0 -0.00539817 0.00605125 -0.00309139
internal_weight=0 2389 2182 1784
internal_count=4571 2389 2182 1784
is_linear=0
shrinkage=0.05


Tree=22
num_leaves=5
num_cat=0
split_feature=38 42 42 42
split_gain=52.5492 16.9921 12.8655 7.84372
threshold=1.0000000180025095e-35 1.3676401967542762 0.96239039249737179 0.96239039249737179
decision_type=2 2 2 2
left_child=2 3 -1 -2
right_child=1 -3 -4 -5
leaf_value=-0.0098781106777364736 -0.0029512807022112151 0.013438729134951614 -0.0021193496015665335 0.0047272022574251747
leaf_weight=969 428 491 1191 1492
leaf_count=969 428 491 1191 1492
internal_value=0 0.00513822 -0.00560002 0.00301554
internal_weight=0 2411 2160 1920
internal_count=4571 2411 2160 1920
is_linear=0
shrinkage=0.05


Tree=23
num_leaves=5
num_cat=0
split_feature=25 26 18 26
split_gain=43.0093 20.1363 14.7777 9.74856
threshold=12.368320379938298 11.046820369117123 12.376145785582017 12.256494910897983
decision_type=2 2 2 2
left_child=1 -1 3 -2
right_child=2 -3 -4 -5
leaf_value=-0.0082651618088636063 0.0017786338388142428 0.001470194908874485 0.013736708771107317 0.012982329754158856
leaf_weight=1472 1653 831 395 220
leaf_count=1472 1653 831 395 220
internal_value=0 -0.00475232 0.00494806 0.0030946
internal_weight=0 2303 2268 1873
internal_count=4571 2303 2268 1873
is_linear=0
shrinkage=0.05


Tree=24
num_leaves=5
num_cat=0
split_feature=22 40 22 22
split_gain=39.9758 14.1411 9.72535 7.63251
threshold=12.377471169265746 14.05643689708902 14.021485984356358 10.499223774695977
decision_type=2 2 2 2
left_child=1 -1 -2 -3
right_child=2 3 -4 -5
leaf_value=-0.014045414207029648 0.0048397129295365462 -0.011292112579949267 0.018892169301923282 -0.0015966563223422465
leaf_weight=295 1658 223 133 2262
leaf_count=295 1658 223 133 2262
internal_value=0 -0.00369539 0.00588325 -0.00246671
internal_weight=0 2780 1791 2485
internal_count=4571 2780 1791 2485
is_linear=0
shrinkage=0.05


Tree=25
num_leaves=5
num_cat=0
split_feature=58 58 58 90
split_gain=55.2396 15.9585 15.2727 6.58395
threshold=14.915395968928649 16.178521484271545 13.562413838304597 1.0000000180025095e-35
decision_type=2 2 2 2
left_child=2 3 -1 -2
right_child=1 -3 -4 -5
leaf_value=-0.01439353860438046 0.0044007003822650144 0.015072175071621686 -0.0035121279082799234 -0.010540534233577648
leaf_weight=381 1737 377 2099 77
leaf_count=381 1737 377 2099 77
internal_value=0 0.00571182 -0.00518383 0.00376648
internal_weight=0 2191 2480 1814
internal_count=4671 2191 2480 1814
is_linear=0
shrinkage=0.05


Tree=26
num_leaves=5
num_cat=0
split_feature=7 7 7 25
split_gain=49.6747 16.0981 11.9371 6.68503
threshold=2.3499710825428539 1.9379878208504662 2.6764223831288798 10.987217297342655
decision_type=2 2 2 2
left_child=1 3 -2 -1
right_child=2 -3 -4 -5
leaf_value=-0.029361756117838735 0.0052295481429491747 -0.0024361700410236577 0.018672126966553765 -0.010467076860063424
leaf_weight=53 1539 2493 185 401
leaf_count=53 1539 2493 185 401
internal_value=0 -0.00401318 0.00667205 -0.0126728
internal_weight=0 2947 1724 454
internal_count=4671 2947 1724 454
is_linear=0
shrinkage=0.05


Tree=27
num_leaves=5
num_cat=0
split_feature=22 26 2 46
split_gain=31.8278 16.8987 10.2023 7.26774
threshold=12.280784270142275 11.046820369117123 20.6825834206787 1.0000000180025095e-35
decision_type=2 2 2 2
left_child=1 3 -2 -1
right_child=2 -3 -4 -5
leaf_value=-0.015701283999397693 0.0023575523796089417 0.0016206233342295061 0.010139301041246176 -0.0054646087421881349
leaf_weight=196 1397 972 603 1503
leaf_count=196 1397 972 603 1503
internal_value=0 -0.00363741 0.00470375 -0.00664553
internal_weight=0 2671 2000 1699
internal_count=4671 2671 2000 1699
is_linear=0
shrinkage=0.05


Tree=28
num_leaves=5
num_cat=0
split_feature=58 58 7 7
split_gain=43.8204 16.73 8.65587 8.49438
threshold=15.419868667425433 13.562413838304597 2.5214314235676833 2.1576576623905894
decision_type=2 2 2 2
left_child=1 -1 -2 -3
right_child=2 3 -4 -5
leaf_value=-0.012893763032565848 0.003943636899655531 -0.0048820610980185751 0.012213436330581993 0.00048734559469085903
leaf_weight=381 667 1273 602 1748
leaf_count=381 667 1273 602 1748
internal_value=0 -0.00302043 0.00786674 -0.00177523
internal_weight=0 3402 1269 3021
internal_count=4671 3402 1269 3021
is_linear=0
shrinkage=0.05


Tree=29
num_leaves=5
num_cat=0
split_feature=7 7 7 63
split_gain=38.9103 13.1414 9.84288 6.37641
threshold=2.3499710825428539 1.9379878208504662 2.5214314235676833 1.0000000180025095e-35
decision_type=2 2 2 2
left_child=1 -1 -2 -3
right_child=2 3 -4 -5
leaf_value=-0.011374011904715113 0.0027076290647093551 -0.00092063380420821935 0.010368295047624593 -0.0074340237138910041
leaf_weight=454 1004 2032 720 461
leaf_count=454 1004 2032 720 461
internal_value=0 -0.00354992 0.00590698 -0.00212508
internal_weight=0 2947 1724 2493
internal_count=4671 2947 1724 2493
is_linear=0
shrinkage=0.05


Tree=30
num_leaves=5
num_cat=0
split_feature=28 8 2 28
split_gain=29.8009 10.6679 9.60939 5.53431
threshold=13.272708728082108 1.6806484296377997 20.547199919985388 11.364738886908105
decision_type=2 2 2 2
left_child=1 -1 -2 -3
right_child=2 3 -4 -5
leaf_value=-0.01627123215477224 0.0017099946831519647 -0.016162042268030287 0.0086658217750104072 -0.0025226900374614456
leaf_weight=162 1385 77 774 2180
leaf_count=162 1385 77 774 2180
internal_value=0 -0.00387759 0.00420365 -0.00298801
internal_weight=0 2419 2159 2257
internal_count=4578 2419 2159 2257
is_linear=0
shrinkage=0.05


Tree=31
num_leaves=5
num_cat=0
split_feature=10 14 33 29
split_gain=27.1797 11.0168 6.41749 4.31949
threshold=14.142768596599238 1.0000000180025095e-35 1.3676401967542762 1.0000000180025095e-35
decision_type=2 2 2 2
left_child=2 -2 -1 -3
right_child=1 3 -4 -5
leaf_value=-0.010413879228345968 0.011018721294586689 -0.00012874209440718467 -0.0033640741483770189 0.0039313964719082852
leaf_weight=459 351 1540 1088 1140
leaf_count=459 351 1540 1088 1140
internal_value=0 0.00268924 -0.00545577 0.00159833
internal_weight=0 3031 1547 2680
internal_count=4578 3031 1547 2680
is_linear=0
shrinkage=0.05


Tree=32
num_leaves=5
num_cat=0
split_feature=7 7 24 1
split_gain=31.9959 12.699 9.51413 5.53251
threshold=2.1576576623905894 2.5214314235676833 1.0000000180025095e-35 5.6995877797373931
decision_type=2 2 2 2
left_child=2 3 -1 -2
right_child=1 -3 -4 -5
leaf_value=-0.01514568324264021 -0.0025432196998050314 0.0090332078423020629 -0.0040300599848620755 0.0029520690975084044
leaf_weight=221 658 699 1493 1507
leaf_count=221 658 699 1493 1507
internal_value=0 0.00317372 -0.00546329 0.00128191
internal_weight=0 2864 1714 2165
internal_count=4578 2864 1714 2165
is_linear=0
shrinkage=0.05


Tree=33
num_leaves=5
num_cat=0
split_feature=22 45 18 2
split_gain=19.1177 9.5255 6.90796 5.24076
threshold=12.377471169265746 1.9379878208504662 12.376145785582017 18.600079143561995
decision_type=2 2 2 2
left_child=1 -1 -2 -3
right_child=2 3 -4 -5
leaf_value=-0.010150472699307314 0.0023542564053666095 -0.005257233083882264 0.0098873035239396365 -7.1209703055624218e-05
leaf_weight=365 1373 671 391 1778
leaf_count=365 1373 671 391 1778
internal_value=0 -0.00261519 0.004024 -0.00149213
internal_weight=0 2814 1764 2449
internal_count=4578 2814 1764 2449
is_linear=0
shrinkage=0.05


Tree=34
num_leaves=5
num_cat=0
split_feature=7 7 18 59
split_gain=27.7813 10.8711 7.6861 4.0669
threshold=2.1576576623905894 2.5214314235676833 9.0141323268605174 1.0000000180025095e-35
decision_type=2 2 2 2
left_child=2 -2 3 -1
right_child=1 -3 -4 -5
leaf_value=-0.0081717418171552252 0.0012087085165518152 0.0083804584194397107 -0.002018405927998383 -0.031590232213861064
leaf_weight=764 2165 699 931 19
leaf_count=764 2165 699 931 19
internal_value=0 0.00295908 -0.00508901 -0.00874001
internal_weight=0 2864 1714 783
internal_count=4578 2864 1714 783
is_linear=0
shrinkage=0.05


Tree=35
num_leaves=5
num_cat=0
split_feature=14 14 14 200
split_gain=17.4641 8.26678 5.13279 4.53441
threshold=1.3676401967542762 1.0000000180025095e-35 0.96239039249737179 1.0000000180025095e-35
decision_type=2 2 2 2
left_child=1 -1 -3 -2
right_child=3 2 -4 -5
leaf_value=0.0097135138730546702 -0.0026101916596211056 -0.0091002907063636295 0.0021961712821445124 -0.010643515926834024
leaf_weight=372 1955 106 1958 193
leaf_count=372 1955 106 1958 193
internal_value=0 0.00285259 0.00161602 -0.00333199
internal_weight=0 2436 2064 2148
internal_count=4584 2436 2064 2148
is_linear=0
shrinkage=0.05


Tree=36
num_leaves=5
num_cat=0
split_feature=42 35 199 22
split_gain=19.9048 10.1826 6.11319 4.69037
threshold=0.96239039249737179 1.0000000180025095e-35 1.0000000180025095e-35 10.895607483338093
decision_type=2 2 2 2
left_child=3 -2 -3 -1
right_child=1 2 -4 -5
leaf_value=-0.011257701137362691 0.011273318038188986 0.0024990027351462487 -0.0030899279489461336 -0.0036434099508974196
leaf_weight=244 280 2253 625 1182
leaf_count=244 280 2253 625 1182
internal_value=0 0.00217086 0.00128528 -0.00494628
internal_weight=0 3158 2878 1426
internal_count=4584 3158 2878 1426
is_linear=0
shrinkage=0.05


Tree=37
num_leaves=5
num_cat=0
split_feature=7 7 25 17
split_gain=24.0085 9.91169 5.51127 3.97055
threshold=2.1576576623905894 2.5214314235676833 11.348732910832748 1.3676401967542762
decision_type=2 2 2 2
left_child=2 -2 -1 -4
right_child=1 -3 3 -5
leaf_value=-0.0125418907736859 0.0010358452541910489 0.0077930837452542855 -0.0010154521157682225 -0.0061801790173657964
leaf_weight=201 2167 724 710 782
leaf_count=201 2167 724 710 782
internal_value=0 0.00272808 -0.00476952 -0.00372243
internal_weight=0 2891 1693 1492
internal_count=4584 2891 1693 1492
is_linear=0
shrinkage=0.05


Tree=38
num_leaves=5
num_cat=0
split_feature=2 1 36 48
split_gain=15.628 8.00209 4.34703 3.90304
threshold=20.6825834206787 5.6995877797373931 2.8180483849866156 4.5445872273143086
decision_type=2 2 2 2
left_child=1 -1 -2 -3
right_child=2 3 -4 -5
leaf_value=-0.0044879985793777584 0.0044859437961609471 -0.0016894256930288271 0.014668101511803295 0.0024365338375420317
leaf_weight=1385 784 1174 121 1120
leaf_count=1385 784 1174 121 1120
internal_value=0 -0.00148691 0.00584732 0.000324992
internal_weight=0 3679 905 2294
internal_count=4584 3679 905 2294
is_linear=0
shrinkage=0.05


Tree=39
num_leaves=5
num_cat=0
split_feature=2 8 17 36
split_gain=14.2266 9.37461 6.14248 4.42451
threshold=20.387229902525892 1.6806484296377997 1.3676401967542762 2.8180483849866156
decision_type=2 2 2 2
left_child=1 -1 -3 -2
right_child=3 2 -4 -5
leaf_value=-0.012157420540922368 0.0034609823438712124 0.0010436136912788314 -0.0033699567911173126 0.012630470072132692
leaf_weight=202 1070 1664 1498 150
leaf_count=202 1070 1664 1498 150
internal_value=0 -0.00171445 -0.00104732 0.00458838
internal_weight=0 3364 3162 1220
internal_count=4584 3364 3162 1220
is_linear=0
shrinkage=0.05


Tree=40
num_leaves=5
num_cat=0
split_feature=28 9 28 10
split_gain=19.7629 10.1798 4.76281 4.4315
threshold=13.848394776601216 14.104649794394357 12.499273279231303 14.171100218028778
decision_type=2 2 2 2
left_child=1 2 -1 -2
right_child=3 -3 -4 -5
leaf_value=-0.010739783471247696 0.0013472332168334184 -0.00033534446813848718 -0.0032264468815320965 0.0080400227136784713
leaf_weight=384 372 2669 468 738
leaf_count=384 372 2669 468 738
internal_value=0 -0.00185433 -0.00661274 0.00579703
internal_weight=0 3521 852 1110
internal_count=4631 3521 852 1110
is_linear=0
shrinkage=0.05


Tree=41
num_leaves=5
num_cat=0
split_feature=58 58 7 38
split_gain=19.7119 9.19796 5.4687 3.20306
threshold=14.618090859159372 16.178521484271545 1.6806484296377997 1.0000000180025095e-35
decision_type=2 2 2 2
left_child=2 3 -1 -2
right_child=1 -3 -4 -5
leaf_value=-0.016871096743031954 -0.0010043822953641035 0.0099898142522821826 -0.0033536544992021477 0.0028916031843009989
leaf_weight=78 803 375 1837 1538
leaf_count=78 803 375 1837 1538
internal_value=0 0.00271979 -0.00390423 0.00155522
internal_weight=0 2716 1915 2341
internal_count=4631 2716 1915 2341
is_linear=0
shrinkage=0.05


Tree=42
num_leaves=5
num_cat=0
split_feature=58 58 40 90
split_gain=17.8571 8.68394 4.97179 3.35547
threshold=14.534440926608317 16.178521484271545 14.05643689708902 1.0000000180025095e-35
decision_type=2 2 2 2
left_child=2 3 -1 -2
right_child=1 -3 -4 -5
leaf_value=-0.010497019666416403 0.001763833167858656 0.0094903235367964963 -0.0029157363041863067 -0.0064259342919809354
leaf_weight=253 2382 375 1489 132
leaf_count=253 2382 375 1489 132
internal_value=0 0.00239256 -0.00401681 0.00133382
internal_weight=0 2889 1742 2514
internal_count=4631 2889 1742 2514
is_linear=0
shrinkage=0.05


Tree=43
num_leaves=5
num_cat=0
split_feature=7 7 24 79
split_gain=17.1297 7.07207 5.82602 3.13383
threshold=2.1576576623905894 2.6764223831288798 1.0000000180025095e-35 1.0000000180025095e-35
decision_type=2 2 2 2
left_child=2 3 -1 -2
right_child=1 -3 -4 -5
leaf_value=-0.011308237658534996 0.0012910097365113702 0.011541921053665027 -0.0028198943461028641 0.0094589265366274173
leaf_weight=234 2595 194 1485 123
leaf_count=234 2595 194 1485 123
internal_value=0 0.00231894 -0.00397538 0.00166064
internal_weight=0 2912 1719 2718
internal_count=4631 2912 1719 2718
is_linear=0
shrinkage=0.05


Tree=44
num_leaves=5
num_cat=0
split_feature=58 58 58 24
split_gain=15.3725 7.71698 4.53801 4.46831
threshold=15.419868667425433 13.732651288260223 16.603324701725771 1.0000000180025095e-35
decision_type=2 2 2 2
left_child=1 3 -2 -1
right_child=2 -3 -4 -5
leaf_value=-0.014849501773443101 0.0035848417398980344 -0.00066467262829335316 0.012823032187791357 -0.004572662279735659
leaf_weight=137 1111 2768 151 464
leaf_count=137 1111 2768 151 464
internal_value=0 -0.00177973 0.0046902 -0.0069153
internal_weight=0 3369 1262 601
internal_count=4631 3369 1262 601
is_linear=0
shrinkage=0.05


Tree=45
num_leaves=5
num_cat=0
split_feature=28 59 17 63
split_gain=12.6217 6.98818 5.68191 3.2803
threshold=13.848394776601216 1.0000000180025095e-35 1.3676401967542762 1.0000000180025095e-35
decision_type=2 2 2 2
left_child=1 2 -1 -2
right_child=3 -3 -4 -5
leaf_value=0.00062787840164936601 0.0054479575959045087 -0.025867704430530814 -0.0034519890084779127 -0.0050614666193723682
leaf_weight=1884 1033 29 1560 80
leaf_count=1884 1033 29 1560 80
internal_value=0 -0.00142596 -0.00122015 0.00469256
internal_weight=0 3473 3444 1113
internal_count=4586 3473 3444 1113
is_linear=0
shrinkage=0.05


Tree=46
num_leaves=5
num_cat=0
split_feature=28 195 34 28
split_gain=11.3911 6.3632 3.71612 3.43215
threshold=13.848394776601216 1.0000000180025095e-35 0.96239039249737179 11.364738886908105
decision_type=2 2 2 2
left_child=1 3 -2 -1
right_child=2 -3 -4 -5
leaf_value=-0.014853071936351412 0.0053096851279264001 0.00045405717061443882 -0.0053419752901922284 -0.0033463648492106906
leaf_weight=68 1024 2026 89 1379
leaf_count=68 1024 2026 89 1379
internal_value=0 -0.00135466 0.00445794 -0.00388711
internal_weight=0 3473 1113 1447
internal_count=4586 3473 1113 1447
is_linear=0
shrinkage=0.05


Tree=47
num_leaves=5
num_cat=0
split_feature=18 32 40 115
split_gain=9.80258 6.78339 4.64331 2.88669
threshold=12.376145785582017 1.0000000180025095e-35 14.05643689708902 1.0000000180025095e-35
decision_type=2 2 2 2
left_child=1 2 -1 -3
right_child=-2 3 -4 -5
leaf_value=-0.0082630814918957188 0.0073624500976025341 -0.0034676861605310648 -0.0015226221402214702 0.0026942312061205742
leaf_weight=288 417 220 2264 1397
leaf_count=288 417 220 2264 1397
internal_value=0 -0.000677869 -0.0022833 0.00185588
internal_weight=0 4169 2552 1617
internal_count=4586 4169 2552 1617
is_linear=0
shrinkage=0.05


Tree=48
num_leaves=5
num_cat=0
split_feature=28 9 28 9
split_gain=9.87837 5.41144 4.33654 3.63437
threshold=13.134150378117679 14.096658260406658 15.045523795502703 14.026384356871157
decision_type=2 2 2 2
left_child=1 -1 3 -2
right_child=2 -3 -4 -5
leaf_value=-0.0072503123576909065 -0.011534487865134783 -0.001124807159445109 0.010577602569929101 0.0019610614600058785
leaf_weight=462 51 1642 145 2286
leaf_count=462 51 1642 145 2286
internal_value=0 -0.00246986 0.00218714 0.00166655
internal_weight=0 2104 2482 2337
internal_count=4586 2104 2482 2337
is_linear=0
shrinkage=0.05


Tree=49
num_leaves=5
num_cat=0
split_feature=38 24 25 1
split_gain=11.4826 5.51753 3.95745 2.70217
threshold=1.0000000180025095e-35 1.0000000180025095e-35 13.906170199759124 5.3747397698236528
decision_type=2 2 2 2
left_child=1 3 -2 -1
right_child=2 -3 -4 -5
leaf_value=-0.020746878657320684 0.0017765491143465065 -0.0016706405090100192 0.0088384543876099588 -0.0071417466603438742
leaf_weight=44 2205 1905 218 214
leaf_count=44 2205 1905 218 214
internal_value=0 -0.00259998 0.00241192 -0.009462
internal_weight=0 2163 2423 258
internal_count=4586 2163 2423 258
is_linear=0
shrinkage=0.05


Tree=50
num_leaves=5
num_cat=0
split_feature=18 63 18 125
split_gain=8.36103 5.00552 3.52824 3.24999
threshold=10.845618490845689 1.0000000180025095e-35 12.990962800695993 1.0000000180025095e-35
decision_type=2 2 2 2
left_child=1 3 -2 -1
right_child=2 -3 -4 -5
leaf_value=-0.0017504660133385722 0.0023245724863599354 -0.0055658460126676579 0.010279170196363105 0.0020437922842597195
leaf_weight=1631 1310 588 156 863
leaf_count=1631 1310 588 156 863
internal_value=0 -0.00141594 0.00317104 -0.000437537
internal_weight=0 3082 1466 2494
internal_count=4548 3082 1466 2494
is_linear=0
shrinkage=0.05


Tree=51
num_leaves=5
num_cat=0
split_feature=35 18 18 24
split_gain=8.18782 5.19229 4.39716 2.69735
threshold=1.3676401967542762 12.376145785582017 7.7370682840008635 1.0000000180025095e-35
decision_type=2 2 2 2
left_child=1 3 -2 -1
right_child=2 -3 -4 -5
leaf_value=-0.0073367494111357444 -0.0050725271238119644 0.0078077344488559205 -0.00045488234616656204 0.0015754503373862209
leaf_weight=89 792 347 1477 1843
leaf_count=89 792 347 1477 1843
internal_value=0 0.00217634 -0.00206668 0.0011649
internal_weight=0 2279 2269 1932
internal_count=4548 2279 2269 1932
is_linear=0
shrinkage=0.05


Tree=52
num_leaves=5
num_cat=0
split_feature=7 36 24 29
split_gain=11.0875 4.5769 3.60491 2.52988
threshold=2.1576576623905894 2.8180483849866156 1.0000000180025095e-35 1.0000000180025095e-35
decision_type=2 2 2 2
left_child=2 3 -1 -2
right_child=1 -3 -4 -5
leaf_value=-0.0090142603247328843 9.5225036117030425e-05 0.0095211163722729725 -0.0022601670814666789 0.0031950671022771731
leaf_weight=229 1550 186 1439 1144
leaf_count=229 1550 186 1439 1144
internal_value=0 0.00193531 -0.00318744 0.00141156
internal_weight=0 2880 1668 2694
internal_count=4548 2880 1668 2694
is_linear=0
shrinkage=0.05


Tree=53
num_leaves=5
num_cat=0
split_feature=58 58 58 18
split_gain=9.51449 4.5001 3.45811 2.16916
threshold=14.618090859159372 16.603324701725771 13.195375812282533 7.7370682840008635
decision_type=2 2 2 2
left_child=2 -2 -1 -4
right_child=1 -3 3 -5
leaf_value=-0.009179091405214581 0.0014682801020306242 0.010300486802969591 -0.0043372056477957504 -0.00061769371402256709
leaf_weight=184 2513 153 614 1084
leaf_count=184 2513 153 614 1084
internal_value=0 0.00197515 -0.00266821 -0.00196268
internal_weight=0 2666 1882 1698
internal_count=4548 2666 1882 1698
is_linear=0
shrinkage=0.05


Tree=54
num_leaves=5
num_cat=0
split_feature=58 58 59 58
split_gain=8.76737 4.71141 4.12607 2.7427
threshold=15.474725656671763 13.837243336409243 1.0000000180025095e-35 16.844402809611847
decision_type=2 2 2 2
left_child=1 2 -1 -2
right_child=3 -3 -4 -5
leaf_value=-0.0043260891954267772 0.0031300355105630447 -0.00028270004342659071 -0.031741370473589214 0.013071664699472841
leaf_weight=697 1110 2653 13.999999999999998 74
leaf_count=697 1110 2653 14 74
internal_value=0 -0.00125139 -0.00486591 0.00375139
internal_weight=0 3364 711 1184
internal_count=4548 3364 711 1184
is_linear=0
shrinkage=0.05


Tree=55
num_leaves=5
num_cat=0
split_feature=23 62 31 29
split_gain=6.37186 4.59406 3.72626 2.17218
threshold=1.0000000180025095e-35 1.0000000180025095e-35 1.3676401967542762 1.0000000180025095e-35
decision_type=2 2 2 2
left_child=2 -2 3 -1
right_child=1 -3 -4 -5
leaf_value=-2.6693735710699553e-05 -0.0059730065249697581 -0.00066154458561519264 0.012922481460216113 0.0030799166997527105
leaf_weight=1188 535 1703 73 1069
leaf_count=1188 535 1703 73 1069
internal_value=0 -0.00193126 0.00180432 0.00144471
internal_weight=0 2238 2330 2257
internal_count=4568 2238 2330 2257
is_linear=0
shrinkage=0.05


Tree=56
num_leaves=5
num_cat=0
split_feature=35 22 22 32
split_gain=5.72564 2.86701 2.40132 1.84669
threshold=1.3676401967542762 14.021485984356358 10.499223774695977 1.0000000180025095e-35
decision_type=2 2 2 2
left_child=1 2 -1 -2
right_child=3 -3 -4 -5
leaf_value=-0.0069619325592481934 -0.0026881478982827864 0.0090564813716043756 0.0016627381947704419 0.00043581980936506807
leaf_weight=84 1633 127 2058 666
leaf_count=84 1633 127 2058 666
internal_value=0 0.00175729 0.00132452 -0.00178316
internal_weight=0 2269 2142 2299
internal_count=4568 2269 2142 2299
is_linear=0
shrinkage=0.05


Tree=57
num_leaves=5
num_cat=0
split_feature=38 58 7 46
split_gain=7.54216 3.95775 3.39685 2.11449
threshold=1.0000000180025095e-35 16.603324701725771 1.6806484296377997 0.96239039249737179
decision_type=2 2 2 2
left_child=2 -2 -1 -4
right_child=1 -3 3 -5
leaf_value=-0.013088035656719644 0.001377176667989428 0.0097899994997295153 -0.0062167472273683281 -0.0012368133919053903
leaf_weight=69 2264 149 241 1845
leaf_count=69 2264 149 241 1845
internal_value=0 0.00189666 -0.00217319 -0.00181216
internal_weight=0 2413 2155 2086
internal_count=4568 2413 2155 2086
is_linear=0
shrinkage=0.05


Tree=58
num_leaves=5
num_cat=0
split_feature=38 9 18 25
split_gain=6.8068 3.52538 2.80203 2.55223
threshold=1.0000000180025095e-35 14.111030500327081 12.536839974012567 10.987217297342655
decision_type=2 2 2 2
left_child=1 3 -2 -1
right_child=2 -3 -4 -5
leaf_value=-0.015301643010159885 0.0011404143534468609 -0.00058547318868267429 0.0061910034352589309 -0.0040183308021562282
leaf_weight=54 2097 1404 316 697
leaf_count=54 2097 1404 316 697
internal_value=0 -0.00206453 0.00180183 -0.00482965
internal_weight=0 2155 2413 751
internal_count=4568 2155 2413 751
is_linear=0
shrinkage=0.05


Tree=59
num_leaves=5
num_cat=0
split_feature=28 28 18 18
split_gain=5.69491 3.34352 2.76554 2.58454
threshold=13.848394776601216 11.364738886908105 9.3153043596286356 12.536839974012567
decision_type=2 2 2 2
left_child=1 -1 -3 -2
right_child=3 2 -4 -5
leaf_value=-0.010425511602838727 0.0020511788817341716 -0.0022753423693993432 0.00059504914889338574 0.008671788267325611
leaf_weight=92 935 1594 1772 175
leaf_count=92 935 1594 1772 175
internal_value=0 -0.00102129 -0.000764251 0.00309497
internal_weight=0 3458 3366 1110
internal_count=4568 3458 3366 1110
is_linear=0
shrinkage=0.05


Tree=60
num_leaves=5
num_cat=0
split_feature=8 63 16 79
split_gain=6.89019 3.58662 2.24934 2.73207
threshold=1.6806484296377997 1.0000000180025095e-35 0.96239039249737179 1.0000000180025095e-35
decision_type=2 2 2 2
left_child=-1 2 -2 -4
right_child=1 -3 3 -5
leaf_value=-0.0075887349444069621 0.0031044550858991137 -0.0030261790776693383 -6.3806228447512784e-05 0.0069678269253329265
leaf_weight=283 985 629 2566 146
leaf_count=283 985 629 2566 146
internal_value=0 0.00046417 0.00105801 0.00031474
internal_weight=0 4326 3697 2712
internal_count=4609 4326 3697 2712
is_linear=0
shrinkage=0.05


Tree=61
num_leaves=5
num_cat=0
split_feature=24 48 22 33
split_gain=4.62661 3.29087 1.95051 1.26343
threshold=1.0000000180025095e-35 4.4091074173173004 14.021485984356358 0.96239039249737179
decision_type=2 2 2 2
left_child=3 -2 -3 -1
right_child=1 2 -4 -5
leaf_value=-0.018429072946310045 -0.00093430817061985181 0.0014841305811111431 0.0085756409091546255 -0.0051199472622528415
leaf_weight=19 2234 1964 102 290
leaf_count=19 2234 1964 102 290
internal_value=0 0.000395885 0.00183424 -0.00593831
internal_weight=0 4300 2066 309
internal_count=4609 4300 2066 309
is_linear=0
shrinkage=0.05


Tree=62
num_leaves=5
num_cat=0
split_feature=38 28 58 79
split_gain=5.33634 3.04772 2.00414 1.14954
threshold=1.0000000180025095e-35 14.109436364646994 13.677397146002567 1.0000000180025095e-35
decision_type=2 2 2 2
left_child=2 3 -1 -2
right_child=1 -3 -4 -5
leaf_value=-0.0049147079720271193 0.00019216065889264292 0.0044897672021408765 -0.0010767205096318157 0.005738518484915146
leaf_weight=421 1658 660 1771 99
leaf_count=421 1658 660 1771 99
internal_value=0 0.00159287 -0.00181385 0.000504676
internal_weight=0 2417 2192 1757
internal_count=4609 2417 2192 1757
is_linear=0
shrinkage=0.05


Tree=63
num_leaves=5
num_cat=0
split_feature=10 28 18 18
split_gain=5.76462 3.5703 2.79093 1.60067
threshold=14.171100218028778 14.109436364646994 8.3253869018694857 4.169585969404392
decision_type=2 2 2 2
left_child=2 3 -1 -2
right_child=1 -3 -4 -5
leaf_value=-0.0041476718759802722 -0.0011031530553474627 0.0054652136845237433 -0.00050322527247647925 0.0019166316025211801
leaf_weight=819 735 501 1465 1089
leaf_count=819 735 501 1465 1089
internal_value=0 0.00172665 -0.00181006 0.000699778
internal_weight=0 2325 2284 1824
internal_count=4609 2325 2284 1824
is_linear=0
shrinkage=0.05


Tree=64
num_leaves=5
num_cat=0
split_feature=58 58 24 1
split_gain=4.29964 2.27663 2.17913 2.2453
threshold=14.534440926608317 16.603324701725771 1.0000000180025095e-35 5.3747397698236528
decision_type=2 2 2 2
left_child=2 -2 3 -1
right_child=1 -3 -4 -5
leaf_value=-0.016493974881165701 0.00086242717117043929 0.0074467115910458919 -0.0013118591166485448 -0.0040020895995213799
leaf_weight=46 2698 138 1562 165
leaf_count=46 2698 138 1562 165
internal_value=0 0.00118282 -0.00195611 -0.00672544
internal_weight=0 2836 1773 211
internal_count=4609 2836 1773 211
is_linear=0
shrinkage=0.05


Tree=65
num_leaves=5
num_cat=0
split_feature=38 28 24 28
split_gain=4.49303 2.43853 1.80502 1.60741
threshold=1.0000000180025095e-35 14.109436364646994 1.0000000180025095e-35 11.364738886908105
decision_type=2 2 2 2
left_child=2 -2 3 -1
right_child=1 -3 -4 -5
leaf_value=-0.017210087732032496 0.00044532644369590034 0.0040168757032352344 -0.0012007378745505616 -0.0043111495818540157
leaf_weight=27 1790 652 1911 229
leaf_count=27 1790 652 1911 229
internal_value=0 0.00139891 -0.0017289 -0.00567158
internal_weight=0 2442 2167 256
internal_count=4609 2442 2167 256
is_linear=0
shrinkage=0.05


Tree=66
num_leaves=5
num_cat=0
split_feature=7 59 7 6
split_gain=4.21359 3.16908 2.44213 2.24822
threshold=2.1576576623905894 1.0000000180025095e-35 2.6764223831288798 1.0000000180025095e-35
decision_type=2 2 2 2
left_child=1 -1 3 -2
right_child=2 -3 -4 -5
leaf_value=-0.0017736215703083574 0.00039629755640377314 -0.019364540454430076 0.0066325626395262851 0.0072878047320691329
leaf_weight=1678 2595 26 186 124
leaf_count=1678 2595 26 186 124
internal_value=0 -0.00204203 0.00108975 0.000710585
internal_weight=0 1704 2905 2719
internal_count=4609 1704 2905 2719
is_linear=0
shrinkage=0.05


Tree=67
num_leaves=5
num_cat=0
split_feature=58 16 58 37
split_gain=3.9736 2.67314 2.51216 2.45411
threshold=13.920470948590836 1.3676401967542762 16.844402809611847 2.1576576623905894
decision_type=2 2 2 2
left_child=-1 2 -2 -3
right_child=1 3 -4 -5
leaf_value=-0.0032609053079550917 0.0020494545130432351 -0.0053543640448126054 0.013598819799265083 0.00015855550830676097
leaf_weight=803 1204 221 49 2332
leaf_count=803 1204 221 49 2332
internal_value=0 0.000609649 0.00250111 -0.000318669
internal_weight=0 3806 1253 2553
internal_count=4609 3806 1253 2553
is_linear=0
shrinkage=0.05


Tree=68
num_leaves=5
num_cat=0
split_feature=8 2 17 58
split_gain=4.78302 3.29077 1.96564 1.88642
threshold=1.6806484296377997 20.892709427714664 1.3676401967542762 16.844402809611847
decision_type=2 2 2 2
left_child=-1 2 -2 -3
right_child=1 3 -4 -5
leaf_value=-0.0063947987057534714 0.00083461155818501586 0.0027722267022461003 -0.0014952812174701955 0.012763661255731302
leaf_weight=280 1939 641 1698 51
leaf_count=280 1939 641 1698 51
internal_value=0 0.000348179 -0.000253142 0.00350859
internal_weight=0 4329 3637 692
internal_count=4609 4329 3637 692
is_linear=0
shrinkage=0.05


Tree=69
num_leaves=5
num_cat=0
split_feature=38 2 17 12
split_gain=3.48807 2.07047 2.011 1.38626
threshold=1.0000000180025095e-35 24.121738162739728 1.3676401967542762 1.0000000180025095e-35
decision_type=2 2 2 2
left_child=2 3 -1 -2
right_child=1 -3 -4 -5
leaf_value=6.1185749638397463e-05 0.0057339928700620765 0.010041541236524398 -0.0029871659098801148 0.00068883007522498214
leaf_weight=1044 145 65 1123 2232
leaf_count=1044 145 65 1123 2232
internal_value=0 0.00123735 -0.00151856 0.000996591
internal_weight=0 2442 2167 2377
internal_count=4609 2442 2167 2377
is_linear=0
shrinkage=0.05


Tree=70
num_leaves=5
num_cat=0
split_feature=7 21 9 7
split_gain=2.9596 1.81537 1.61581 1.42478
threshold=2.1576576623905894 10.451824665701276 14.194544279640917 1.3676401967542762
decision_type=2 2 2 2
left_child=1 3 -2 -1
right_child=2 -3 -4 -5
leaf_value=-0.015763830691576004 0.00073309745385089029 -0.0038560587331500015 0.0065014725448343698 -0.00025180099439712616
leaf_weight=14.999999999999998 2754 598 127 1127
leaf_count=15 2754 598 127 1127
internal_value=0 -0.00162423 0.000987378 -0.000455549
internal_weight=0 1740 2881 1142
internal_count=4621 1740 2881 1142
is_linear=0
shrinkage=0.05


Tree=71
num_leaves=5
num_cat=0
split_feature=23 58 28 21
split_gain=2.90129 2.10439 1.75162 1.32422
threshold=1.0000000180025095e-35 13.920470948590836 14.109436364646994 10.451824665701276
decision_type=2 2 2 2
left_child=2 -2 -1 -3
right_child=1 3 -4 -5
leaf_value=0.00052744714889224609 -0.0039694761046952477 0.00083812312833800653 0.0038646234287065457 -0.0019400213047092855
leaf_weight=1841 547 953 500 780
leaf_count=1841 547 953 500 780
internal_value=0 -0.0012657 0.00124021 -0.000412282
internal_weight=0 2280 2341 1733
internal_count=4621 2280 2341 1733
is_linear=0
shrinkage=0.05


Tree=72
num_leaves=5
num_cat=0
split_feature=18 47 79 7
split_gain=2.68641 2.06951 1.79857 1.43287
threshold=8.3253869018694857 5.1530511107722008 1.0000000180025095e-35 2.5214314235676833
decision_type=2 2 2 2
left_child=1 -1 3 -2
right_child=2 -3 -4 -5
leaf_value=-0.0029261424414760897 0.00023926172267082162 0.000446175356780251 0.0076784726693150925 0.0033874670152575117
leaf_weight=1053 2239 801 97 431
leaf_count=1053 2239 801 97 431
internal_value=0 -0.00146917 0.000990429 0.000747455
internal_weight=0 1854 2767 2670
internal_count=4621 1854 2767 2670
is_linear=0
shrinkage=0.05


Tree=73
num_leaves=5
num_cat=0
split_feature=8 215 16 43
split_gain=3.55485 2.75036 1.69282 1.42058
threshold=1.6806484296377997 1.0000000180025095e-35 1.3676401967542762 8.2009380945856787
decision_type=2 2 2 2
left_child=-1 2 -2 -3
right_child=1 3 -4 -5
leaf_value=-0.0053856674953321653 0.0021181463037419565 -0.013460251483085909 -4.1101426493706784e-05 -0.0030435578804194926
leaf_weight=287 1370 38 2690 236
leaf_count=287 1370 38 2690 236
internal_value=0 0.000360297 0.000687512 -0.00448821
internal_weight=0 4334 4060 274
internal_count=4621 4334 4060 274
is_linear=0
shrinkage=0.05


Tree=74
num_leaves=5
num_cat=0
split_feature=10 8 38 2
split_gain=4.02651 2.36575 1.77387 1.50956
threshold=14.152236763120525 1.9379878208504662 0.96239039249737179 18.525012676151327
decision_type=2 2 2 2
left_child=1 -1 -2 -3
right_child=2 3 -4 -5
leaf_value=-0.0034004457720155433 0.00086283546323809269 -0.0034284379061352449 0.0057414371473946384 0.0014192726479119104
leaf_weight=1026 2552 216 201 626
leaf_count=1026 2552 216 201 626
internal_value=0 -0.00178851 0.00121903 0.000175679
internal_weight=0 1868 2753 842
internal_count=4621 1868 2753 842
is_linear=0
shrinkage=0.05


Tree=75
num_leaves=5
num_cat=0
split_feature=38 25 220 0
split_gain=2.59106 2.24671 1.38905 1.2591
threshold=0.96239039249737179 10.987217297342655 1.0000000180025095e-35 2.8180483849866156
decision_type=2 2 2 2
left_child=1 -1 3 -3
right_child=-2 2 -4 -5
leaf_value=-0.0056361248173948421 0.0040870098075129011 -0.0010467289026886305 0.0029051825888902162 0.00088809091611106539
leaf_weight=191 359 2415 354 1290
leaf_count=191 359 2415 354 1290
internal_value=0 -0.000336536 -8.7159e-05 -0.000373067
internal_weight=0 4250 4059 3705
internal_count=4609 4250 4059 3705
is_linear=0
shrinkage=0.05


Tree=76
num_leaves=5
num_cat=0
split_feature=215 28 37 63
split_gain=2.70503 2.08924 1.87058 1.42248
threshold=1.0000000180025095e-35 15.045523795502703 0.96239039249737179 1.0000000180025095e-35
decision_type=2 2 2 2
left_child=1 2 -1 -4
right_child=-2 -3 3 -5
leaf_value=-0.0097745376738145005 -0.0044419534981532238 0.0066292825208279288 0.00064152214788251521 -0.0019907548212595035
leaf_weight=47 318 128 3515 601
leaf_count=47 318 128 3515 601
internal_value=0 0.000337369 0.000143911 0.000257169
internal_weight=0 4291 4163 4116
internal_count=4609 4291 4163 4116
is_linear=0
shrinkage=0.05


Tree=77
num_leaves=5
num_cat=0
split_feature=8 38 47 37
split_gain=3.77182 2.2631 1.76899 1.42045
threshold=1.6806484296377997 0.96239039249737179 7.71152114691166 2.1576576623905894
decision_type=2 2 2 2
left_child=-1 2 3 -2
right_child=1 -3 -4 -5
leaf_value=-0.0057042950743754562 -0.0058052849641069774 0.0043067674782962841 0.0018072896487617241 -0.00035904008435515863
leaf_weight=272 125 336 1041 2835
leaf_count=272 125 336 1041 2835
internal_value=0 0.000365442 3.44537e-05 -0.000589034
internal_weight=0 4337 4001 2960
internal_count=4609 4337 4001 2960
is_linear=0
shrinkage=0.05


Tree=78
num_leaves=5
num_cat=0
split_feature=8 59 58 8
split_gain=3.42112 2.77512 1.97609 1.96611
threshold=1.3676401967542762 1.0000000180025095e-35 16.603324701725771 2.1576576623905894
decision_type=2 2 2 2
left_child=-1 2 3 -2
right_child=1 -3 -4 -5
leaf_value=-0.0093832159880548726 -0.00044498350549224748 -0.016083568696362471 0.0061893540147718966 0.0021407291866337489
leaf_weight=95 3413 26 138 937
leaf_count=95 3413 26 138 937
internal_value=0 0.000204495 0.000298856 0.000111985
internal_weight=0 4514 4488 4350
internal_count=4609 4514 4488 4350
is_linear=0
shrinkage=0.05


Tree=79
num_leaves=5
num_cat=0
split_feature=8 2 2 2
split_gain=3.14531 2.61883 1.43982 1.39523
threshold=1.6806484296377997 20.892709427714664 24.121738162739728 17.929007414136713
decision_type=2 2 2 2
left_child=-1 3 -3 -2
right_child=1 2 -4 -5
leaf_value=-0.005209118541268468 -0.002325789591194507 0.0024171595438110672 0.010339273027484379 0.00024620308909468314
leaf_weight=272 640 640 63 2994
leaf_count=272 640 640 63 2994
internal_value=0 0.000333637 0.00312711 -0.000206762
internal_weight=0 4337 703 3634
internal_count=4609 4337 703 3634
is_linear=0
shrinkage=0.05


Tree=80
num_leaves=5
num_cat=0
split_feature=8 215 18 8
split_gain=3.10184 1.66865 1.40126 1.16653
threshold=1.6806484296377997 1.0000000180025095e-35 9.3153043596286356 2.1576576623905894
decision_type=2 2 2 2
left_child=-1 2 3 -2
right_child=1 -3 -4 -5
leaf_value=-0.0051025445409114975 -0.001157786445349882 -0.0034225250217165509 0.0014141895146544215 0.0017883419821550098
leaf_weight=280 1391 278 2259 443
leaf_count=280 1391 278 2259 443
internal_value=0 0.000326 0.000580603 -0.000446153
internal_weight=0 4371 4093 1834
internal_count=4651 4371 4093 1834
is_linear=0
shrinkage=0.05


Tree=81
num_leaves=5
num_cat=0
split_feature=8 58 215 0
split_gain=2.79941 1.77658 1.31551 1.08592
threshold=1.6806484296377997 15.765508749054154 1.0000000180025095e-35 3.3894353769711834
decision_type=2 2 2 2
left_child=-1 2 -2 -3
right_child=1 3 -4 -5
leaf_value=-0.0048474172883529072 0.00010639410105471933 0.0030274823991993769 -0.0037391149603268679 -0.0049868398221830533
leaf_weight=280 3392 696 238 45
leaf_count=280 3392 696 238 45
internal_value=0 0.0003097 -0.000145736 0.00254078
internal_weight=0 4371 3630 741
internal_count=4651 4371 3630 741
is_linear=0
shrinkage=0.05


Tree=82
num_leaves=5
num_cat=0
split_feature=2 59 2 79
split_gain=2.34867 2.10099 1.9274 1.81508
threshold=17.929007414136713 1.0000000180025095e-35 24.121738162739728 1.0000000180025095e-35
decision_type=2 2 2 2
left_child=-1 2 3 -2
right_child=1 -3 -4 -5
leaf_value=-0.0026882232561242511 0.00020421196482256897 -0.012290800461778419 0.008458060128491764 0.0059449438443667929
leaf_weight=692 3708 32 76 143
leaf_count=692 3708 32 76 143
internal_value=0 0.00046902 0.000572997 0.000417384
internal_weight=0 3959 3927 3851
internal_count=4651 3959 3927 3851
is_linear=0
shrinkage=0.05


Tree=83
num_leaves=5
num_cat=0
split_feature=8 38 2 47
split_gain=2.54391 2.22999 1.63932 1.46976
threshold=1.3676401967542762 0.96239039249737179 17.929007414136713 5.5432820482878951
decision_type=2 2 2 2
left_child=3 2 -2 -1
right_child=1 -3 -4 -5
leaf_value=-0.012143469415605068 -0.0024166629744427149 0.0039490226606075235 0.00028001001576802249 0.000747915506927353
leaf_weight=67 671 360 3520 33
leaf_count=67 671 360 3520 33
internal_value=0 0.000172644 -0.000151741 -0.00788931
internal_weight=0 4551 4191 100
internal_count=4651 4551 4191 100
is_linear=0
shrinkage=0.05


Tree=84
num_leaves=5
num_cat=0
split_feature=40 2 2 7
split_gain=2.03701 2.06099 1.84159 1.25534
threshold=14.194544279640917 17.929007414136713 24.121738162739728 2.8180483849866156
decision_type=2 2 2 2
left_child=1 -1 3 -3
right_child=-2 2 -4 -5
leaf_value=-0.0027499678905189792 0.0055252438110316767 2.0872218998324333e-05 0.0079563653035285443 0.011492965257881831
leaf_weight=673 161 3717 76 24
leaf_count=673 161 3717 76 24
internal_value=0 -0.000198804 0.000251008 9.44702e-05
internal_weight=0 4490 3817 3741
internal_count=4651 4490 3817 3741
is_linear=0
shrinkage=0.05


Tree=85
num_leaves=5
num_cat=0
split_feature=17 31 212 34
split_gain=1.87321 1.41913 0.88103 0.785453
threshold=1.3676401967542762 1.3676401967542762 1.0000000180025095e-35 0.96239039249737179
decision_type=2 2 2 2
left_child=1 2 -1 -2
right_child=3 -3 -4 -5
leaf_value=0.00042471263919007955 -0.00088987281750903258 0.0099694704157411163 0.0040431818511873704 -0.0044897508296388678
leaf_weight=2222 1992 42 182 164
leaf_count=2222 1992 42 182 164
internal_value=0 0.000857845 0.000698657 -0.0011637
internal_weight=0 2446 2404 2156
internal_count=4602 2446 2404 2156
is_linear=0
shrinkage=0.05


Tree=86
num_leaves=5
num_cat=0
split_feature=37 18 17 1
split_gain=1.75416 1.38124 1.08744 0.912613
threshold=2.1576576623905894 12.647114324969696 2.1576576623905894 6.645016271656992
decision_type=2 2 2 2
left_child=2 -2 -1 -3
right_child=1 3 -4 -5
leaf_value=-0.0018726979954795831 -5.9779136183730056e-05 0.0022519137471143408 -0.0084353278641289258 0.0097451218557116411
leaf_weight=230 3998 238 87 49
leaf_count=230 3998 238 87 49
internal_value=0 0.00018074 -0.0036738 0.00353124
internal_weight=0 4285 317 287
internal_count=4602 4285 317 287
is_linear=0
shrinkage=0.05


Tree=87
num_leaves=5
num_cat=0
split_feature=8 2 40 8
split_gain=2.26256 1.76201 1.60123 1.89524
threshold=1.3676401967542762 24.121738162739728 14.194544279640917 2.1576576623905894
decision_type=2 2 2 2
left_child=-1 2 3 -2
right_child=1 -3 -4 -5
leaf_value=-0.0073359683836765948 -0.00077637747565380657 0.0076884860278417667 0.0048390213989388253 0.0017936865718926121
leaf_weight=105 3347 75 162 913
leaf_count=105 3347 75 162 913
internal_value=0 8.88722e-05 -4.00222e-05 -0.000225563
internal_weight=0 4497 4422 4260
internal_count=4602 4497 4422 4260
is_linear=0
shrinkage=0.05


Tree=88
num_leaves=5
num_cat=0
split_feature=16 215 141 0
split_gain=1.81328 1.42598 1.04781 0.878963
threshold=1.3676401967542762 1.0000000180025095e-35 1.0000000180025095e-35 2.6764223831288798
decision_type=2 2 2 2
left_child=2 3 -1 -2
right_child=1 -3 -4 -5
leaf_value=0.0012366133328289243 -0.0012243431279045226 -0.0044558577699838984 0.013722988305722966 0.00052544975190105421
leaf_weight=1439 1613 240 17 1293
leaf_count=1439 1613 240 17 1293
internal_value=0 -0.000751705 0.0013824 -0.000445788
internal_weight=0 3146 1456 2906
internal_count=4602 3146 1456 2906
is_linear=0
shrinkage=0.05


Tree=89
num_leaves=5
num_cat=0
split_feature=7 2 25 7
split_gain=1.72084 1.85689 1.35755 1.34359
threshold=2.1576576623905894 22.987318424081472 10.987217297342655 1.6806484296377997
decision_type=2 2 2 2
left_child=2 -2 3 -1
right_child=1 -3 -4 -5
leaf_value=-0.021992913805521454 0.0004320616306865005 0.0073665583371184777 -0.00097933241776926869 -0.0047464765588005704
leaf_weight=12.999999999999998 2788 100 1615 86
leaf_count=13 2788 100 1615 86
internal_value=0 0.000672176 -0.00132773 -0.00701116
internal_weight=0 2888 1714 99
internal_count=4602 2888 1714 99
is_linear=0
shrinkage=0.05


Tree=90
num_leaves=5
num_cat=0
split_feature=38 215 29 9
split_gain=1.68417 1.62947 1.28032 0.820833
threshold=0.96239039249737179 1.0000000180025095e-35 1.0000000180025095e-35 14.189867401299219
decision_type=2 2 2 2
left_child=1 2 -1 -4
right_child=-2 -3 3 -5
leaf_value=-0.00070380297677625321 0.0031655967478711115 -0.0038719480565610541 0.00062663688825892547 0.0037383303602433041
leaf_weight=2440 395 289 1333 252
leaf_count=2440 395 289 1333 252
internal_value=0 -0.000245458 1.49284e-05 0.00112137
internal_weight=0 4314 4025 1585
internal_count=4709 4314 4025 1585
is_linear=0
shrinkage=0.05


Tree=91
num_leaves=5
num_cat=0
split_feature=10 28 28 21
split_gain=2.27376 1.32418 0.992201 0.815669
threshold=14.171100218028778 15.317562568640874 11.364738886908105 10.451824665701276
decision_type=2 2 2 2
left_child=2 -2 -1 -4
right_child=1 -3 3 -5
leaf_value=-0.00708904996125111 0.00092288323407714579 0.0086348843009194775 -0.00012820975980472294 -0.0020860264762771435
leaf_weight=67 2370 57 1327 888
leaf_count=67 2370 57 1327 888
internal_value=0 0.00110401 -0.00109443 -0.000913104
internal_weight=0 2427 2282 2215
internal_count=4709 2427 2282 2215
is_linear=0
shrinkage=0.05


Tree=92
num_leaves=5
num_cat=0
split_feature=47 40 25 26
split_gain=1.50365 1.04041 1.11489 0.827539
threshold=7.71152114691166 14.194544279640917 10.987217297342655 13.01379546259882
decision_type=2 2 2 2
left_child=1 2 -1 -2
right_child=3 -3 -4 -5
leaf_value=-0.0047484578986216009 0.0013391326141527278 0.004360034539599285 -0.00044644767546869209 0.0098869429804898552
leaf_weight=158 1199 107 3216 29
leaf_count=158 1199 107 3216 29
internal_value=0 -0.00049397 -0.000647905 0.00154099
internal_weight=0 3481 3374 1228
internal_count=4709 3481 3374 1228
is_linear=0
shrinkage=0.05


Tree=93
num_leaves=5
num_cat=0
split_feature=51 17 31 7
split_gain=1.35884 1.43484 1.08788 0.732884
threshold=7.26176222578761 1.3676401967542762 1.3676401967542762 2.1576576623905894
decision_type=2 2 2 2
left_child=1 2 -1 -3
right_child=-2 3 -4 -5
leaf_value=0.00052780110742480554 0.0033382775138406568 -0.0021902857089125729 0.0092869602557685647 -0.00029720551369931045
leaf_weight=2313 292 925 36 1143
leaf_count=2313 292 925 36 1143
internal_value=0 -0.000183515 0.000662041 -0.00114397
internal_weight=0 4417 2349 2068
internal_count=4709 4417 2349 2068
is_linear=0
shrinkage=0.05


Tree=94
num_leaves=5
num_cat=0
split_feature=2 51 47 52
split_gain=1.53797 1.10707 1.1998 0.938044
threshold=17.929007414136713 7.26176222578761 7.71152114691166 10.452990929423803
decision_type=2 2 2 2
left_child=-1 2 -2 -4
right_child=1 -3 3 -5
leaf_value=-0.0021551054348468608 -0.00039346056250528448 0.0035047789599588937 0.0014085381116850874 0.014919225241129215
leaf_weight=686 2648 269 1093 12.999999999999998
leaf_count=686 2648 269 1093 13
internal_value=0 0.00040626 0.00018423 0.00156734
internal_weight=0 4023 3754 1106
internal_count=4709 4023 3754 1106
is_linear=0
shrinkage=0.05


Tree=95
num_leaves=5
num_cat=0
split_feature=2 2 43 34
split_gain=1.29143 1.05832 1.00142 0.985323
threshold=24.121738162739728 17.929007414136713 9.6601482979266908 0.96239039249737179
decision_type=2 2 2 2
left_child=1 2 -1 -3
right_child=-2 3 -4 -5
leaf_value=-0.0041777810771959157 0.0065206899357223378 0.00036125723735113877 -0.00022980940459082193 -0.0033138054655864838
leaf_weight=292 74 3642 357 192
leaf_count=292 74 3642 357 192
internal_value=0 -0.000138859 -0.00200609 0.000177217
internal_weight=0 4483 649 3834
internal_count=4557 4483 649 3834
is_linear=0
shrinkage=0.05


Tree=96
num_leaves=5
num_cat=0
split_feature=10 59 120 63
split_gain=2.02039 1.12533 1.19949 0.884452
threshold=14.171100218028778 1.0000000180025095e-35 1.0000000180025095e-35 1.0000000180025095e-35
decision_type=2 2 2 2
left_child=1 3 -3 -1
right_child=-2 2 -4 -5
leaf_value=-0.00050312709597494655 0.00099648176062548622 -0.022191766019050888 -0.0010999428041811499 -0.0030787458298117401
leaf_weight=1782 2338 13 14 410
leaf_count=1782 2338 13 14 410
internal_value=0 -0.00110985 -0.0112553 -0.000984881
internal_weight=0 2219 27 2192
internal_count=4557 2219 27 2192
is_linear=0
shrinkage=0.05


Tree=97
num_leaves=5
num_cat=0
split_feature=59 37 145 0
split_gain=1.45608 1.21742 1.08858 0.883088
threshold=1.0000000180025095e-35 2.1576576623905894 1.0000000180025095e-35 2.8180483849866156
decision_type=2 2 2 2
left_child=1 -1 3 -3
right_child=-2 2 -4 -5
leaf_value=-0.0030043882234632724 -0.010827108562713669 -0.00043424554105565833 0.004701157905067554 0.0010936534411789699
leaf_weight=305 31 2601 134 1486
leaf_count=305 31 2601 134 1486
internal_value=0 4.62468e-05 0.000266679 0.000121286
internal_weight=0 4526 4221 4087
internal_count=4557 4526 4221 4087
is_linear=0
shrinkage=0.05


Tree=98
num_leaves=5
num_cat=0
split_feature=48 100 18 1
split_gain=1.3148 0.835209 0.618996 0.617104
threshold=5.5754587415114498 1.0000000180025095e-35 12.990962800695993 4.3148641937694601
decision_type=2 2 2 2
left_child=1 -1 -2 -3
right_child=2 3 -4 -5
leaf_value=-0.0026414207323151532 0.0010349123469776823 -0.0036679511299947142 0.0059990552310464967 -9.9867644963474552e-05
leaf_weight=426 1294 127 66 2644
leaf_count=426 1294 127 66 2644
internal_value=0 -0.000580271 0.00127582 -0.000263399
internal_weight=0 3197 1360 2771
internal_count=4557 3197 1360 2771
is_linear=0
shrinkage=0.05


Tree=99
num_leaves=5
num_cat=0
split_feature=10 9 184 26
split_gain=1.74296 0.813456 0.786519 0.747081
threshold=14.171100218028778 14.04347210851583 1.0000000180025095e-35 13.01379546259882
decision_type=2 2 2 2
left_child=1 2 -1 -2
right_child=3 -3 -4 -5
leaf_value=-0.016248424897591273 0.00079822428282322355 -0.00084003914994563642 -0.0035992073230719304 0.0071010864650209744
leaf_weight=14.999999999999998 2290 2136 68 48
leaf_count=15 2290 2136 68 48
internal_value=0 -0.00102875 -0.00588521 0.000927624
internal_weight=0 2219 83 2338
internal_count=4557 2219 83 2338
is_linear=0
shrinkage=0.05


Tree=100
num_leaves=5
num_cat=0
split_feature=59 63 98 15
split_gain=1.47433 0.997888 0.818661 0.640613
threshold=1.0000000180025095e-35 1.0000000180025095e-35 1.0000000180025095e-35 1.0000000180025095e-35
decision_type=2 2 2 2
left_child=1 2 3 -1
right_child=-2 -3 -4 -5
leaf_value=-0.0040143940603714371 -0.011260282800629221 -0.0017172706961408176 -0.0042529594170504269 0.0005639268677275353
leaf_weight=78 29 681 94 3737
leaf_count=78 29 681 94 3737
internal_value=0 4.90267e-05 0.000356739 0.00047032
internal_weight=0 4590 3909 3815
internal_count=4619 4590 3909 3815
is_linear=0
shrinkage=0.05


Tree=101
num_leaves=5
num_cat=0
split_feature=215 51 48 58
split_gain=1.3895 1.01605 0.84425 0.590842
threshold=1.0000000180025095e-35 7.26176222578761 5.5106175135260846 13.195375812282533
decision_type=2 2 2 2
left_child=1 2 3 -1
right_child=-2 -3 -4 -5
leaf_value=-0.0037019880280878617 -0.0031730824869412645 0.003241059995625236 0.0011014680922869593 -0.00029893300731256541
leaf_weight=134 325 261 1250 2649
leaf_count=134 325 261 1250 2649
internal_value=0 0.000217702 2.20419e-05 -0.000462788
internal_weight=0 4294 4033 2783
internal_count=4619 4294 4033 2783
is_linear=0
shrinkage=0.05


Tree=102
num_leaves=5
num_cat=0
split_feature=32 37 9 9
split_gain=1.20294 1.17589 0.995533 0.898601
threshold=1.0000000180025095e-35 0.96239039249737179 14.104649794394357 14.088649258562524
decision_type=2 2 2 2
left_child=1 -1 -3 -2
right_child=3 2 -4 -5
leaf_value=-0.0080951273154753912 0.004316015575785895 -0.0019842407496672362 8.6459693710333054e-05 0.00062856293561820145
leaf_weight=52 185 814 2023 1545
leaf_count=52 185 814 2023 1545
internal_value=0 -0.00064424 -0.000507671 0.00102289
internal_weight=0 2889 2837 1730
internal_count=4619 2889 2837 1730
is_linear=0
shrinkage=0.05


Tree=103
num_leaves=5
num_cat=0
split_feature=59 38 25 40
split_gain=1.29693 1.05429 0.894671 0.855614
threshold=1.0000000180025095e-35 0.96239039249737179 11.695832813885263 14.194544279640917
decision_type=2 2 2 2
left_child=1 3 -2 -1
right_child=2 -3 -4 -5
leaf_value=-0.00032117718815919224 -0.020302332593844483 0.0025556696375057682 -0.0026432109763845804 0.0034524041622763695
leaf_weight=4050 13.000000000000002 384 15.999999999999998 156
leaf_count=4050 13 384 16 156
internal_value=0 4.77526e-05 -0.0105594 -0.000181216
internal_weight=0 4590 29 4206
internal_count=4619 4590 29 4206
is_linear=0
shrinkage=0.05


Tree=104
num_leaves=5
num_cat=0
split_feature=8 40 59 25
split_gain=1.77831 1.94887 1.50699 1.00928
threshold=2.1576576623905894 14.172667812228061 1.0000000180025095e-35 10.987217297342655
decision_type=2 2 2 2
left_child=1 2 3 -1
right_child=-2 -3 -4 -5
leaf_value=-0.0064385790815408425 0.0019255845226983015 0.00077312976315240141 -0.015199826322495939 -0.0011596177533809385
leaf_weight=95 938 1636 20 1930
leaf_count=95 938 1636 20 1930
internal_value=0 -0.000513144 -0.00154216 -0.00140727
internal_weight=0 3681 2045 2025
internal_count=4619 3681 2045 2025
is_linear=0
shrinkage=0.05


Tree=105
num_leaves=5
num_cat=0
split_feature=79 29 28 10
split_gain=1.6089 1.21935 0.841259 0.744579
threshold=1.0000000180025095e-35 1.0000000180025095e-35 12.499273279231303 14.171100218028778
decision_type=2 2 2 2
left_child=1 2 -1 -3
right_child=-2 3 -4 -5
leaf_value=-0.0023708600323783953 0.0048737670130486301 -0.00028650294446265018 -0.00031084648779909526 0.0017285889211487158
leaf_weight=666 166 821 1937 1038
leaf_count=666 166 821 1937 1038
internal_value=0 -0.00013941 -0.000837919 0.000838653
internal_weight=0 4462 2603 1859
internal_count=4628 4462 2603 1859
is_linear=0
shrinkage=0.05


Tree=106
num_leaves=5
num_cat=0
split_feature=79 18 18 10
split_gain=1.45204 1.11371 0.821676 0.715563
threshold=1.0000000180025095e-35 8.3253869018694857 13.438809442292554 14.172667812228061
decision_type=2 2 2 2
left_child=1 -1 3 -3
right_child=-2 2 -4 -5
leaf_value=-0.0010993680627684489 0.0046300787149075734 -0.00035796748238869989 0.0075367610515436022 0.0012950512487184785
leaf_weight=1786 166 1421 41 1214
leaf_count=1786 166 1421 41 1214
internal_value=0 -0.000132439 0.000512903 0.000403613
internal_weight=0 4462 2676 2635
internal_count=4628 4462 2676 2635
is_linear=0
shrinkage=0.05


Tree=107
num_leaves=5
num_cat=0
split_feature=18 145 212 47
split_gain=1.11136 1.00583 0.815346 0.738074
threshold=8.3253869018694857 1.0000000180025095e-35 1.0000000180025095e-35 5.5432820482878951
decision_type=2 2 2 2
left_child=3 2 -2 -1
right_child=1 -3 -4 -5
leaf_value=-0.0017752489995030982 0.00025884945696726385 0.0052868721169106398 0.0040651038173436125 0.00025076173739925701
leaf_weight=1061 2525 113 149 780
leaf_count=1061 2525 113 149 780
internal_value=0 0.000666204 0.000470941 -0.000916863
internal_weight=0 2787 2674 1841
internal_count=4628 2787 2674 1841
is_linear=0
shrinkage=0.05


Tree=108
num_leaves=5
num_cat=0
split_feature=8 41 22 8
split_gain=1.58045 1.16232 0.782136 0.663826
threshold=2.1576576623905894 1.3676401967542762 14.276896692858658 1.3676401967542762
decision_type=2 2 2 2
left_child=1 2 -1 -3
right_child=-2 3 -4 -5
leaf_value=8.4864581506798666e-05 0.0018527019357314108 -0.007158624373662931 0.0059151844879201916 -0.0013948186615566306
leaf_weight=2297 950 52 59 1270
leaf_count=2297 950 52 59 1270
internal_value=0 -0.000434948 0.00023087 -0.00162153
internal_weight=0 3678 2356 1322
internal_count=4628 3678 2356 1322
is_linear=0
shrinkage=0.05


Tree=109
num_leaves=5
num_cat=0
split_feature=8 90 32 31
split_gain=1.42636 1.16791 0.863284 0.878831
threshold=2.1576576623905894 1.0000000180025095e-35 1.0000000180025095e-35 1.3676401967542762
decision_type=2 2 2 2
left_child=1 2 -1 -4
right_child=-2 -3 3 -5
leaf_value=-0.00086919628326685434 0.0017600668462814371 -0.0043640778665535486 0.00051244392446352116 0.0078528699642490783
leaf_weight=2059 950 178 1399 42
leaf_count=2059 950 178 1399 42
internal_value=0 -0.0004132 -0.00021227 0.000726391
internal_weight=0 3678 3500 1441
internal_count=4628 3678 3500 1441
is_linear=0
shrinkage=0.05


Tree=110
num_leaves=5
num_cat=0
split_feature=0 29 7 7
split_gain=0.772119 1.13464 0.887369 0.800774
threshold=2.6764223831288798 1.0000000180025095e-35 2.8180483849866156 1.6806484296377997
decision_type=2 2 2 2
left_child=1 -1 -2 -3
right_child=2 3 -4 -5
leaf_value=-0.0015222237720422106 0.00065391326432652052 -0.0093343812040984631 0.0096166310964950503 0.00075438717188576053
leaf_weight=1351 2015 20 28 1187
leaf_count=1351 2015 20 28 1187
internal_value=0 -0.000526878 0.00077675 0.000587216
internal_weight=0 2558 2043 1207
internal_count=4601 2558 2043 1207
is_linear=0
shrinkage=0.05


Tree=111
num_leaves=5
num_cat=0
split_feature=2 28 189 16
split_gain=1.08466 0.900789 0.66575 0.612551
threshold=24.121738162739728 11.364738886908105 1.0000000180025095e-35 1.3676401967542762
decision_type=2 2 2 2
left_child=1 2 -1 -3
right_child=-2 3 -4 -5
leaf_value=-0.0029991653598845005 0.0059730810743195964 0.00091654291315351397 -0.014233713177964092 -0.00034804998359260451
leaf_weight=75 76 1399 15.999999999999998 3035
leaf_count=75 76 1399 16 3035
internal_value=0 -5.01138e-05 -0.00497447 5.09499e-05
internal_weight=0 4525 91 4434
internal_count=4601 4525 91 4434
is_linear=0
shrinkage=0.05


Tree=112
num_leaves=5
num_cat=0
split_feature=8 9 1 1
split_gain=1.17843 2.01145 0.899648 0.820159
threshold=1.9379878208504662 14.101455271635276 4.3148641937694601 7.3010638063525866
decision_type=2 2 2 2
left_child=1 -1 -3 -4
right_child=-2 2 3 -5
leaf_value=-0.0045587086032161063 0.0010825364679193056 -0.0051027146601964812 -5.3599499622241622e-05 0.0087080820360117498
leaf_weight=285 1720 88 2481 27
leaf_count=285 1720 88 2481 27
internal_value=0 -0.000571376 -0.000133629 4.07248e-05
internal_weight=0 2881 2596 2508
internal_count=4601 2881 2596 2508
is_linear=0
shrinkage=0.05


Tree=113
num_leaves=5
num_cat=0
split_feature=18 0 9 34
split_gain=0.767267 0.685237 1.04834 0.891436
threshold=12.990962800695993 2.6764223831288798 14.088649258562524 0.96239039249737179
decision_type=2 2 2 2
left_child=1 2 -1 -3
right_child=-2 3 -4 -5
leaf_value=-0.0033690885886574679 0.0035142509259174686 0.00090716198338367427 -0.00024472908613686436 -0.0031507141998178031
leaf_weight=307 154 1854 2140 146
leaf_count=307 154 1854 2140 146
internal_value=0 -7.55917e-05 -0.00063671 0.000610937
internal_weight=0 4447 2447 2000
internal_count=4601 4447 2447 2000
is_linear=0
shrinkage=0.05


Tree=114
num_leaves=5
num_cat=0
split_feature=69 51 215 35
split_gain=0.86451 0.79874 0.640708 0.853869
threshold=1.0000000180025095e-35 7.0876226189541818 1.0000000180025095e-35 0.96239039249737179
decision_type=2 2 2 2
left_child=1 2 -1 -4
right_child=-2 -3 3 -5
leaf_value=-0.00014234433942008764 0.00266560354296967 0.0024654483793025411 0.0053546917748947941 -0.0035705750743186926
leaf_weight=3750 294 276 30 251
leaf_count=3750 294 276 30 251
internal_value=0 -0.000136731 -0.000314901 -0.0026177
internal_weight=0 4307 4031 281
internal_count=4601 4307 4031 281
is_linear=0
shrinkage=0.05


Tree=115
num_leaves=5
num_cat=0
split_feature=37 28 67 58
split_gain=0.982401 0.836196 0.821108 0.737327
threshold=2.1576576623905894 15.317562568640874 1.0000000180025095e-35 13.920470948590836
decision_type=2 2 2 2
left_child=2 3 -1 -2
right_child=1 -3 -4 -5
leaf_value=0.0038227399179179759 -0.0013061381805360922 0.0058414214448286941 -0.0036887478086368103 0.00043234949214670555
leaf_weight=42 740 65 272 3469
leaf_count=42 740 65 272 3469
internal_value=0 0.00021361 -0.00268403 0.000126699
internal_weight=0 4274 314 4209
internal_count=4588 4274 314 4209
is_linear=0
shrinkage=0.05


Tree=116
num_leaves=5
num_cat=0
split_feature=8 8 90 40
split_gain=1.258 1.01745 1.01484 0.844711
threshold=1.3676401967542762 2.1576576623905894 1.0000000180025095e-35 14.194544279640917
decision_type=2 2 2 2
left_child=-1 2 3 -2
right_child=1 -3 -4 -5
leaf_value=-0.0054488488608627648 -0.00022791254452794518 0.001597575184552827 -0.0038440491828281354 0.0034839609734025664
leaf_weight=103 3193 945 186 161
leaf_count=103 3193 945 186 161
internal_value=0 0.000140002 -0.000249096 -4.97338e-05
internal_weight=0 4485 3540 3354
internal_count=4588 4485 3540 3354
is_linear=0
shrinkage=0.05


Tree=117
num_leaves=5
num_cat=0
split_feature=52 145 141 58
split_gain=0.859516 0.682137 0.679108 0.572356
threshold=10.452990929423803 1.0000000180025095e-35 1.0000000180025095e-35 13.920470948590836
decision_type=2 2 2 2
left_child=1 2 3 -1
right_child=-2 -3 -4 -5
leaf_value=-0.0014069792845156812 0.012852157394473368 0.0031638672661588145 0.010855101927050524 8.9308038393996999e-05
leaf_weight=776 12.999999999999998 162 13.999999999999998 3623
leaf_count=776 13 162 14 3623
internal_value=0 -2.26743e-05 -0.000139651 -0.000174643
internal_weight=0 4575 4413 4399
internal_count=4588 4575 4413 4399
is_linear=0
shrinkage=0.05


Tree=118
num_leaves=5
num_cat=0
split_feature=79 2 10 28
split_gain=1.17215 0.932026 0.749251 0.684215
threshold=1.0000000180025095e-35 24.121738162739728 14.171100218028778 15.317562568640874
decision_type=2 2 2 2
left_child=1 2 -1 -4
right_child=-2 -3 3 -5
leaf_value=-0.00090672682605602713 0.0041639558278115064 0.0056248628264428053 0.00028170047975916964 0.0065789326390420849
leaf_weight=2116 164 69 2195 44
leaf_count=2116 164 69 2195 44
internal_value=0 -0.000140758 -0.000232108 0.000405451
internal_weight=0 4424 4355 2239
internal_count=4588 4424 4355 2239
is_linear=0
shrinkage=0.05


Tree=119
num_leaves=5
num_cat=0
split_feature=32 77 22 9
split_gain=0.83148 0.888942 0.664103 0.650166
threshold=1.0000000180025095e-35 1.0000000180025095e-35 13.539158098873896 14.072578517433286
decision_type=2 2 2 2
left_child=1 3 -2 -1
right_child=2 -3 -4 -5
leaf_value=-0.0022779760582007811 0.00061841208537496972 0.0054662605793383279 0.0045062747349867878 -0.00028394730456463832
leaf_weight=496 1588 61 118 2325
leaf_count=496 1588 61 118 2325
internal_value=0 -0.000505417 0.000887326 -0.000634546
internal_weight=0 2882 1706 2821
internal_count=4588 2882 1706 2821
is_linear=0
shrinkage=0.05


Tree=120
num_leaves=5
num_cat=0
split_feature=32 59 21 21
split_gain=0.919228 0.8231 1.24796 0.823809
threshold=1.0000000180025095e-35 1.0000000180025095e-35 11.040919577610223 10.451824665701276
decision_type=2 2 2 2
left_child=1 3 -3 -1
right_child=-2 2 -4 -5
leaf_value=0.00026540982330190184 0.00085288871973504305 -0.018277213163673877 0.0030531494567791625 -0.0014422017437019199
leaf_weight=1534 1735 16.000000000000004 11.999999999999998 1309
leaf_count=1534 1735 16 12 1309
internal_value=0 -0.000604842 -0.00913563 -0.000520824
internal_weight=0 2871 28 2843
internal_count=4606 2871 28 2843
is_linear=0
shrinkage=0.05


Tree=121
num_leaves=5
num_cat=0
split_feature=37 47 58 7
split_gain=0.871861 0.634753 0.666682 0.619749
threshold=2.1576576623905894 5.8311449663119168 14.957572556489705 1.3676401967542762
decision_type=2 2 2 2
left_child=1 2 -1 -2
right_child=3 -3 -4 -5
leaf_value=-0.0017709227872546762 -0.011723662235520104 0.0001731137481207649 -0.007853088686214307 0.00015963894870880678
leaf_weight=100 10.999999999999998 120 82 4293
leaf_count=100 11 120 82 4293
internal_value=0 -0.00264991 -0.00451124 0.000129268
internal_weight=0 302 182 4304
internal_count=4606 302 182 4304
is_linear=0
shrinkage=0.05


Tree=122
num_leaves=5
num_cat=0
split_feature=32 69 22 29
split_gain=0.821731 0.608559 0.455315 0.410298
threshold=1.0000000180025095e-35 1.0000000180025095e-35 13.539158098873896 1.0000000180025095e-35
decision_type=2 2 2 2
left_child=1 3 -2 -1
right_child=2 -3 -4 -5
leaf_value=-0.0012624314909650634 0.00059097570434188569 0.0024881881020672909 0.0038209104432891578 -1.6276932072629271e-05
leaf_weight=1584 1618 154 117 1133
leaf_count=1584 1618 154 117 1133
internal_value=0 -0.000569471 0.000808787 -0.00074278
internal_weight=0 2871 1735 2717
internal_count=4606 2871 1735 2717
is_linear=0
shrinkage=0.05


Tree=123
num_leaves=5
num_cat=0
split_feature=215 35 98 9
split_gain=0.704926 0.953745 0.604042 0.561884
threshold=1.0000000180025095e-35 0.96239039249737179 1.0000000180025095e-35 14.194544279640917
decision_type=2 2 2 2
left_child=3 -2 -3 -1
right_child=1 2 -4 -5
leaf_value=2.1705446415353275e-05 0.0058878690702840689 -0.0026036918107884151 -0.011826034439237494 0.0033978901752962838
leaf_weight=4157 32 271 19 127
leaf_count=4157 32 271 19 127
internal_value=0 -0.00230399 -0.00320791 0.000121793
internal_weight=0 322 290 4284
internal_count=4606 322 290 4284
is_linear=0
shrinkage=0.05


Tree=124
num_leaves=5
num_cat=0
split_feature=59 25 16 31
split_gain=0.709237 0.944384 0.686395 0.720497
threshold=1.0000000180025095e-35 11.695832813885263 0.96239039249737179 1.3676401967542762
decision_type=2 2 2 2
left_child=2 -2 3 -1
right_child=1 -3 -4 -5
leaf_value=0.00085472097668819267 -0.017851742872825031 -0.00016625086880392499 -0.00033766302090833966 0.0078623473350154724
leaf_weight=1056 13.000000000000002 18 3481 38
leaf_count=1056 13 18 3481 38
internal_value=0 -0.00758275 5.67204e-06 0.00109813
internal_weight=0 31 4575 1094
internal_count=4606 31 4575 1094
is_linear=0
shrinkage=0.05


Tree=125
num_leaves=5
num_cat=0
split_feature=16 215 142 10
split_gain=0.639016 0.71897 1.28385 0.776081
threshold=1.3676401967542762 1.0000000180025095e-35 1.0000000180025095e-35 14.125346624972718
decision_type=2 2 2 2
left_child=-1 -2 3 -3
right_child=1 2 -4 -5
leaf_value=0.0008419673283552166 -0.00019457260892653797 -0.0076827882681075616 0.012988650550444923 -0.0017115507407491155
leaf_weight=1480 2915 83 11.999999999999998 158
leaf_count=1480 2915 83 12 158
internal_value=0 -0.000416481 -0.00297325 -0.00376804
internal_weight=0 3168 253 241
internal_count=4648 3168 253 241
is_linear=0
shrinkage=0.05


Tree=126
num_leaves=5
num_cat=0
split_feature=79 25 7 43
split_gain=1.07102 0.649073 0.970497 0.556401
threshold=1.0000000180025095e-35 10.987217297342655 1.9379878208504662 10.195138394007442
decision_type=2 2 2 2
left_child=1 2 -1 -2
right_child=3 -3 -4 -5
leaf_value=-0.0081601039176025705 0.0055393513430489275 -3.6351030511469346e-05 -0.00050877059604972604 -0.0011598791109352577
leaf_weight=62 127 4293 125 41
leaf_count=62 127 4293 125 41
internal_value=0 -0.000161959 -0.00304558 0.00390442
internal_weight=0 4480 187 168
internal_count=4648 4480 187 168
is_linear=0
shrinkage=0.05


Tree=127
num_leaves=5
num_cat=0
split_feature=37 59 120 215
split_gain=0.849781 0.85773 0.856045 0.462194
threshold=0.96239039249737179 1.0000000180025095e-35 1.0000000180025095e-35 1.0000000180025095e-35
decision_type=2 2 2 2
left_child=-1 3 -3 -2
right_child=1 2 -4 -5
leaf_value=-0.0060816884612697256 0.00025643730507030288 -0.014058415024053484 0.0026823351470132671 -0.0017286410329989085
leaf_weight=57 4243 21 11.999999999999998 315
leaf_count=57 4243 21 12 315
internal_value=0 6.10984e-05 -0.00797087 0.00011925
internal_weight=0 4591 33 4558
internal_count=4648 4591 33 4558
is_linear=0
shrinkage=0.05


Tree=128
num_leaves=5
num_cat=0
split_feature=145 98 43 220
split_gain=0.650581 0.645742 0.580273 0.537303
threshold=1.0000000180025095e-35 1.0000000180025095e-35 10.449420902747748 1.0000000180025095e-35
decision_type=2 2 2 2
left_child=1 3 -3 -1
right_child=-2 2 -4 -5
leaf_value=-0.00019608242393201383 0.003099339123654329 -0.0052461757531108441 0.0027356328683552046 0.0017356782957968523
leaf_weight=3955 162 106 29 396
leaf_count=3955 162 106 29 396
internal_value=0 -0.000125934 -0.00353157 -2.0266e-05
internal_weight=0 4486 135 4351
internal_count=4648 4486 135 4351
is_linear=0
shrinkage=0.05


Tree=129
num_leaves=5
num_cat=0
split_feature=47 53 215 46
split_gain=0.555193 0.522886 0.490321 0.47161
threshold=7.5797681358415021 1.3676401967542762 1.0000000180025095e-35 0.96239039249737179
decision_type=2 2 2 2
left_child=2 -2 3 -1
right_child=1 -3 -4 -5
leaf_value=-0.0020809928860941558 0.011255169846117498 0.00076929643368052686 -0.0024644212880699829 2.0714364961301925e-05
leaf_weight=295 11.999999999999998 1283 254 2804
leaf_count=295 12 1283 254 2804
internal_value=0 0.000866463 -0.000352452 -0.000179351
internal_weight=0 1295 3353 3099
internal_count=4648 1295 3353 3099
is_linear=0
shrinkage=0.05


Tree=130
num_leaves=5
num_cat=0
split_feature=8 23 79 21
split_gain=1.13265 0.887449 0.745737 0.551755
threshold=1.9379878208504662 1.6806484296377997 1.0000000180025095e-35 10.451824665701276
decision_type=2 2 2 2
left_child=1 -1 -2 -3
right_child=2 3 -4 -5
leaf_value=-0.00013106768951658577 0.00068859213410734439 -0.0010166468689088053 0.0047267431468983011 -0.0038396849001687836
leaf_weight=2117 1622 425 123 292
leaf_count=2117 1622 425 123 292
internal_value=0 -0.000645989 0.00097323 -0.00216634
internal_weight=0 2834 1745 717
internal_count=4579 2834 1745 717
is_linear=0
shrinkage=0.05


Tree=131
num_leaves=5
num_cat=0
split_feature=8 9 90 8
split_gain=1.02222 1.0305 0.538965 0.542117
threshold=1.9379878208504662 14.172667812228061 1.0000000180025095e-35 2.1576576623905894
decision_type=2 2 2 2
left_child=1 -1 -2 -4
right_child=2 -3 3 -5
leaf_value=-0.0016282989350417344 0.0013013488717519032 0.00028226759908458489 -0.0041686579828934837 0.00051821498388810805
leaf_weight=1329 1474 1505 95 176
leaf_count=1329 1474 1505 95 176
internal_value=0 -0.00061369 0.000924568 -0.00112478
internal_weight=0 2834 1745 271
internal_count=4579 2834 1745 271
is_linear=0
shrinkage=0.05


Tree=132
num_leaves=5
num_cat=0
split_feature=8 9 20 37
split_gain=0.92255 0.934112 0.507474 0.505687
threshold=1.9379878208504662 14.150660429186486 12.208792046317113 0.96239039249737179
decision_type=2 2 2 2
left_child=1 -1 -2 -3
right_child=2 3 -4 -5
leaf_value=-0.0017312370200116519 0.00080446834635571843 -0.0090062720949451135 0.010720292536111979 0.00021394199000564215
leaf_weight=1090 1732 14.999999999999998 12.999999999999998 1729
leaf_count=1090 1732 15 13 1729
internal_value=0 -0.000583005 0.00087834 0.00013464
internal_weight=0 2834 1745 1744
internal_count=4579 2834 1745 1744
is_linear=0
shrinkage=0.05


Tree=133
num_leaves=5
num_cat=0
split_feature=145 141 25 51
split_gain=0.661702 0.46165 0.420348 0.33373
threshold=1.0000000180025095e-35 1.0000000180025095e-35 10.646090666242326 7.0377594975728179
decision_type=2 2 2 2
left_child=1 2 -1 -4
right_child=-2 -3 3 -5
leaf_value=-0.003574787391077602 0.0030646104965788385 0.0080818919136243714 -0.00021777174921488153 0.0015886093588330999
leaf_weight=89 167 17 4033 273
leaf_count=89 167 17 4033 273
internal_value=0 -0.000141738 -0.000173547 -0.000103247
internal_weight=0 4412 4395 4306
internal_count=4579 4412 4395 4306
is_linear=0
shrinkage=0.05


Tree=134
num_leaves=5
num_cat=0
split_feature=21 26 100 15
split_gain=0.612686 0.65562 0.480069 0.643731
threshold=10.451824665701276 12.476524558990048 1.0000000180025095e-35 1.0000000180025095e-35
decision_type=2 2 2 2
left_child=-1 2 -2 -4
right_child=1 -3 3 -5
leaf_value=0.00050456293125140917 -0.0029057223697707174 0.0025504485489265694 -0.0058149898367558135 -0.00040865435092940386
leaf_weight=2497 259 148 57 1618
leaf_count=2497 259 148 57 1618
internal_value=0 -0.000656951 -0.000902399 -0.000592631
internal_weight=0 2082 1934 1675
internal_count=4579 2082 1934 1675
is_linear=0
shrinkage=0.05


Tree=135
num_leaves=5
num_cat=0
split_feature=10 28 5 28
split_gain=0.604038 0.555543 0.491397 0.596783
threshold=14.194544279640917 11.364738886908105 1.3676401967542762 15.317562568640874
decision_type=2 2 2 2
left_child=1 -1 3 -3
right_child=-2 2 -4 -5
leaf_value=-0.004046044136757492 0.0027746675584239713 0.00052429274199868167 -0.000415462506259887 0.0063657614547345384
leaf_weight=87 192 1541 2745 45
leaf_count=87 192 1541 2745 45
internal_value=0 -9.00987e-05 -1.06327e-05 0.000690034
internal_weight=0 4418 4331 1586
internal_count=4610 4418 4331 1586
is_linear=0
shrinkage=0.05


Tree=136
num_leaves=5
num_cat=0
split_feature=79 212 52 21
split_gain=0.772633 0.533247 0.483373 0.448267
threshold=1.0000000180025095e-35 1.0000000180025095e-35 10.452990929423803 10.451824665701276
decision_type=2 2 2 2
left_child=1 2 3 -1
right_child=-2 -3 -4 -5
leaf_value=0.0001611430078578723 0.0033358117977759861 0.0017457772509482717 0.010205478085712955 -0.0009004954110145829
leaf_weight=2340 170 360 10.999999999999998 1729
leaf_count=2340 170 360 11 1729
internal_value=0 -9.89058e-05 -0.000261672 -0.000289969
internal_weight=0 4440 4080 4069
internal_count=4610 4440 4080 4069
is_linear=0
shrinkage=0.05


Tree=137
num_leaves=5
num_cat=0
split_feature=37 8 15 28
split_gain=0.817349 0.709548 0.838392 0.627314
threshold=0.96239039249737179 1.9379878208504662 1.0000000180025095e-35 11.364738886908105
decision_type=2 2 2 2
left_child=-1 2 -2 -4
right_child=1 -3 3 -5
leaf_value=-0.0053353299300319384 -0.005826875059595467 0.00090197034775977452 -0.0084688474950583084 -0.00017635471974488024
leaf_weight=70 69 1740 23 2708
leaf_count=70 69 1740 23 2708
internal_value=0 0.000109036 -0.000383717 -0.000246193
internal_weight=0 4540 2800 2731
internal_count=4610 4540 2800 2731
is_linear=0
shrinkage=0.05


Tree=138
num_leaves=5
num_cat=0
split_feature=79 59 2 2
split_gain=0.689085 0.650284 0.621284 0.509153
threshold=1.0000000180025095e-35 1.0000000180025095e-35 24.121738162739728 16.79465755551006
decision_type=2 2 2 2
left_child=1 2 3 -1
right_child=-2 -3 -4 -5
leaf_value=-0.0019251356049643715 0.0031491331993054382 -0.0074310660486420002 0.0046976103170891298 4.3376448142605727e-05
leaf_weight=358 170 30 68 3984
leaf_count=358 170 30 68 3984
internal_value=0 -9.45679e-05 -4.46597e-05 -0.000118928
internal_weight=0 4440 4410 4342
internal_count=4610 4440 4410 4342
is_linear=0
shrinkage=0.05


Tree=139
num_leaves=5
num_cat=0
split_feature=51 100 52 220
split_gain=0.600115 0.471961 0.405019 0.356892
threshold=7.26176222578761 1.0000000180025095e-35 10.452990929423803 1.0000000180025095e-35
decision_type=2 2 2 2
left_child=1 -1 3 -3
right_child=-2 2 -4 -5
leaf_value=-0.0014416291895031465 0.0022095631540168495 -9.8216848260500181e-05 0.0096626410260796554 0.0016290611470894209
leaf_weight=588 294 3389 10.999999999999998 328
leaf_count=588 294 3389 11 328
internal_value=0 -0.000125096 8.25548e-05 5.42037e-05
internal_weight=0 4316 3728 3717
internal_count=4610 4316 3728 3717
is_linear=0
shrinkage=0.05


Tree=140
num_leaves=5
num_cat=0
split_feature=8 9 10 95
split_gain=0.799849 0.76741 0.449573 0.550236
threshold=2.1576576623905894 14.072578517433286 14.19298598033931 1.0000000180025095e-35
decision_type=2 2 2 2
left_child=1 -1 -3 -4
right_child=-2 2 3 -5
leaf_value=-0.002657421348125447 0.0013339843551975787 -0.0002659075298520146 0.0011574290384612897 0.01012713648378849
leaf_weight=312 963 2976 341 18
leaf_count=312 963 2976 341 18
internal_value=0 -0.000286121 -6.42786e-05 0.00160716
internal_weight=0 3647 3335 359
internal_count=4610 3647 3335 359
is_linear=0
shrinkage=0.05


Tree=141
num_leaves=5
num_cat=0
split_feature=69 0 212 76
split_gain=0.54256 0.453299 0.519535 0.44277
threshold=1.0000000180025095e-35 2.6764223831288798 1.0000000180025095e-35 1.0000000180025095e-35
decision_type=2 2 2 2
left_child=1 2 -1 -3
right_child=-2 3 -4 -5
leaf_value=-0.00078164660901741873 0.0021355921639590399 0.00030649990897877789 0.0017015232380565512 0.0036934310535548763
leaf_weight=2195 292 1788 233 102
leaf_count=2195 292 1788 233 102
internal_value=0 -9.13635e-05 -0.000543352 0.000489287
internal_weight=0 4318 2428 1890
internal_count=4610 4318 2428 1890
is_linear=0
shrinkage=0.05


Tree=142
num_leaves=5
num_cat=0
split_feature=77 95 145 141
split_gain=0.510703 0.445047 0.460682 0.424781
threshold=1.0000000180025095e-35 1.0000000180025095e-35 1.0000000180025095e-35 1.0000000180025095e-35
decision_type=2 2 2 2
left_child=1 2 3 -1
right_child=-2 -3 -4 -5
leaf_value=-0.00021971224856446279 0.0038641522075374465 0.0035584582678754545 0.0026019542311391266 0.0082091317698359499
leaf_weight=4271 86 85 153 14.999999999999998
leaf_count=4271 86 85 153 15
internal_value=0 -2.53506e-05 -9.3975e-05 -0.000190213
internal_weight=0 4524 4439 4286
internal_count=4610 4524 4439 4286
is_linear=0
shrinkage=0.05


Tree=143
num_leaves=5
num_cat=0
split_feature=0 34 7 7
split_gain=0.421991 0.491586 0.459469 0.456944
threshold=2.6764223831288798 0.96239039249737179 1.6806484296377997 2.8180483849866156
decision_type=2 2 2 2
left_child=2 3 -1 -2
right_child=1 -3 -4 -5
leaf_value=-0.0050340549424827963 0.00070177267849396655 -0.0021841623171876441 -0.00028573313965709213 0.0070266664413542587
leaf_weight=52 1865 149 2515 29
leaf_count=52 1865 149 2515 29
internal_value=0 0.000581076 -0.00038192 0.000798616
internal_weight=0 2043 2567 1894
internal_count=4610 2043 2567 1894
is_linear=0
shrinkage=0.05


Tree=144
num_leaves=5
num_cat=0
split_feature=2 43 2 120
split_gain=0.492501 0.443381 0.439043 0.389832
threshold=17.929007414136713 8.2009380945856787 24.121738162739728 1.0000000180025095e-35
decision_type=2 2 2 2
left_child=1 3 -2 -1
right_child=2 -3 -4 -5
leaf_value=-0.0029619252330369572 0.00018389386724447832 -0.00066342197223032042 0.0041793119807594595 -0.011682401907940706
leaf_weight=88 3875 562 70 14.999999999999998
leaf_count=88 3875 562 70 15
internal_value=0 -0.00121613 0.000254788 -0.0042319
internal_weight=0 665 3945 103
internal_count=4610 665 3945 103
is_linear=0
shrinkage=0.05


Tree=145
num_leaves=5
num_cat=0
split_feature=8 90 28 28
split_gain=0.72918 0.531236 0.467089 0.4637
threshold=2.1576576623905894 1.0000000180025095e-35 11.364738886908105 14.050769112161623
decision_type=2 2 2 2
left_child=1 2 -1 -2
right_child=3 -3 -4 -5
leaf_value=-0.005246585334340732 0.00074972634206548524 -0.0029371323662783382 -0.00011864360849215497 0.0037700658912255772
leaf_weight=45 775 185 3371 152
leaf_count=45 775 185 3371 152
internal_value=0 -0.000327524 -0.000186196 0.00124497
internal_weight=0 3601 3416 927
internal_count=4528 3601 3416 927
is_linear=0
shrinkage=0.05


Tree=146
num_leaves=5
num_cat=0
split_feature=100 69 27 16
split_gain=0.466794 0.441914 0.340179 0.289355
threshold=1.0000000180025095e-35 1.0000000180025095e-35 10.25583437604444 0.96239039249737179
decision_type=2 2 2 2
left_child=2 -2 -1 -3
right_child=1 3 -4 -5
leaf_value=-0.0014258154400649242 6.0904876741692469e-05 0.0042563655615734976 0.0074450250037691804 0.00077459566062316305
leaf_weight=617 3656 104 10.999999999999998 140
leaf_count=617 3656 104 11 140
internal_value=0 0.000198403 -0.00127043 0.00225863
internal_weight=0 3900 628 244
internal_count=4528 3900 628 244
is_linear=0
shrinkage=0.05


Tree=147
num_leaves=5
num_cat=0
split_feature=59 79 2 43
split_gain=0.624975 0.598252 0.529163 0.439176
threshold=1.0000000180025095e-35 1.0000000180025095e-35 24.121738162739728 10.195138394007442
decision_type=2 2 2 2
left_child=1 2 -1 -3
right_child=-2 3 -4 -5
leaf_value=-0.0001433795170842768 -0.0073216127135373402 0.0044114515178989679 0.0042394676012918351 -0.0014290245100964123
leaf_weight=4258 29 128 70 43
leaf_count=4258 29 128 70 43
internal_value=0 4.21139e-05 -7.24924e-05 0.00294279
internal_weight=0 4499 4328 171
internal_count=4528 4499 4328 171
is_linear=0
shrinkage=0.05


Tree=148
num_leaves=5
num_cat=0
split_feature=8 59 214 40
split_gain=0.645307 0.702402 0.551464 0.529847
threshold=2.1576576623905894 1.0000000180025095e-35 1.0000000180025095e-35 14.172667812228061
decision_type=2 2 2 2
left_child=1 3 -3 -1
right_child=-2 2 -4 -5
leaf_value=-0.00078949320999242801 0.0011716494165805993 7.2588636116548008e-06 -0.014731919293602305 0.00043628555520153369
leaf_weight=1996 927 11 15 1579
leaf_count=1996 927 11 15 1579
internal_value=0 -0.000307646 -0.00849611 -0.000248093
internal_weight=0 3601 26 3575
internal_count=4528 3601 26 3575
is_linear=0
shrinkage=0.05


Tree=149
num_leaves=5
num_cat=0
split_feature=37 79 2 52
split_gain=0.602633 0.552653 0.478303 0.42041
threshold=0.96239039249737179 1.0000000180025095e-35 22.987318424081472 10.452990929423803
decision_type=2 2 2 2
left_child=-1 2 3 -2
right_child=1 -3 -4 -5
leaf_value=-0.0050247717561926379 -0.00017117454758403279 0.0028926086657235601 0.0028270975886178868 0.0092010492148498699
leaf_weight=59 4151 166 140 11.999999999999998
leaf_count=59 4151 166 140 12
internal_value=0 6.17216e-05 -4.74876e-05 -0.000144159
internal_weight=0 4469 4303 4163
internal_count=4528 4469 4303 4163
is_linear=0
shrinkage=0.05


Tree=150
num_leaves=5
num_cat=0
split_feature=8 59 15 2
split_gain=0.659627 0.813107 0.692143 0.588926
threshold=1.9379878208504662 1.0000000180025095e-35 1.0000000180025095e-35 18.525012676151327
decision_type=2 2 2 2
left_child=1 2 -1 -2
right_child=3 -3 -4 -5
leaf_value=-0.0049907743280084849 -0.00095521773243121611 -0.010463361935690045 -0.00021444983935639769 0.0012911405050291924
leaf_weight=78 370 20 2750 1380
leaf_count=78 370 20 2750 1380
internal_value=0 -0.000417235 -0.000346187 0.000816196
internal_weight=0 2848 2828 1750
internal_count=4598 2848 2828 1750
is_linear=0
shrinkage=0.05


Tree=151
num_leaves=5
num_cat=0
split_feature=21 28 28 9
split_gain=0.477807 0.441439 0.410552 0.327332
threshold=10.197742803538111 11.364738886908105 14.70059292962295 14.189867401299219
decision_type=2 2 2 2
left_child=1 -1 -2 -3
right_child=2 3 -4 -5
leaf_value=-0.0036526443192460498 -0.00067834039646763036 0.00047382182849825088 0.0017749934522334927 0.0026003471434861893
leaf_weight=61 2050 2103 186 198
leaf_count=61 2050 2103 186 198
internal_value=0 0.000545514 -0.000474262 0.000656808
internal_weight=0 2362 2236 2301
internal_count=4598 2362 2236 2301
is_linear=0
shrinkage=0.05


Tree=152
num_leaves=5
num_cat=0
split_feature=21 60 49 56
split_gain=0.431221 0.416858 0.356587 0.577903
threshold=10.197742803538111 1.0000000180025095e-35 8.340514416794198 2.3499710825428539
decision_type=2 2 2 2
left_child=2 -2 -1 -4
right_child=1 -3 3 -5
leaf_value=0.00060950227526663798 -0.00060359817322978653 0.002594709365789683 -0.010243670549243689 0.00065784397865495381
leaf_weight=2311 2129 107 20 31
